{"learner":{"attributes":{"scikit_learn":"{\"_estimator_type\": \"classifier\"}"},"feature_names":["atr14_h4_pct","rvol_h4","ret_4h","usd_basket_h4_pct","tod_min","dow"],"feature_types":["float","float","float","float","float","float"],"gradient_booster":{"model":{"cats":{"enc":[],"feature_segments":[],"sorted_idx":[]},"gbtree_model_param":{"num_parallel_tree":"1","num_trees":"400"},"iteration_indptr":[0,1,2,3,4,5,6,7,8,9,10,11,12,13,14,15,16,17,18,19,20,21,22,23,24,25,26,27,28,29,30,31,32,33,34,35,36,37,38,39,40,41,42,43,44,45,46,47,48,49,50,51,52,53,54,55,56,57,58,59,60,61,62,63,64,65,66,67,68,69,70,71,72,73,74,75,76,77,78,79,80,81,82,83,84,85,86,87,88,89,90,91,92,93,94,95,96,97,98,99,100,101,102,103,104,105,106,107,108,109,110,111,112,113,114,115,116,117,118,119,120,121,122,123,124,125,126,127,128,129,130,131,132,133,134,135,136,137,138,139,140,141,142,143,144,145,146,147,148,149,150,151,152,153,154,155,156,157,158,159,160,161,162,163,164,165,166,167,168,169,170,171,172,173,174,175,176,177,178,179,180,181,182,183,184,185,186,187,188,189,190,191,192,193,194,195,196,197,198,199,200,201,202,203,204,205,206,207,208,209,210,211,212,213,214,215,216,217,218,219,220,221,222,223,224,225,226,227,228,229,230,231,232,233,234,235,236,237,238,239,240,241,242,243,244,245,246,247,248,249,250,251,252,253,254,255,256,257,258,259,260,261,262,263,264,265,266,267,268,269,270,271,272,273,274,275,276,277,278,279,280,281,282,283,284,285,286,287,288,289,290,291,292,293,294,295,296,297,298,299,300,301,302,303,304,305,306,307,308,309,310,311,312,313,314,315,316,317,318,319,320,321,322,323,324,325,326,327,328,329,330,331,332,333,334,335,336,337,338,339,340,341,342,343,344,345,346,347,348,349,350,351,352,353,354,355,356,357,358,359,360,361,362,363,364,365,366,367,368,369,370,371,372,373,374,375,376,377,378,379,380,381,382,383,384,385,386,387,388,389,390,391,392,393,394,395,396,397,398,399,400],"tree_info":[0,0,0,0,0,0,0,0,0,0,0,0,0,0,0,0,0,0,0,0,0,0,0,0,0,0,0,0,0,0,0,0,0,0,0,0,0,0,0,0,0,0,0,0,0,0,0,0,0,0,0,0,0,0,0,0,0,0,0,0,0,0,0,0,0,0,0,0,0,0,0,0,0,0,0,0,0,0,0,0,0,0,0,0,0,0,0,0,0,0,0,0,0,0,0,0,0,0,0,0,0,0,0,0,0,0,0,0,0,0,0,0,0,0,0,0,0,0,0,0,0,0,0,0,0,0,0,0,0,0,0,0,0,0,0,0,0,0,0,0,0,0,0,0,0,0,0,0,0,0,0,0,0,0,0,0,0,0,0,0,0,0,0,0,0,0,0,0,0,0,0,0,0,0,0,0,0,0,0,0,0,0,0,0,0,0,0,0,0,0,0,0,0,0,0,0,0,0,0,0,0,0,0,0,0,0,0,0,0,0,0,0,0,0,0,0,0,0,0,0,0,0,0,0,0,0,0,0,0,0,0,0,0,0,0,0,0,0,0,0,0,0,0,0,0,0,0,0,0,0,0,0,0,0,0,0,0,0,0,0,0,0,0,0,0,0,0,0,0,0,0,0,0,0,0,0,0,0,0,0,0,0,0,0,0,0,0,0,0,0,0,0,0,0,0,0,0,0,0,0,0,0,0,0,0,0,0,0,0,0,0,0,0,0,0,0,0,0,0,0,0,0,0,0,0,0,0,0,0,0,0,0,0,0,0,0,0,0,0,0,0,0,0,0,0,0,0,0,0,0,0,0,0,0,0,0,0,0,0,0,0,0,0,0,0,0,0,0,0,0,0,0,0,0,0,0,0,0,0,0,0,0,0,0,0,0,0,0,0,0,0,0,0,0,0,0,0,0,0,0],"trees":[{"base_weights":[-3.2231233E-3,-1.1996503E0,2.0461585E-2,-2.80275E-3,-1.4700211E0,-6.885837E-2,2.3448919E-1,-8.620315E-2,-3.161066E-2,-5.494336E-2,-6.573632E-2,1.4680181E-1,7.165366E-1,-8.3604094E-4,-1.6775228E-2,1.1787782E-2,-2.0222148E-2,5.015703E-2,2.3715556E-2],"categories":[],"categories_nodes":[],"categories_segments":[],"categories_sizes":[],"default_left":[0,0,0,0,0,0,0,0,0,0,0,0,0,0,0,0,0,0,0],"id":0,"left_children":[1,3,5,-1,7,9,11,-1,-1,13,-1,15,17,-1,-1,-1,-1,-1,-1],"loss_changes":[1.49389515E1,3.0818005E0,9.901293E0,0E0,6.6321945E-1,6.266008E0,6.3401623E0,0E0,0E0,3.8829465E0,0E0,6.483263E0,1.1355553E0,0E0,0E0,0E0,0E0,0E0,0E0],"parents":[2147483647,0,0,1,1,2,2,4,4,5,5,6,6,9,9,11,11,12,12],"right_children":[2,4,6,-1,8,10,12,-1,-1,14,-1,16,18,-1,-1,-1,-1,-1,-1],"split_conditions":[7.226628E-2,6.4818196E-2,2.4307996E-1,-2.80275E-3,6.948281E-2,2.8330116E0,1.356345E0,-8.620315E-2,-3.161066E-2,2.1879867E-1,-6.573632E-2,1.1849189E0,4E0,-8.3604094E-4,-1.6775228E-2,1.1787782E-2,-2.0222148E-2,5.015703E-2,2.3715556E-2],"split_indices":[0,0,0,0,0,1,1,0,0,0,0,1,5,0,0,0,0,0,0],"split_type":[0,0,0,0,0,0,0,0,0,0,0,0,0,0,0,0,0,0,0],"sum_hessian":[5.253221E2,9.233689E0,5.160884E2,1.9964734E0,7.237216E0,3.6460596E2,1.5148242E2,4.7416244E0,2.4955919E0,3.6161124E2,2.9947102E0,1.2927165E2,2.2210768E1,3.191862E2,4.242506E1,1.1180251E2,1.7469143E1,8.734571E0,1.3476195E1],"tree_param":{"num_deleted":"0","num_feature":"6","num_nodes":"19","size_leaf_vector":"1"}},{"base_weights":[-5.5254227E-3,-7.507668E-2,2.4445274E-1,-9.211581E-1,-5.655929E-2,-8.9813095E-1,3.110041E-1,-1.1720518E0,-1.4251973E-3,4.350276E-1,-8.946038E-2,8.462234E-3,-1.1714447E0,2.0013684E-1,8.6271256E-1,-1.3378513E-2,-6.609281E-2,-1.5681442E-3,3.6787003E-2,-3.5133285E-3,-3.5095945E-2,-7.4970864E-2,-1.9888638E-2,5.3143796E-2,6.491085E-3,3.047589E-2,6.3048236E-2],"categories":[],"categories_nodes":[],"categories_segments":[],"categories_sizes":[],"default_left":[0,0,0,0,0,0,0,0,0,0,0,0,0,0,0,0,0,0,0,0,0,0,0,0,0,0,0],"id":1,"left_children":[1,3,5,7,9,11,13,15,-1,17,19,-1,21,23,25,-1,-1,-1,-1,-1,-1,-1,-1,-1,-1,-1,-1],"loss_changes":[9.40287E0,6.5757723E0,9.231151E0,1.9811201E0,6.7517624E0,2.1635823E0,6.6772213E0,5.9431076E-1,0E0,3.6985016E0,4.5334034E0,0E0,7.965431E-1,5.5978246E0,1.0904789E0,0E0,0E0,0E0,0E0,0E0,0E0,0E0,0E0,0E0,0E0,0E0,0E0],"parents":[2147483647,0,0,1,1,2,2,3,3,4,4,5,5,6,6,7,7,9,9,10,10,12,12,13,13,14,14],"right_children":[2,4,6,8,10,12,14,16,-1,18,20,-1,22,24,26,-1,-1,-1,-1,-1,-1,-1,-1,-1,-1,-1,-1],"split_conditions":[2.8382984E-1,7.226628E-2,6.1256206E-1,4E0,8.92927E-2,4.680977E-1,1.356345E0,6.4818196E-2,-1.4251973E-3,5.4E2,1.7795376E0,8.462234E-3,5.5844456E-1,6.887183E-1,5.3599584E-1,-1.3378513E-2,-6.609281E-2,-1.5681442E-3,3.6787003E-2,-3.5133285E-3,-3.5095945E-2,-7.4970864E-2,-1.9888638E-2,5.3143796E-2,6.491085E-3,3.047589E-2,6.3048236E-2],"split_indices":[0,0,1,5,0,1,1,0,0,4,1,0,1,1,0,0,0,0,0,0,0,0,0,0,0,0,0],"split_type":[0,0,0,0,0,0,0,0,0,0,0,0,0,0,0,0,0,0,0,0,0,0,0,0,0,0,0],"sum_hessian":[5.3876526E2,4.220408E2,1.16724464E2,7.9949837E0,4.140458E2,5.7368217E0,1.1098764E2,5.9965634E0,1.9984199E0,2.5206358E1,3.8883945E2,1.2471352E0,4.4896865E0,9.355106E1,1.7436573E1,1.2479403E0,4.7486234E0,1.0232284E1,1.4974073E1,3.7810477E2,1.0734682E1,2.4942703E0,1.9954162E0,5.9862485E0,8.756482E1,1.2206556E1,5.230017E0],"tree_param":{"num_deleted":"0","num_feature":"6","num_nodes":"27","size_leaf_vector":"1"}},{"base_weights":[4.3786794E-2,2.5078507E-2,7.1965784E-1,-1.1965171E-1,1.1997242E-1,7.752458E-2,-4.626701E-1,-8.352507E-2,-8.113336E-2,4.6495748E-1,2.9002458E-2,-6.3870534E-2,4.1761747E-1,2.819261E-4,-1.5088146E-2,2.5689224E-2,-5.7537075E-2,6.473006E-3,-1.0468383E-2,5.279265E-2,-1.28700975E-2],"categories":[],"categories_nodes":[],"categories_segments":[],"categories_sizes":[],"default_left":[0,0,0,0,0,0,0,0,0,0,0,0,0,0,0,0,0,0,0,0,0],"id":2,"left_children":[1,3,5,7,9,-1,11,-1,13,15,17,-1,19,-1,-1,-1,-1,-1,-1,-1,-1],"loss_changes":[6.781058E0,7.214689E0,1.4909054E1,1.2296619E1,9.939797E0,0E0,5.3620787E0,0E0,3.9095597E0,5.806879E0,6.0624657E0,0E0,1.9906318E0,0E0,0E0,0E0,0E0,0E0,0E0,0E0,0E0],"parents":[2147483647,0,0,1,1,2,2,3,3,4,4,6,6,8,8,9,9,10,10,12,12],"right_children":[2,4,6,8,10,-1,12,-1,14,16,18,-1,20,-1,-1,-1,-1,-1,-1,-1,-1],"split_conditions":[9.3120134E-1,3E0,3E0,4.2063725E-1,-1.4527312E-1,7.752458E-2,1.0472213E0,-8.352507E-2,8.6273134E-2,1.7795376E0,5E0,-6.3870534E-2,1.1821129E0,2.819261E-4,-1.5088146E-2,2.5689224E-2,-5.7537075E-2,6.473006E-3,-1.0468383E-2,5.279265E-2,-1.28700975E-2],"split_indices":[2,5,5,1,2,0,1,0,2,1,5,0,1,0,0,0,0,0,0,0,0],"split_type":[0,0,0,0,0,0,0,0,0,0,0,0,0,0,0,0,0,0,0,0,0],"sum_hessian":[5.367172E2,5.232701E2,1.3447146E1,2.0711766E2,3.1615244E2,7.714618E0,5.732528E0,3.992687E0,2.0312497E2,6.511311E1,2.5103932E2,2.742816E0,2.9897122E0,1.4648715E2,5.663781E1,6.3865093E1,1.2480211E0,1.7693112E2,7.410819E1,1.2467346E0,1.7429777E0],"tree_param":{"num_deleted":"0","num_feature":"6","num_nodes":"21","size_leaf_vector":"1"}},{"base_weights":[1.3089421E-2,-1.1303784E0,3.3010025E-2,-6.229783E-2,-1.0850007E-2,-3.0924931E-2,1.9626021E-1,1.3176844E-2,-3.594367E-1,-9.177056E-1,2.4321021E-1,1.1032702E-3,-5.9325088E-2,-1.6713908E-3,-3.0530969E-2,-1.9399589E-3,-5.9340864E-2,4.08747E-2,9.251435E-3],"categories":[],"categories_nodes":[],"categories_segments":[],"categories_sizes":[],"default_left":[0,0,0,0,0,0,0,0,0,0,0,0,0,0,0,0,0,0,0],"id":3,"left_children":[1,3,5,-1,-1,7,9,11,13,15,17,-1,-1,-1,-1,-1,-1,-1,-1],"loss_changes":[1.2294651E1,7.053118E-1,5.5364895E0,0E0,0E0,5.533539E0,8.029187E0,3.6241393E0,3.6811118E0,1.4311833E0,4.660389E0,0E0,0E0,0E0,0E0,0E0,0E0,0E0,0E0],"parents":[2147483647,0,0,1,1,2,2,5,5,6,6,7,7,8,8,9,9,10,10],"right_children":[2,4,6,-1,-1,8,10,12,14,16,18,-1,-1,-1,-1,-1,-1,-1,-1],"split_conditions":[7.226628E-2,9.512165E-1,2.4307996E-1,-6.229783E-2,-1.0850007E-2,2.1978366E-1,5.5844456E-1,2.8330116E0,6.6E2,2.731435E-1,7.095119E-1,1.1032702E-3,-5.9325088E-2,-1.6713908E-3,-3.0530969E-2,-1.9399589E-3,-5.9340864E-2,4.08747E-2,9.251435E-3],"split_indices":[0,1,0,0,0,0,1,1,4,0,1,0,0,0,0,0,0,0,0],"split_type":[0,0,0,0,0,0,0,0,0,0,0,0,0,0,0,0,0,0,0],"sum_hessian":[5.3710834E2,8.242359E0,5.2886597E2,6.993312E0,1.2490467E0,3.806138E2,1.482522E2,3.364114E2,4.420239E1,5.2455854E0,1.4300662E2,3.3491162E2,1.4997925E0,1.9729126E1,2.4473265E1,1.4978502E0,3.7477353E0,1.195485E1,1.3105177E2],"tree_param":{"num_deleted":"0","num_feature":"6","num_nodes":"19","size_leaf_vector":"1"}},{"base_weights":[8.586056E-2,-9.2048156E-1,1.0040207E-1,-1.6534312E-2,-6.7436375E-2,8.232814E-2,7.196242E-1,1.071097E-2,-1.1998947E-2,2.9298136E-1,3.6066886E-2,1.3854797E-1,1.0194086E0,2.7758494E-2,-3.263532E-3,5.736592E-5,1.4692037E-2,-2.1177886E-2,4.4535574E-2,5.5583775E-2,1.5364873E-2],"categories":[],"categories_nodes":[],"categories_segments":[],"categories_sizes":[],"default_left":[0,0,0,0,0,0,0,0,0,0,0,0,0,0,0,0,0,0,0,0,0],"id":4,"left_children":[1,3,5,7,-1,9,11,-1,-1,13,15,17,19,-1,-1,-1,-1,-1,-1,-1,-1],"loss_changes":[7.9397736E0,2.9726787E0,5.8669596E0,2.3184241E-1,0E0,5.0142517E0,2.4522195E0,0E0,0E0,8.744043E0,3.815519E0,3.0088067E0,2.933426E-1,0E0,0E0,0E0,0E0,0E0,0E0,0E0,0E0],"parents":[2147483647,0,0,1,1,2,2,3,3,5,5,6,6,9,9,10,10,11,11,12,12],"right_children":[2,4,6,8,-1,10,12,-1,-1,14,16,18,20,-1,-1,-1,-1,-1,-1,-1,-1],"split_conditions":[6.948281E-2,6.4818196E-2,9.3120134E-1,6E2,-6.7436375E-2,-1.7572016E-1,1.0472213E0,1.071097E-2,-1.1998947E-2,2.6764068E-1,3.2112962E-1,9.091386E-1,7.8E2,2.7758494E-2,-3.263532E-3,5.736592E-5,1.4692037E-2,-2.1177886E-2,4.4535574E-2,5.5583775E-2,1.5364873E-2],"split_indices":[0,0,2,4,0,2,1,0,0,0,0,0,4,0,0,0,0,0,0,0,0],"split_type":[0,0,0,0,0,0,0,0,0,0,0,0,0,0,0,0,0,0,0,0,0],"sum_hessian":[5.3525085E2,6.7367306E0,5.2851416E2,2.4994557E0,4.2372746E0,5.1462616E2,1.3888018E1,1.2499279E0,1.2495279E0,9.1705734E1,4.229204E2,5.2241435E0,8.663874E0,5.2634933E1,3.90708E1,3.7334882E2,4.9571587E1,3.2398355E0,1.9843081E0,7.173339E0,1.4905349E0],"tree_param":{"num_deleted":"0","num_feature":"6","num_nodes":"21","size_leaf_vector":"1"}},{"base_weights":[-2.9167889E-2,1.3360281E-1,-1.09121695E-1,1.6540895E-1,-9.360433E-1,-1.9440362E-1,3.3669165E-1,3.6666435E-1,-2.6635354E-2,-1.2785025E-2,-6.0113993E-2,-1.6124581E-1,-8.4100866E-1,-5.1866073E-2,4.2364544E-1,1.091474E-2,4.2013027E-2,1.6182846E-3,-6.446825E-2,-1.1669601E-2,1.1716033E-2,-6.0231864E-2,4.689338E-3,6.963262E-3,3.3511616E-2],"categories":[],"categories_nodes":[],"categories_segments":[],"categories_sizes":[],"default_left":[0,0,0,0,0,0,0,0,0,0,0,0,0,0,0,0,0,0,0,0,0,0,0,0,0],"id":5,"left_children":[1,3,5,7,9,11,13,15,17,-1,-1,19,21,-1,23,-1,-1,-1,-1,-1,-1,-1,-1,-1,-1],"loss_changes":[6.958637E0,6.1497555E0,1.3690507E1,6.6564913E0,6.414437E-1,6.3275976E0,7.358496E0,5.7218466E0,6.6673956E0,0E0,0E0,8.273472E0,5.030692E0,0E0,3.775772E0,0E0,0E0,0E0,0E0,0E0,0E0,0E0,0E0,0E0,0E0],"parents":[2147483647,0,0,1,1,2,2,3,3,4,4,5,5,6,6,7,7,8,8,11,11,12,12,14,14],"right_children":[2,4,6,8,10,12,14,16,18,-1,-1,20,22,-1,24,-1,-1,-1,-1,-1,-1,-1,-1,-1,-1],"split_conditions":[-6.2393583E-2,1.38E3,3.388192E-1,1.9539727E-1,-1.1315895E-1,4.0605703E-1,7.2340574E-4,1.6277009E-1,1.7795376E0,-1.2785025E-2,-6.0113993E-2,2.1174005E-1,2.5572374E-1,-5.1866073E-2,4.457423E-1,1.091474E-2,4.2013027E-2,1.6182846E-3,-6.446825E-2,-1.1669601E-2,1.1716033E-2,-6.0231864E-2,4.689338E-3,6.963262E-3,3.3511616E-2],"split_indices":[2,4,0,0,2,2,2,0,1,0,0,2,0,0,2,0,0,0,0,0,0,0,0,0,0],"split_type":[0,0,0,0,0,0,0,0,0,0,0,0,0,0,0,0,0,0,0,0,0,0,0,0,0],"sum_hessian":[5.3257806E2,1.7521094E2,3.573671E2,1.7097241E2,4.238536E0,3.0045538E2,5.6911716E1,8.304013E1,8.793228E1,1.7435303E0,2.4950056E0,2.8698804E2,1.3467333E1,2.736764E0,5.4174953E1,6.4343376E1,1.8696747E1,8.493793E1,2.9943566E0,2.4306593E2,4.3922108E1,9.487931E0,3.9794006E0,2.588613E1,2.8288822E1],"tree_param":{"num_deleted":"0","num_feature":"6","num_nodes":"25","size_leaf_vector":"1"}},{"base_weights":[4.3727015E-3,-1.5446274E-2,7.150074E-1,6.847675E-1,-3.6010507E-2,1.1149946E0,2.895772E-1,2.572621E-1,7.445055E-2,-9.3423074E-1,-2.3025248E-2,7.095497E-2,3.767189E-1,-2.369736E-1,7.577001E-1,4.860149E-2,-8.410362E-3,8.653025E-3,-6.602376E-2,3.3559308E-3,-5.8689616E-3,-1.7070556E-2,4.661615E-2,-6.1833657E-2,3.0655561E-2,5.9826106E-2,-1.6936961E-4],"categories":[],"categories_nodes":[],"categories_segments":[],"categories_sizes":[],"default_left":[0,0,0,0,0,0,0,0,0,0,0,0,0,0,0,0,0,0,0,0,0,0,0,0,0,0,0],"id":6,"left_children":[1,3,5,7,9,11,13,15,-1,17,19,-1,21,23,25,-1,-1,-1,-1,-1,-1,-1,-1,-1,-1,-1,-1],"loss_changes":[7.5528502E0,7.5401936E0,2.1530757E0,4.753957E0,5.9035416E0,1.0703325E0,2.250483E0,3.4978805E0,0E0,3.3138309E0,4.2757373E0,0E0,1.6936097E0,4.765865E0,1.5690353E0,0E0,0E0,0E0,0E0,0E0,0E0,0E0,0E0,0E0,0E0,0E0,0E0],"parents":[2147483647,0,0,1,1,2,2,3,3,4,4,5,5,6,6,7,7,9,9,10,10,12,12,13,13,14,14],"right_children":[2,4,6,8,10,12,14,16,-1,18,20,-1,22,24,26,-1,-1,-1,-1,-1,-1,-1,-1,-1,-1,-1,-1],"split_conditions":[9.3120134E-1,-6.7020285E-1,6.523733E-1,1.233999E0,6.948281E-2,1.1568302E0,1.0472213E0,8.965972E-1,7.445055E-2,6.4818196E-2,1.7044705E-1,7.095497E-2,1.3486528E0,9.091386E-1,1.2608492E0,4.860149E-2,-8.410362E-3,8.653025E-3,-6.602376E-2,3.3559308E-3,-5.8689616E-3,-1.7070556E-2,4.661615E-2,-6.1833657E-2,3.0655561E-2,5.9826106E-2,-1.6936961E-4],"split_indices":[2,2,0,1,0,1,1,1,0,0,0,0,1,0,1,0,0,0,0,0,0,0,0,0,0,0,0],"split_type":[0,0,0,0,0,0,0,0,0,0,0,0,0,0,0,0,0,0,0,0,0,0,0,0,0,0,0],"sum_hessian":[5.3448553E2,5.2093536E2,1.3550163E1,1.3941093E1,5.069943E2,6.1485076E0,7.4016557E0,9.964319E0,3.9767737E0,6.213972E0,5.0078033E2,3.7015944E0,2.4469132E0,3.7158256E0,3.6858299E0,3.238758E0,6.725561E0,1.7497381E0,4.464234E0,2.5625153E2,2.445288E2,1.2355072E0,1.2114059E0,1.4986496E0,2.217176E0,1.974986E0,1.710844E0],"tree_param":{"num_deleted":"0","num_feature":"6","num_nodes":"27","size_leaf_vector":"1"}},{"base_weights":[2.3423444E-2,-9.403272E-1,4.0560436E-2,-1.4983353E-2,-1.1281494E0,-1.8911073E-2,1.8759698E-1,-6.361615E-2,-1.8149616E-2,4.2509478E-1,-5.016839E-2,-1.1611415E0,2.4118881E-1,7.902008E-5,3.5365213E-2,-1.6376944E-3,-3.8796775E-2,-1.2521152E-2,-6.739246E-2,8.864625E-3,2.8093034E-2],"categories":[],"categories_nodes":[],"categories_segments":[],"categories_sizes":[],"default_left":[0,0,0,0,0,0,0,0,0,0,0,0,0,0,0,0,0,0,0,0,0],"id":7,"left_children":[1,3,5,-1,7,9,11,-1,-1,13,15,17,19,-1,-1,-1,-1,-1,-1,-1,-1],"loss_changes":[8.913731E0,7.966709E-1,4.62912E0,0E0,3.0271244E-1,5.261024E0,1.1297744E1,0E0,0E0,2.979219E0,4.443772E0,6.822233E-1,2.9212027E0,0E0,0E0,0E0,0E0,0E0,0E0,0E0,0E0],"parents":[2147483647,0,0,1,1,2,2,4,4,5,5,6,6,9,9,10,10,11,11,12,12],"right_children":[2,4,6,-1,8,10,12,-1,-1,14,16,18,20,-1,-1,-1,-1,-1,-1,-1,-1],"split_conditions":[7.226628E-2,6.4818196E-2,2.4164104E-1,-1.4983353E-2,6.948281E-2,8.92927E-2,5.5844456E-1,-6.361615E-2,-1.8149616E-2,7.711621E-1,1.8766729E0,2.6549137E-1,1.3761817E0,7.902008E-5,3.5365213E-2,-1.6376944E-3,-3.8796775E-2,-1.2521152E-2,-6.739246E-2,8.864625E-3,2.8093034E-2],"split_indices":[0,0,0,0,0,0,1,0,0,1,1,0,1,0,0,0,0,0,0,0,0],"split_type":[0,0,0,0,0,0,0,0,0,0,0,0,0,0,0,0,0,0,0,0,0],"sum_hessian":[5.3640045E2,8.430221E0,5.279702E2,2.4995966E0,5.930624E0,3.7654242E2,1.514278E2,4.4325933E0,1.4980305E0,2.3935936E1,3.526065E2,4.9972134E0,1.4643059E2,9.9737835E0,1.39621525E1,3.4536472E2,7.241765E0,1.2485112E0,3.748702E0,1.2339589E2,2.3034698E1],"tree_param":{"num_deleted":"0","num_feature":"6","num_nodes":"21","size_leaf_vector":"1"}},{"base_weights":[-2.8583968E-2,-7.079026E-2,1.8655814E-1,1.08661205E-1,-1.0622207E-1,2.821604E-1,-2.462409E-1,-2.9233214E-3,4.6014723E-1,-7.2616166E-1,-9.268086E-2,6.06131E-1,1.4484632E-1,-9.967592E-1,7.57762E-1,-3.8844105E-3,4.293737E-2,-1.7482018E-2,3.857095E-2,-4.4426094E-3,-6.0082175E-2,-2.4517471E-2,-3.877734E-3,1.1712468E-2,5.4206956E-2,-6.244657E-3,1.8152375E-2,-1.304547E-2,-6.374018E-2,-3.6801565E-3,5.8350097E-2],"categories":[],"categories_nodes":[],"categories_segments":[],"categories_sizes":[],"default_left":[0,0,0,0,0,0,0,0,0,0,0,0,0,0,0,0,0,0,0,0,0,0,0,0,0,0,0,0,0,0,0],"id":8,"left_children":[1,3,5,7,9,11,13,15,17,19,21,23,25,27,29,-1,-1,-1,-1,-1,-1,-1,-1,-1,-1,-1,-1,-1,-1,-1,-1],"loss_changes":[4.941048E0,2.900837E0,3.7635448E0,2.9594266E0,3.1226296E0,3.1860042E0,1.3329362E1,3.8187902E0,4.8523674E0,2.3102994E0,2.2057347E0,3.584415E0,3.164753E0,1.7094603E0,2.707757E0,0E0,0E0,0E0,0E0,0E0,0E0,0E0,0E0,0E0,0E0,0E0,0E0,0E0,0E0,0E0,0E0],"parents":[2147483647,0,0,1,1,2,2,3,3,4,4,5,5,6,6,7,7,8,8,9,9,10,10,11,11,12,12,13,13,14,14],"right_children":[2,4,6,8,10,12,14,16,18,20,22,24,26,28,30,-1,-1,-1,-1,-1,-1,-1,-1,-1,-1,-1,-1,-1,-1,-1,-1],"split_conditions":[1.2400368E0,-1.8489267E-1,1.7795376E0,1.0820556E0,-1.6455486E-1,-1.352994E-1,5.311811E-2,1.26E3,-5.965898E-1,8.965972E-1,4.0578938E-1,9E2,1.3761817E0,-1.1832781E-1,2.098522E0,-3.8844105E-3,4.293737E-2,-1.7482018E-2,3.857095E-2,-4.4426094E-3,-6.0082175E-2,-2.4517471E-2,-3.877734E-3,1.1712468E-2,5.4206956E-2,-6.244657E-3,1.8152375E-2,-1.304547E-2,-6.374018E-2,-3.6801565E-3,5.8350097E-2],"split_indices":[1,2,1,1,2,2,2,4,2,1,1,4,1,2,1,0,0,0,0,0,0,0,0,0,0,0,0,0,0,0,0],"split_type":[0,0,0,0,0,0,0,0,0,0,0,0,0,0,0,0,0,0,0,0,0,0,0,0,0,0,0,0,0,0,0],"sum_hessian":[5.41693E2,4.5341382E2,8.827916E1,7.4422E1,3.7899182E2,7.2592125E1,1.5687033E1,5.724151E1,1.7180492E1,6.9763584E0,3.7201544E2,2.0592712E1,5.1999413E1,8.980838E0,6.7061954E0,5.3508553E1,3.732956E0,4.736087E0,1.24444065E1,3.4880445E0,3.4883142E0,1.2480649E1,3.595348E2,1.2420129E1,8.172584E0,2.3444738E1,2.8554674E1,2.9944196E0,5.9864182E0,2.4827235E0,4.2234716E0],"tree_param":{"num_deleted":"0","num_feature":"6","num_nodes":"31","size_leaf_vector":"1"}},{"base_weights":[3.5535907E-3,-1.2320726E0,1.9270258E-2,-2.0182492E-2,-6.975396E-2,-1.1032606E-2,4.304531E-1,7.575436E-3,-9.7588307E-1,-7.8342766E-1,6.408083E-1,1.6274525E-2,-8.529394E-4,-2.3525711E-2,-7.026815E-2,1.1431762E-2,-5.5770665E-2,3.775903E-2,-3.7425216E-3],"categories":[],"categories_nodes":[],"categories_segments":[],"categories_sizes":[],"default_left":[0,0,0,0,0,0,0,0,0,0,0,0,0,0,0,0,0,0,0],"id":9,"left_children":[1,3,5,-1,-1,7,9,11,13,15,17,-1,-1,-1,-1,-1,-1,-1,-1],"loss_changes":[1.0276139E1,3.3435917E-1,6.5124383E0,0E0,0E0,8.758374E0,9.6622715E0,3.7583086E0,1.3420973E0,2.186424E0,2.6041908E0,0E0,0E0,0E0,0E0,0E0,0E0,0E0,0E0],"parents":[2147483647,0,0,1,1,2,2,5,5,6,6,7,7,8,8,9,9,10,10],"right_children":[2,4,6,-1,-1,8,10,12,14,16,18,-1,-1,-1,-1,-1,-1,-1,-1],"split_conditions":[6.948281E-2,6.4818196E-2,4.6039537E-1,-2.0182492E-2,-6.975396E-2,4.0605703E-1,2.5572374E-1,-4.1261506E-1,4E0,5.0097305E-1,9.3378174E-1,1.6274525E-2,-8.529394E-4,-2.3525711E-2,-7.026815E-2,1.1431762E-2,-5.5770665E-2,3.775903E-2,-3.7425216E-3],"split_indices":[0,0,2,0,0,2,0,2,5,2,0,0,0,0,0,0,0,0,0],"split_type":[0,0,0,0,0,0,0,0,0,0,0,0,0,0,0,0,0,0,0],"sum_hessian":[5.269318E2,5.64614E0,5.212857E2,1.4998696E0,4.1462708E0,4.8641187E2,3.4873837E1,4.7818185E2,8.230035E0,4.748385E0,3.012545E1,3.350987E1,4.4467197E2,4.7436852E0,3.486349E0,1.2497661E0,3.4986188E0,2.5926767E1,4.1986837E0],"tree_param":{"num_deleted":"0","num_feature":"6","num_nodes":"19","size_leaf_vector":"1"}},{"base_weights":[3.5876927E-3,-1.3684777E-2,6.9467854E-1,-4.6352975E-2,2.6673907E-1,5.73253E-2,3.8302326E-1,-3.8614295E-2,-5.778679E-2,7.542101E-1,-7.198628E-3,5.3817207E-1,-1.7429069E-2,1.4017088E-3,-7.76015E-3,-1.8244965E-2,4.2381894E-2,6.0370106E-2,-6.0570394E-3,7.6617002E-3,4.8010077E-2],"categories":[],"categories_nodes":[],"categories_segments":[],"categories_sizes":[],"default_left":[0,0,0,0,0,0,0,0,0,0,0,0,0,0,0,0,0,0,0,0,0],"id":10,"left_children":[1,3,5,7,9,-1,11,13,-1,15,17,19,-1,-1,-1,-1,-1,-1,-1,-1,-1],"loss_changes":[6.4462566E0,4.8407845E0,1.4150767E0,4.015496E0,7.368964E0,0E0,1.2425764E0,3.6617665E0,0E0,2.384574E0,5.1691403E0,1.1624622E0,0E0,0E0,0E0,0E0,0E0,0E0,0E0,0E0,0E0],"parents":[2147483647,0,0,1,1,2,2,3,3,4,4,6,6,7,7,9,9,10,10,11,11],"right_children":[2,4,6,8,10,-1,12,14,-1,16,18,20,-1,-1,-1,-1,-1,-1,-1,-1,-1],"split_conditions":[9.3120134E-1,1.3761817E0,1.1734221E0,1.3678459E0,1.5078535E0,5.73253E-2,1.14E3,6.042483E-2,-5.778679E-2,-5.573947E-1,-5.573947E-1,1.6559663E0,-1.7429069E-2,1.4017088E-3,-7.76015E-3,-1.8244965E-2,4.2381894E-2,6.0370106E-2,-6.0570394E-3,7.6617002E-3,4.8010077E-2],"split_indices":[2,1,2,1,1,0,4,2,0,2,2,2,0,0,0,0,0,0,0,0,0],"split_type":[0,0,0,0,0,0,0,0,0,0,0,0,0,0,0,0,0,0,0,0,0],"sum_hessian":[5.3823376E2,5.26066E2,1.2167796E1,4.7192358E2,5.4142406E1,3.8734436E0,8.294353E0,4.6968204E2,2.2415361E0,1.8848448E1,3.529396E1,7.0612855E0,1.233067E0,2.9932886E2,1.7035316E2,1.2284123E0,1.7620035E1,2.2039256E0,3.3090034E1,4.4057956E0,2.6554902E0],"tree_param":{"num_deleted":"0","num_feature":"6","num_nodes":"21","size_leaf_vector":"1"}},{"base_weights":[-6.800261E-4,-8.811472E-1,1.4571835E-2,-7.233243E-3,-1.0941684E0,-1.593907E-2,2.827516E-1,-6.404396E-2,-5.6782267E-3,-7.5749103E-3,-6.796685E-2,5.857436E-1,-1.1118749E-1,2.122518E-2,-1.4261495E-3,2.1131676E-2,5.32628E-2,-2.0040326E-2,3.128814E-2],"categories":[],"categories_nodes":[],"categories_segments":[],"categories_sizes":[],"default_left":[0,0,0,0,0,0,0,0,0,0,0,0,0,0,0,0,0,0,0],"id":11,"left_children":[1,3,5,-1,7,9,11,-1,-1,13,-1,15,17,-1,-1,-1,-1,-1,-1],"loss_changes":[7.372836E0,1.3083887E0,4.4207845E0,0E0,1.154275E0,5.4454494E0,6.6521487E0,0E0,0E0,4.3887653E0,0E0,2.0020351E0,5.5509653E0,0E0,0E0,0E0,0E0,0E0,0E0],"parents":[2147483647,0,0,1,1,2,2,4,4,5,5,6,6,9,9,11,11,12,12],"right_children":[2,4,6,-1,8,10,12,-1,-1,14,-1,16,18,-1,-1,-1,-1,-1,-1],"split_conditions":[7.226628E-2,6.4818196E-2,1.3761817E0,-7.233243E-3,9E2,1.3678459E0,1.5934968E0,-6.404396E-2,-5.6782267E-3,8.76248E-2,-6.796685E-2,3.4263393E-1,2.6764068E-1,2.122518E-2,-1.4261495E-3,2.1131676E-2,5.32628E-2,-2.0040326E-2,3.128814E-2],"split_indices":[0,0,1,0,4,1,1,0,0,0,0,0,0,0,0,0,0,0,0],"split_type":[0,0,0,0,0,0,0,0,0,0,0,0,0,0,0,0,0,0,0],"sum_hessian":[5.47077E2,8.348653E0,5.387284E2,2.2497292E0,6.0989237E0,4.845424E2,5.418599E1,4.8661704E0,1.2327532E0,4.8254364E2,1.9987372E0,3.0353323E1,2.3832668E1,2.1422157E1,4.611215E2,2.4052906E1,6.300416E0,1.7436363E1,6.396305E0],"tree_param":{"num_deleted":"0","num_feature":"6","num_nodes":"19","size_leaf_vector":"1"}},{"base_weights":[-1.3419418E-2,-5.820982E-2,1.7589256E-1,-1.685019E-2,-4.4967613E-1,4.324068E-1,-2.1662401E-2,2.5991416E-3,-7.013019E-1,-9.7915316E-1,-5.563251E-2,-2.2333053E-1,6.763125E-1,1.4104867E-1,-3.0477092E-1,-3.2461364E-2,9.3289494E-4,-4.874615E-2,2.3741823E-2,-6.4053774E-2,-2.378877E-2,1.270646E-2,-2.9410882E-2,-2.4066482E-2,1.8619878E-2,3.7395895E-2,-7.5329877E-3,1.0644447E-2,-3.1862788E-2,-5.418138E-2,9.6873045E-3],"categories":[],"categories_nodes":[],"categories_segments":[],"categories_sizes":[],"default_left":[0,0,0,0,0,0,0,0,0,0,0,0,0,0,0,0,0,0,0,0,0,0,0,0,0,0,0,0,0,0,0],"id":12,"left_children":[1,3,5,7,9,11,13,15,17,19,21,23,25,27,29,-1,-1,-1,-1,-1,-1,-1,-1,-1,-1,-1,-1,-1,-1,-1,-1],"loss_changes":[4.582328E0,7.0644283E0,5.249903E0,5.274617E0,8.645564E0,7.354719E0,2.7779913E0,4.054058E0,3.9861588E0,2.0854034E0,4.268487E0,2.1715991E0,2.0713902E0,2.2820268E0,8.746419E0,0E0,0E0,0E0,0E0,0E0,0E0,0E0,0E0,0E0,0E0,0E0,0E0,0E0,0E0,0E0,0E0],"parents":[2147483647,0,0,1,1,2,2,3,3,4,4,5,5,6,6,7,7,8,8,9,9,10,10,11,11,12,12,13,13,14,14],"right_children":[2,4,6,8,10,12,14,16,18,20,22,24,26,28,30,-1,-1,-1,-1,-1,-1,-1,-1,-1,-1,-1,-1,-1,-1,-1,-1],"split_conditions":[1.9498914E-1,1.2559459E-1,7.2E2,1.7795376E0,8.5859424E-1,8.472852E-1,4.0605703E-1,7.226628E-2,5.311811E-2,1.6035825E-1,2.2153914E-1,3.5068935E-1,9.091386E-1,1.32E3,3.0949277E-1,-3.2461364E-2,9.3289494E-4,-4.874615E-2,2.3741823E-2,-6.4053774E-2,-2.378877E-2,1.270646E-2,-2.9410882E-2,-2.4066482E-2,1.8619878E-2,3.7395895E-2,-7.5329877E-3,1.0644447E-2,-3.1862788E-2,-5.418138E-2,9.6873045E-3],"split_indices":[2,2,4,1,1,1,2,0,2,2,0,0,0,4,0,0,0,0,0,0,0,0,0,0,0,0,0,0,0,0,0],"split_type":[0,0,0,0,0,0,0,0,0,0,0,0,0,0,0,0,0,0,0,0,0,0,0,0,0,0,0,0,0,0,0],"sum_hessian":[5.3820215E2,4.3578888E2,1.0241326E2,3.9508948E2,4.0699387E1,4.4040413E1,5.8372852E1,3.8514154E2,9.947953E0,1.6731867E1,2.396752E1,1.1962837E1,3.2077576E1,3.738712E1,2.098573E1,8.312396E0,3.7682913E2,8.209213E0,1.73874E0,9.493048E0,7.2388186E0,1.5484359E1,8.483162E0,8.481628E0,3.4812088E0,2.9609375E1,2.4682026E0,3.4892857E1,2.4942641E0,7.731984E0,1.3253746E1],"tree_param":{"num_deleted":"0","num_feature":"6","num_nodes":"31","size_leaf_vector":"1"}},{"base_weights":[-9.045134E-3,-8.82989E-1,5.5258567E-3,7.79383E-3,-1.1122603E0,1.0410076E0,-3.8392234E-3,-7.35471E-3,-6.9457315E-2,1.5228649E-2,6.42949E-2,-2.949552E-2,3.4930983E-1,3.5354462E-3,-6.863681E-3,-3.8106926E-2,3.0558309E-2],"categories":[],"categories_nodes":[],"categories_segments":[],"categories_sizes":[],"default_left":[0,0,0,0,0,0,0,0,0,0,0,0,0,0,0,0,0],"id":13,"left_children":[1,3,5,-1,7,9,11,-1,-1,-1,-1,13,15,-1,-1,-1,-1],"loss_changes":[6.814873E0,2.2637086E0,5.1145344E0,0E0,1.7498465E0,4.6088982E-1,4.751436E0,0E0,0E0,0E0,0E0,5.2881975E0,1.0803246E1,0E0,0E0,0E0,0E0],"parents":[2147483647,0,0,1,1,2,2,4,4,5,5,6,6,11,11,12,12],"right_children":[2,4,6,-1,8,10,12,-1,-1,-1,-1,14,16,-1,-1,-1,-1],"split_conditions":[7.226628E-2,-6.977004E-2,7.530019E-2,7.79383E-3,6.4818196E-2,7.2E2,4.6039537E-1,-7.35471E-3,-6.9457315E-2,1.5228649E-2,6.42949E-2,1.7044705E-1,2.979057E-1,3.5354462E-3,-6.863681E-3,-3.8106926E-2,3.0558309E-2],"split_indices":[0,2,0,0,0,4,2,0,0,0,0,0,0,0,0,0,0],"split_type":[0,0,0,0,0,0,0,0,0,0,0,0,0,0,0,0,0],"sum_hessian":[5.337786E2,7.7761965E0,5.2600244E2,1.4637645E0,6.3124323E0,3.727257E0,5.222752E2,1.7485614E0,4.563871E0,1.4900593E0,2.2371979E0,4.8775616E2,3.4519035E1,2.5293712E2,2.3481905E2,6.2176633E0,2.830137E1],"tree_param":{"num_deleted":"0","num_feature":"6","num_nodes":"17","size_leaf_vector":"1"}},{"base_weights":[-3.393144E-2,-6.361995E-2,2.280398E-1,-5.5699516E-2,-5.7040643E-2,5.488933E-1,-1.1050698E-1,-6.921397E-1,-4.4302855E-2,3.7328437E-1,1.0892174E0,-8.2824564E-1,2.6595645E-2,-4.9186036E-2,9.50784E-3,1.4927578E-2,-3.0242302E-3,2.770103E-2,-2.948399E-3,-2.4781125E-3,6.753409E-2,8.798221E-3,-6.356045E-2,4.700999E-2,-6.693072E-3],"categories":[],"categories_nodes":[],"categories_segments":[],"categories_sizes":[],"default_left":[0,0,0,0,0,0,0,0,0,0,0,0,0,0,0,0,0,0,0,0,0,0,0,0,0],"id":14,"left_children":[1,3,5,7,-1,9,11,13,15,17,19,21,23,-1,-1,-1,-1,-1,-1,-1,-1,-1,-1,-1,-1],"loss_changes":[4.2168374E0,4.0837708E0,6.058629E0,3.4770417E0,0E0,2.2992964E0,2.747863E0,2.3581047E0,2.6598008E0,1.832933E0,1.9944358E0,2.2137687E0,3.677348E0,0E0,0E0,0E0,0E0,0E0,0E0,0E0,0E0,0E0,0E0,0E0,0E0],"parents":[2147483647,0,0,1,1,2,2,3,3,5,5,6,6,7,7,8,8,9,9,10,10,11,11,12,12],"right_children":[2,4,6,8,-1,10,12,14,16,18,20,22,24,-1,-1,-1,-1,-1,-1,-1,-1,-1,-1,-1,-1],"split_conditions":[1.3761817E0,1.3678459E0,1.5787498E0,7.226628E-2,-5.7040643E-2,3.4263393E-1,1.3334043E-1,8.5090595E-1,8.76248E-2,1.5078535E0,3E2,1.677693E0,1.5011033E-1,-4.9186036E-2,9.50784E-3,1.4927578E-2,-3.0242302E-3,2.770103E-2,-2.948399E-3,-2.4781125E-3,6.753409E-2,8.798221E-3,-6.356045E-2,4.700999E-2,-6.693072E-3],"split_indices":[1,1,1,0,0,0,0,1,0,1,4,1,0,0,0,0,0,0,0,0,0,0,0,0,0],"split_type":[0,0,0,0,0,0,0,0,0,0,0,0,0,0,0,0,0,0,0,0,0,0,0,0,0],"sum_hessian":[5.3931635E2,4.8509854E2,5.4217785E1,4.8260175E2,2.4967897E0,2.7517292E1,2.6700493E1,7.4390726E0,4.7516266E2,2.2043772E1,5.4735203E0,3.4738197E0,2.3226673E1,5.5048704E0,1.9342022E0,2.0629099E1,4.5453357E2,1.5345644E1,6.6981277E0,1.1733903E0,4.30013E0,1.2477934E0,2.2260265E0,2.7439232E0,2.048275E1],"tree_param":{"num_deleted":"0","num_feature":"6","num_nodes":"25","size_leaf_vector":"1"}},{"base_weights":[-5.97862E-3,-7.641975E-1,5.671868E-3,-7.171428E-2,-5.5128843E-2,7.896292E-1,-3.1862976E-3,-1.6564814E-2,1.2406373E-2,-1.790919E-3,5.6807894E-2,-3.2372884E-2,2.4294303E-1,-1.2653975E-3,-6.1371963E-2,2.2082258E-2,-1.5455431E-2],"categories":[],"categories_nodes":[],"categories_segments":[],"categories_sizes":[],"default_left":[0,0,0,0,0,0,0,0,0,0,0,0,0,0,0,0,0],"id":15,"left_children":[1,3,5,7,-1,9,11,-1,-1,-1,-1,13,15,-1,-1,-1,-1],"loss_changes":[4.7561655E0,1.8301463E0,3.6884627E0,3.9305687E-1,0E0,1.7381854E0,3.7853527E0,0E0,0E0,0E0,0E0,3.9454565E0,6.264333E0,0E0,0E0,0E0,0E0],"parents":[2147483647,0,0,1,1,2,2,3,3,5,5,6,6,11,11,12,12],"right_children":[2,4,6,8,-1,10,12,-1,-1,-1,-1,14,16,-1,-1,-1,-1],"split_conditions":[6.948281E-2,6.4818196E-2,7.530019E-2,8.5090595E-1,-5.5128843E-2,7.226628E-2,1.3761817E0,-1.6564814E-2,1.2406373E-2,-1.790919E-3,5.6807894E-2,1.3678459E0,1.7795376E0,-1.2653975E-3,-6.1371963E-2,2.2082258E-2,-1.5455431E-2],"split_indices":[0,0,0,1,0,0,1,0,0,0,0,1,1,0,0,0,0],"split_type":[0,0,0,0,0,0,0,0,0,0,0,0,0,0,0,0,0],"sum_hessian":[5.3692566E2,7.147835E0,5.2977783E2,2.7440841E0,4.403751E0,4.934425E0,5.248434E2,1.4949648E0,1.2491192E0,1.724122E0,3.210303E0,4.699805E2,5.4862907E1,4.6823358E2,1.7469038E0,4.048939E1,1.4373513E1],"tree_param":{"num_deleted":"0","num_feature":"6","num_nodes":"17","size_leaf_vector":"1"}},{"base_weights":[-2.5895314E-2,-5.5600166E-2,2.3936604E-1,-4.9253162E-2,-4.9971003E-2,5.1394147E-1,-1.979547E-2,-5.04521E-1,-3.6551144E-2,-3.075989E-1,6.376134E-1,3.6479533E-1,-2.483735E-1,-7.604461E-2,2.8261282E-3,-8.981653E-4,-1.16786305E-2,3.0612785E-3,-2.3977734E-2,4.8616786E-2,2.1043858E-2,1.3751212E-3,3.8210843E-2,-2.3333495E-2,4.061524E-3],"categories":[],"categories_nodes":[],"categories_segments":[],"categories_sizes":[],"default_left":[0,0,0,0,0,0,0,0,0,0,0,0,0,0,0,0,0,0,0,0,0,0,0,0,0],"id":16,"left_children":[1,3,5,7,-1,9,11,13,15,17,19,21,23,-1,-1,-1,-1,-1,-1,-1,-1,-1,-1,-1,-1],"loss_changes":[4.323186E0,2.9022498E0,3.9432685E0,2.8177958E0,0E0,2.9266505E0,2.6748514E0,7.632558E0,1.7471604E0,2.9515305E-1,1.3089504E0,1.5099177E0,1.4073699E0,0E0,0E0,0E0,0E0,0E0,0E0,0E0,0E0,0E0,0E0,0E0,0E0],"parents":[2147483647,0,0,1,1,2,2,3,3,5,5,6,6,7,7,8,8,9,9,10,10,11,11,12,12],"right_children":[2,4,6,8,-1,10,12,14,16,18,20,22,24,-1,-1,-1,-1,-1,-1,-1,-1,-1,-1,-1,-1],"split_conditions":[1.3761817E0,1.3678459E0,1.5787498E0,4.0578938E-1,-4.9971003E-2,6E1,3E2,3E0,1.26E3,1.4539866E0,5.4E2,2.4E2,1.02E3,-7.604461E-2,2.8261282E-3,-8.981653E-4,-1.16786305E-2,3.0612785E-3,-2.3977734E-2,4.8616786E-2,2.1043858E-2,1.3751212E-3,3.8210843E-2,-2.3333495E-2,4.061524E-3],"split_indices":[1,1,1,1,0,4,4,5,4,1,4,4,4,0,0,0,0,0,0,0,0,0,0,0,0],"split_type":[0,0,0,0,0,0,0,0,0,0,0,0,0,0,0,0,0,0,0,0,0,0,0,0,0],"sum_hessian":[5.4597003E2,4.9169843E2,5.4271633E1,4.894591E2,2.239331E0,2.5874805E1,2.8396828E1,1.2234332E1,4.7722476E2,3.190882E0,2.2683922E1,1.036366E1,1.8033167E1,3.7429247E0,8.491407E0,4.3707996E2,4.0144802E1,1.2193878E0,1.9714943E0,7.5451345E0,1.5138788E1,6.1983213E0,4.1653385E0,1.0598164E1,7.4350038E0],"tree_param":{"num_deleted":"0","num_feature":"6","num_nodes":"25","size_leaf_vector":"1"}},{"base_weights":[1.4393083E-3,-6.230815E-2,1.6576657E-1,1.4339478E-1,-1.5679692E-1,-5.982407E-2,3.458679E-1,1.7999932E-1,-4.990449E-2,-1.3380358E-1,-5.158059E-2,1.06174275E-1,-8.2918966E-1,7.9193944E-1,2.5783807E-1,1.571255E-2,-1.0390605E-2,-9.042467E-3,1.3615287E-2,5.894212E-2,-2.1178576E-3,-1.6590937E-3,-4.9050562E-2,4.613749E-2,-1.3619157E-2,1.9746812E-3,2.4718028E-2],"categories":[],"categories_nodes":[],"categories_segments":[],"categories_sizes":[],"default_left":[0,0,0,0,0,0,0,0,0,0,0,0,0,0,0,0,0,0,0,0,0,0,0,0,0,0,0],"id":17,"left_children":[1,3,5,7,9,11,13,15,-1,17,-1,19,21,23,25,-1,-1,-1,-1,-1,-1,-1,-1,-1,-1,-1,-1],"loss_changes":[5.6879845E0,7.6267486E0,6.18668E0,5.3469276E0,5.264156E0,8.801344E0,3.1153793E0,6.348033E0,0E0,5.0709424E0,0E0,9.132093E0,1.4444208E0,2.1239853E0,3.7032723E0,0E0,0E0,0E0,0E0,0E0,0E0,0E0,0E0,0E0,0E0,0E0,0E0],"parents":[2147483647,0,0,1,1,2,2,3,3,4,4,5,5,6,6,7,7,9,9,11,11,12,12,13,13,14,14],"right_children":[2,4,6,8,10,12,14,16,-1,18,-1,20,22,24,26,-1,-1,-1,-1,-1,-1,-1,-1,-1,-1,-1,-1],"split_conditions":[2.4569595E-1,-6.2393583E-2,8.312594E-3,1.38E3,4.2355952E-1,-9.5045865E-2,1.0432472E-1,1.9539727E-1,-4.990449E-2,2.435737E-1,-5.158059E-2,2.6034313E-1,3E2,5.8635485E-1,4.6039537E-1,1.571255E-2,-1.0390605E-2,-9.042467E-3,1.3615287E-2,5.894212E-2,-2.1178576E-3,-1.6590937E-3,-4.9050562E-2,4.613749E-2,-1.3619157E-2,1.9746812E-3,2.4718028E-2],"split_indices":[0,2,2,4,2,2,2,0,0,2,0,0,4,0,2,0,0,0,0,0,0,0,0,0,0,0,0],"split_type":[0,0,0,0,0,0,0,0,0,0,0,0,0,0,0,0,0,0,0,0,0,0,0,0,0,0,0],"sum_hessian":[5.4099664E2,3.90234E2,1.5076262E2,1.22667694E2,2.675663E2,6.722545E1,8.353717E1,1.1967241E2,2.9952826E0,2.6183722E2,5.729091E0,5.6004013E1,1.1221431E1,1.2450545E1,7.1086624E1,8.903883E1,3.063358E1,2.3515082E2,2.6686392E1,5.9679394E0,5.0036076E1,1.992614E0,9.228817E0,1.120626E1,1.2442858E0,3.757055E1,3.351607E1],"tree_param":{"num_deleted":"0","num_feature":"6","num_nodes":"27","size_leaf_vector":"1"}},{"base_weights":[1.3295023E-2,-2.1575961E-2,2.8305236E-1,-6.862162E-1,-7.957056E-3,1.5398602E-1,6.886762E-1,-4.8178356E-2,-8.38883E-2,-1.2909911E-3,-6.265798E-2,3.785531E-1,-4.32767E-2,-1.0911478E-2,8.446519E-1,2.08879E-2,-2.1659333E-2,1.6691884E-2,-8.5551245E-4,2.6549542E-2,-5.3670544E-2,2.9680824E-2,-1.1775637E-2,5.8763452E-2,1.2776016E-2],"categories":[],"categories_nodes":[],"categories_segments":[],"categories_sizes":[],"default_left":[0,0,0,0,0,0,0,0,0,0,0,0,0,0,0,0,0,0,0,0,0,0,0,0,0],"id":18,"left_children":[1,3,5,7,9,11,13,-1,15,17,-1,19,21,-1,23,-1,-1,-1,-1,-1,-1,-1,-1,-1,-1],"loss_changes":[5.059754E0,4.3092003E0,3.1172314E0,1.5161285E0,3.8839817E0,2.1425014E0,2.245873E0,0E0,9.0101975E-1,2.4794865E0,0E0,5.560346E0,3.377964E0,0E0,2.161767E0,0E0,0E0,0E0,0E0,0E0,0E0,0E0,0E0,0E0,0E0],"parents":[2147483647,0,0,1,1,2,2,3,3,4,4,5,5,6,6,8,8,9,9,11,11,12,12,14,14],"right_children":[2,4,6,8,10,12,14,-1,16,18,-1,20,22,-1,24,-1,-1,-1,-1,-1,-1,-1,-1,-1,-1],"split_conditions":[1.3393679E0,7.226628E-2,3.157443E-1,7.2E2,1.3291078E0,1.7539273E-1,6E1,-4.8178356E-2,8.4E2,8.76248E-2,-6.265798E-2,2.098522E0,1.4180366E0,-1.0911478E-2,1.5787498E0,2.08879E-2,-2.1659333E-2,1.6691884E-2,-8.5551245E-4,2.6549542E-2,-5.3670544E-2,2.9680824E-2,-1.1775637E-2,5.8763452E-2,1.2776016E-2],"split_indices":[1,0,0,4,1,0,4,0,4,0,0,1,1,0,1,0,0,0,0,0,0,0,0,0,0],"split_type":[0,0,0,0,0,0,0,0,0,0,0,0,0,0,0,0,0,0,0,0,0,0,0,0,0],"sum_hessian":[5.362389E2,4.7567E2,6.0568874E1,8.559423E0,4.6711057E2,4.6995045E1,1.3573831E1,5.450103E0,3.1093206E0,4.6561896E2,1.4916068E0,2.1546797E1,2.544825E1,1.9333613E0,1.1640469E1,1.1958721E0,1.9134486E0,2.0081978E1,4.45537E2,2.0073616E1,1.4731793E0,5.4161525E0,2.0032097E1,6.818852E0,4.8216166E0],"tree_param":{"num_deleted":"0","num_feature":"6","num_nodes":"25","size_leaf_vector":"1"}},{"base_weights":[8.688346E-3,-1.9521136E-2,2.5891E-1,-1.2916498E-2,-4.956055E-2,5.0430846E-1,5.880093E-2,-1.1209627E-1,5.088356E-2,-9.141223E-2,5.986026E-1,4.3386462E-1,-3.5595244E-1,-1.07158385E-2,3.9129984E-2,1.7392596E-2,-1.0042394E-3,-1.6361946E-2,1.0391049E-2,3.4670923E-2,-1.5510292E-3,6.0070264E-3,3.974681E-2,-3.7527595E-2,-4.6116576E-4],"categories":[],"categories_nodes":[],"categories_segments":[],"categories_sizes":[],"default_left":[0,0,0,0,0,0,0,0,0,0,0,0,0,0,0,0,0,0,0,0,0,0,0,0,0],"id":19,"left_children":[1,3,5,7,-1,9,11,13,15,17,19,21,23,-1,-1,-1,-1,-1,-1,-1,-1,-1,-1,-1,-1],"loss_changes":[3.7776127E0,3.0756414E0,2.632872E0,3.0366967E0,0E0,1.4153314E0,4.9763947E0,1.7345377E1,6.164826E0,3.6280575E-1,1.2778163E0,1.7994292E0,2.0822096E0,0E0,0E0,0E0,0E0,0E0,0E0,0E0,0E0,0E0,0E0,0E0,0E0],"parents":[2147483647,0,0,1,1,2,2,3,3,5,5,6,6,7,7,8,8,9,9,10,10,11,11,12,12],"right_children":[2,4,6,8,-1,10,12,14,16,18,20,22,24,-1,-1,-1,-1,-1,-1,-1,-1,-1,-1,-1,-1],"split_conditions":[1.3761817E0,1.3678459E0,1.5412003E0,3E0,-4.956055E-2,6E1,5.4E2,3.060777E-1,-1.4876702E-1,5.311811E-2,1.26E3,3.203639E-2,1.14E3,-1.07158385E-2,3.9129984E-2,1.7392596E-2,-1.0042394E-3,-1.6361946E-2,1.0391049E-2,3.4670923E-2,-1.5510292E-3,6.0070264E-3,3.974681E-2,-3.7527595E-2,-4.6116576E-4],"split_indices":[1,1,1,5,0,4,4,2,2,2,4,2,4,0,0,0,0,0,0,0,0,0,0,0,0],"split_type":[0,0,0,0,0,0,0,0,0,0,0,0,0,0,0,0,0,0,0,0,0,0,0,0,0],"sum_hessian":[5.3346094E2,4.8024146E2,5.3219463E1,4.780057E2,2.235743E0,2.3221825E1,2.9997637E1,1.868237E2,2.91182E2,3.17756E0,2.0044264E1,1.5728338E1,1.42692995E1,1.683499E2,1.8473799E1,5.5411217E1,2.3577078E2,1.724715E0,1.4528451E0,1.7332775E1,2.7114894E0,9.1290865E0,6.5992517E0,6.1292105E0,8.140089E0],"tree_param":{"num_deleted":"0","num_feature":"6","num_nodes":"25","size_leaf_vector":"1"}},{"base_weights":[-5.774939E-3,-9.131061E-1,5.115255E-3,-1.2091662E-2,-5.8211368E-2,-1.5209452E-2,3.0673304E-1,-5.1054307E-3,-5.37856E-1,-8.47333E-2,8.3227533E-1,2.4760695E-2,-6.372057E-4,-5.5485822E-2,2.2061292E-2,8.842092E-3,-3.151437E-2,5.401352E-2,-1.1845261E-3],"categories":[],"categories_nodes":[],"categories_segments":[],"categories_sizes":[],"default_left":[0,0,0,0,0,0,0,0,0,0,0,0,0,0,0,0,0,0,0],"id":20,"left_children":[1,3,5,-1,-1,7,9,11,13,15,17,-1,-1,-1,-1,-1,-1,-1,-1],"loss_changes":[5.2839956E0,7.875786E-1,3.247269E0,0E0,0E0,2.6192243E0,6.950305E0,1.8717222E0,5.756627E0,2.9758766E0,3.0755577E0,0E0,0E0,0E0,0E0,0E0,0E0,0E0,0E0],"parents":[2147483647,0,0,1,1,2,2,5,5,6,6,7,7,8,8,9,9,10,10],"right_children":[2,4,6,-1,-1,8,10,12,14,16,18,-1,-1,-1,-1,-1,-1,-1,-1],"split_conditions":[6.948281E-2,6.4818196E-2,6.265027E-1,-1.2091662E-2,-5.8211368E-2,5.705799E-1,1.0999502E0,7.530019E-2,1.0715439E0,9.795894E-1,9.3378174E-1,2.4760695E-2,-6.372057E-4,-5.5485822E-2,2.2061292E-2,8.842092E-3,-3.151437E-2,5.401352E-2,-1.1845261E-3],"split_indices":[0,0,0,0,0,0,1,0,1,1,0,0,0,0,0,0,0,0,0],"split_type":[0,0,0,0,0,0,0,0,0,0,0,0,0,0,0,0,0,0,0],"sum_hessian":[5.3328986E2,5.3423004E0,5.279476E2,1.9888679E0,3.3534327E0,4.9550708E2,3.2440487E1,4.8710004E2,8.407053E0,1.9072512E1,1.3367976E1,6.365147E0,4.807349E2,5.2229915E0,3.1840618E0,1.3348294E1,5.724217E0,1.0161798E1,3.2061787E0],"tree_param":{"num_deleted":"0","num_feature":"6","num_nodes":"19","size_leaf_vector":"1"}},{"base_weights":[-6.511471E-3,-6.805615E-2,1.5331766E-1,-3.070461E-2,-9.812195E-1,-5.5607412E-2,3.379707E-1,8.418597E-1,-5.4222E-2,-4.8530737E-1,-1.280679E0,6.4035976E-1,-2.3290156E-1,6.719645E-1,1.6430543E-1,-1.106388E-2,6.464987E-2,1.3183843E-3,-1.2525498E-2,-3.7295E-2,1.0654575E-2,-7.6115005E-2,-3.5630625E-2,5.0797977E-2,-1.6965797E-2,-5.259298E-2,-5.0406246E-3,-1.2641072E-2,3.7383232E-2,-2.1055885E-2,1.5071821E-2],"categories":[],"categories_nodes":[],"categories_segments":[],"categories_sizes":[],"default_left":[0,0,0,0,0,0,0,0,0,0,0,0,0,0,0,0,0,0,0,0,0,0,0,0,0,0,0,0,0,0,0],"id":21,"left_children":[1,3,5,7,9,11,13,15,17,19,21,23,25,27,29,-1,-1,-1,-1,-1,-1,-1,-1,-1,-1,-1,-1,-1,-1,-1,-1],"loss_changes":[5.185547E0,1.2949169E1,5.673322E0,7.5687127E0,1.5943632E0,8.74022E0,4.410738E0,4.9298863E0,5.6686416E0,1.4744319E0,1.0838795E-1,5.6442957E0,5.9758596E0,2.0330725E0,4.350088E0,0E0,0E0,0E0,0E0,0E0,0E0,0E0,0E0,0E0,0E0,0E0,0E0,0E0,0E0,0E0,0E0],"parents":[2147483647,0,0,1,1,2,2,3,3,4,4,5,5,6,6,7,7,8,8,9,9,10,10,11,11,12,12,13,13,14,14],"right_children":[2,4,6,8,10,12,14,16,18,20,22,24,26,28,30,-1,-1,-1,-1,-1,-1,-1,-1,-1,-1,-1,-1,-1,-1,-1,-1],"split_conditions":[2.4307996E-1,3.405142E-1,1.3879627E-2,-4.1261506E-1,9.903508E-1,2.6764068E-1,2.6156864E-1,9.7179073E-1,1.7044705E-1,2.2819883E-1,1.2679664E0,-9.5045865E-2,2.8137535E-1,6.4549357E-1,3.3213437E-1,-1.106388E-2,6.464987E-2,1.3183843E-3,-1.2525498E-2,-3.7295E-2,1.0654575E-2,-7.6115005E-2,-3.5630625E-2,5.0797977E-2,-1.6965797E-2,-5.259298E-2,-5.0406246E-3,-1.2641072E-2,3.7383232E-2,-2.1055885E-2,1.5071821E-2],"split_indices":[0,2,2,2,1,0,2,1,0,0,1,2,0,1,2,0,0,0,0,0,0,0,0,0,0,0,0,0,0,0,0],"split_type":[0,0,0,0,0,0,0,0,0,0,0,0,0,0,0,0,0,0,0,0,0,0,0,0,0,0,0,0,0,0,0],"sum_hessian":[5.251061E2,3.795346E2,1.4557147E2,3.6561337E2,1.3921228E1,6.86249E1,7.694657E1,8.682165E0,3.569312E2,6.228046E0,7.6931825E0,1.3402321E1,5.5222584E1,2.5341114E1,5.1605457E1,2.7384148E0,5.943751E0,2.5365434E2,1.03276855E2,4.486129E0,1.7419174E0,4.218919E0,3.4742637E0,9.661242E0,3.7410784E0,6.702642E0,4.8519943E1,1.740357E0,2.3600756E1,9.400986E0,4.220447E1],"tree_param":{"num_deleted":"0","num_feature":"6","num_nodes":"31","size_leaf_vector":"1"}},{"base_weights":[-1.40994545E-2,-5.83612E-2,2.0482753E-1,-2.255545E-1,5.0803035E-2,-1.5050443E-1,4.5892906E-1,-1.05744675E-1,-5.517786E-1,4.3958956E-1,-2.5032626E-2,4.7701684E-1,-2.5521037E-1,8.388112E-1,1.500425E-1,3.9198834E-2,-7.227313E-3,-2.3814745E-2,-5.7168562E-2,3.3971444E-2,-3.1378288E-2,-3.434756E-3,2.4641832E-2,-3.503047E-3,4.6233144E-2,1.6612245E-2,-2.2038298E-2,4.1905143E-3,5.907597E-2,4.3831885E-2,-1.1499101E-2],"categories":[],"categories_nodes":[],"categories_segments":[],"categories_sizes":[],"default_left":[0,0,0,0,0,0,0,0,0,0,0,0,0,0,0,0,0,0,0,0,0,0,0,0,0,0,0,0,0,0,0],"id":22,"left_children":[1,3,5,7,9,11,13,15,17,19,21,23,25,27,29,-1,-1,-1,-1,-1,-1,-1,-1,-1,-1,-1,-1,-1,-1,-1,-1],"loss_changes":[5.0632796E0,7.9398947E0,8.004627E0,6.655492E0,7.783621E0,2.578998E0,5.91613E0,4.493273E0,1.5052853E0,1.14531355E1,5.0432034E0,1.4598044E0,3.7111282E0,5.8194923E0,8.379607E0,0E0,0E0,0E0,0E0,0E0,0E0,0E0,0E0,0E0,0E0,0E0,0E0,0E0,0E0,0E0,0E0],"parents":[2147483647,0,0,1,1,2,2,3,3,4,4,5,5,6,6,7,7,8,8,9,9,10,10,11,11,12,12,13,13,14,14],"right_children":[2,4,6,8,10,12,14,16,18,20,22,24,26,28,30,-1,-1,-1,-1,-1,-1,-1,-1,-1,-1,-1,-1,-1,-1,-1,-1],"split_conditions":[3.388192E-1,3E0,1.3879627E-2,8.6273134E-2,-1.4527312E-1,-1.1581836E0,3E0,-4.7486672E-1,4.0605703E-1,2.6764068E-1,2.5572374E-1,3E0,4.4601798E-1,2.549944E-1,2.8612977E-1,3.9198834E-2,-7.227313E-3,-2.3814745E-2,-5.7168562E-2,3.3971444E-2,-3.1378288E-2,-3.434756E-3,2.4641832E-2,-3.503047E-3,4.6233144E-2,1.6612245E-2,-2.2038298E-2,4.1905143E-3,5.907597E-2,4.3831885E-2,-1.1499101E-2],"split_indices":[0,5,2,2,2,2,5,2,2,0,0,5,0,2,2,0,0,0,0,0,0,0,0,0,0,0,0,0,0,0,0],"split_type":[0,0,0,0,0,0,0,0,0,0,0,0,0,0,0,0,0,0,0,0,0,0,0,0,0,0,0,0,0,0,0],"sum_hessian":[5.202878E2,4.333985E2,8.6889275E1,1.7077597E2,2.6262253E2,3.6398224E1,5.0491055E1,1.25872055E2,4.490391E1,4.2082363E1,2.2054018E2,4.6963563E0,3.1701866E1,2.1873936E1,2.8617117E1,4.457466E0,1.2141459E2,4.142361E1,3.4803023E0,3.465672E1,7.425645E0,2.0419174E2,1.6348425E1,2.4930441E0,2.2033124E0,7.4200363E0,2.428183E1,7.2176633E0,1.4656273E1,9.378645E0,1.9238472E1],"tree_param":{"num_deleted":"0","num_feature":"6","num_nodes":"31","size_leaf_vector":"1"}},{"base_weights":[-2.1809204E-2,-6.1289635E-2,2.3717132E-1,-7.361395E-1,-5.0454866E-2,3.1785896E-1,-6.523135E-2,-2.373754E-2,-5.805428E-2,-3.906424E-2,-5.442567E-1,2.6319665E-1,7.1777064E-1,-5.6479048E-2,1.6612628E-1,-1.3940317E-2,1.3440362E-2,-3.5028555E-3,5.941417E-3,-3.6298134E-3,-5.1227808E-2,1.6399419E-2,-6.5168613E-3,4.8094805E-2,5.973998E-3,2.1711415E-2,-4.2378414E-2],"categories":[],"categories_nodes":[],"categories_segments":[],"categories_sizes":[],"default_left":[0,0,0,0,0,0,0,0,0,0,0,0,0,0,0,0,0,0,0,0,0,0,0,0,0,0,0],"id":23,"left_children":[1,3,5,7,9,11,13,15,-1,17,19,21,23,-1,25,-1,-1,-1,-1,-1,-1,-1,-1,-1,-1,-1,-1],"loss_changes":[5.469856E0,3.3538156E0,1.747844E0,2.1686137E0,2.5520892E0,1.0362239E0,4.0631123E0,3.53376E-1,0E0,2.2019532E0,2.2449548E0,1.3401809E0,7.848387E-1,0E0,4.118464E0,0E0,0E0,0E0,0E0,0E0,0E0,0E0,0E0,0E0,0E0,0E0,0E0],"parents":[2147483647,0,0,1,1,2,2,3,3,4,4,5,5,6,6,7,7,9,9,10,10,11,11,12,12,14,14],"right_children":[2,4,6,8,10,12,14,16,-1,18,20,22,24,-1,26,-1,-1,-1,-1,-1,-1,-1,-1,-1,-1,-1,-1],"split_conditions":[1.2916791E0,6.948281E-2,1.7795376E0,6.4818196E-2,1.38E3,1.677693E0,1.3334043E-1,8.5090595E-1,-5.805428E-2,3.5068935E-1,8.8362616E-1,1.5934968E0,1.8405363E-1,-5.6479048E-2,3.7370777E-1,-1.3940317E-2,1.3440362E-2,-3.5028555E-3,5.941417E-3,-3.6298134E-3,-5.1227808E-2,1.6399419E-2,-6.5168613E-3,4.8094805E-2,5.973998E-3,2.1711415E-2,-4.2378414E-2],"split_indices":[1,0,1,0,4,1,0,1,0,0,1,1,0,0,0,0,0,0,0,0,0,0,0,0,0,0,0],"split_type":[0,0,0,0,0,0,0,0,0,0,0,0,0,0,0,0,0,0,0,0,0,0,0,0,0,0,0],"sum_hessian":[5.325452E2,4.6276245E2,6.978274E1,6.2545075E0,4.5650793E2,5.5044544E1,1.4738198E1,2.731365E0,3.5231423E0,4.472698E2,9.238154E0,4.988421E1,5.160333E0,1.9383787E0,1.279982E1,1.4842309E0,1.247134E0,3.743455E2,7.29243E1,5.241793E0,3.996361E0,4.2975285E1,6.9089255E0,3.2332878E0,1.9270453E0,1.0574669E1,2.225151E0],"tree_param":{"num_deleted":"0","num_feature":"6","num_nodes":"27","size_leaf_vector":"1"}},{"base_weights":[1.8900493E-2,-6.583828E-1,3.015884E-2,1.6021E-2,-4.8198014E-2,8.6843324E-1,2.1478636E-2,5.528481E-2,4.5839766E-1,-1.800308E-2,2.0441562E-1,3.0330082E-3,3.154619E-2,7.911903E-4,-2.683953E-2,2.3245395E-3,2.8776908E-2],"categories":[],"categories_nodes":[],"categories_segments":[],"categories_sizes":[],"default_left":[0,0,0,0,0,0,0,0,0,0,0,0,0,0,0,0,0],"id":24,"left_children":[1,3,5,-1,-1,7,9,-1,11,13,15,-1,-1,-1,-1,-1,-1],"loss_changes":[4.1181226E0,2.9505227E0,3.8352098E0,0E0,0E0,1.8766403E-2,3.7972875E0,0E0,2.1483475E-1,7.6057987E0,5.4424467E0,0E0,0E0,0E0,0E0,0E0,0E0],"parents":[2147483647,0,0,1,1,2,2,5,5,6,6,8,8,9,9,10,10],"right_children":[2,4,6,-1,-1,8,10,-1,12,14,16,-1,-1,-1,-1,-1,-1],"split_conditions":[7.226628E-2,-5.2592877E-2,7.530019E-2,1.6021E-2,-4.8198014E-2,2E0,3.388192E-1,5.528481E-2,7.370291E-2,3.2032186E-1,4.457423E-1,3.0330082E-3,3.154619E-2,7.911903E-4,-2.683953E-2,2.3245395E-3,2.8776908E-2],"split_indices":[0,2,0,0,0,5,0,0,0,2,2,0,0,0,0,0,0],"split_type":[0,0,0,0,0,0,0,0,0,0,0,0,0,0,0,0,0],"sum_hessian":[5.364711E2,7.831995E0,5.2863916E2,1.8518186E0,5.9801764E0,4.4027658E0,5.242364E2,1.7142476E0,2.688518E0,4.3192032E2,9.231606E1,1.2222874E0,1.4662306E0,4.0639157E2,2.552875E1,6.5548355E1,2.6767706E1],"tree_param":{"num_deleted":"0","num_feature":"6","num_nodes":"17","size_leaf_vector":"1"}},{"base_weights":[1.566356E-2,4.2629993E-1,2.520212E-3,6.461234E-2,-7.638686E-2,8.170458E-2,-7.764492E-2,-6.377471E-2,2.3465808E-1,3.849296E-1,2.3279186E-2,-1.7524043E-1,1.4709616E-1,4.2306073E-2,-3.021825E-2,-3.5494942E-2,3.2037575E-2,-2.6947472E-2,2.8470033E-3,-2.7660383E-2,-5.7779243E-3,2.3569658E-2,-2.330684E-3],"categories":[],"categories_nodes":[],"categories_segments":[],"categories_sizes":[],"default_left":[0,0,0,0,0,0,0,0,0,0,0,0,0,0,0,0,0,0,0,0,0,0,0],"id":25,"left_children":[1,3,5,-1,7,9,11,-1,13,15,17,19,21,-1,-1,-1,-1,-1,-1,-1,-1,-1,-1],"loss_changes":[2.862998E0,7.260444E0,3.2768247E0,0E0,4.533993E0,4.591525E0,5.6525126E0,0E0,5.569788E0,1.218672E1,4.171346E0,3.981094E0,4.935444E0,0E0,0E0,0E0,0E0,0E0,0E0,0E0,0E0,0E0,0E0],"parents":[2147483647,0,0,1,1,2,2,4,4,5,5,6,6,8,8,9,9,10,10,11,11,12,12],"right_children":[2,4,6,-1,8,10,12,-1,14,16,18,20,22,-1,-1,-1,-1,-1,-1,-1,-1,-1,-1],"split_conditions":[-6.7020285E-1,3.6350733E-1,1.7044705E-1,6.461234E-2,5.2830786E-1,-1.1673132E-1,2.1959057E-1,-6.377471E-2,8.820243E-1,1.1396266E-1,-9.714368E-2,1.8272793E-1,3E0,4.2306073E-2,-3.021825E-2,-3.5494942E-2,3.2037575E-2,-2.6947472E-2,2.8470033E-3,-2.7660383E-2,-5.7779243E-3,2.3569658E-2,-2.330684E-3],"split_indices":[2,0,0,0,0,2,2,0,0,0,2,0,5,0,0,0,0,0,0,0,0,0,0],"split_type":[0,0,0,0,0,0,0,0,0,0,0,0,0,0,0,0,0,0,0,0,0,0,0],"sum_hessian":[5.2966516E2,1.5452408E1,5.142127E2,5.098634E0,1.0353774E1,2.5867914E2,2.5553358E2,1.4939156E0,8.8598585E0,4.088735E1,2.177918E2,1.7831793E2,7.721565E1,5.120025E0,3.739833E0,7.408136E0,3.3479214E1,1.1454766E1,2.0633704E2,2.3189434E1,1.551285E2,2.8338905E1,4.8876743E1],"tree_param":{"num_deleted":"0","num_feature":"6","num_nodes":"23","size_leaf_vector":"1"}},{"base_weights":[-9.573017E-3,-2.5542965E-2,6.1978436E-1,-1.3446216E-1,4.425008E-2,5.9009403E-2,-1.7773445E-1,-6.2196728E-2,-8.985458E-2,2.7570504E-1,-1.1387831E-2,-6.19208E-2,7.122194E-1,-4.6145424E-4,-1.58758E-2,5.7051997E-3,4.606015E-2,3.2021087E-3,-9.381928E-3,5.185016E-2,-2.1732773E-3],"categories":[],"categories_nodes":[],"categories_segments":[],"categories_sizes":[],"default_left":[0,0,0,0,0,0,0,0,0,0,0,0,0,0,0,0,0,0,0,0,0],"id":26,"left_children":[1,3,5,7,9,-1,11,-1,13,15,17,-1,19,-1,-1,-1,-1,-1,-1,-1,-1],"loss_changes":[5.307094E0,3.9161952E0,6.0501432E0,9.842405E0,4.049979E0,0E0,6.793135E0,0E0,3.5659904E0,6.2518377E0,3.3929834E0,0E0,1.036614E0,0E0,0E0,0E0,0E0,0E0,0E0,0E0,0E0],"parents":[2147483647,0,0,1,1,2,2,3,3,4,4,6,6,8,8,9,9,10,10,12,12],"right_children":[2,4,6,8,10,-1,12,-1,14,16,18,-1,20,-1,-1,-1,-1,-1,-1,-1,-1],"split_conditions":[9.3120134E-1,3E0,3E0,4.4723532E-1,-1.4876702E-1,5.9009403E-2,1.0472213E0,-6.2196728E-2,1.0179979E-1,1.14E3,5E0,-6.19208E-2,1.192291E0,-4.6145424E-4,-1.58758E-2,5.7051997E-3,4.606015E-2,3.2021087E-3,-9.381928E-3,5.185016E-2,-2.1732773E-3],"split_indices":[2,5,5,1,2,0,1,0,2,4,5,0,1,0,0,0,0,0,0,0,0],"split_type":[0,0,0,0,0,0,0,0,0,0,0,0,0,0,0,0,0,0,0,0,0],"sum_hessian":[5.254517E2,5.13384E2,1.2067708E1,2.0013158E2,3.132524E2,6.805657E0,5.262051E0,6.6962943E0,1.9343527E2,5.994103E1,2.5331139E2,2.2221072E0,3.0399442E0,1.4361505E2,4.982023E1,4.8880512E1,1.1060517E1,1.778385E2,7.5472885E1,1.8657846E0,1.1741594E0],"tree_param":{"num_deleted":"0","num_feature":"6","num_nodes":"21","size_leaf_vector":"1"}},{"base_weights":[1.4620148E-2,-6.353931E-1,2.6477192E-2,1.3063356E-2,-8.909224E-1,4.6013758E-2,1.8404134E-2,-1.6360521E-2,-5.3086836E-2,-1.2955244E-2,1.608768E-1,1.335842E-3,-1.4808145E-2,1.3043093E-2,-1.6985072E-2],"categories":[],"categories_nodes":[],"categories_segments":[],"categories_sizes":[],"default_left":[0,0,0,0,0,0,0,0,0,0,0,0,0,0,0],"id":27,"left_children":[1,3,5,-1,7,-1,9,-1,-1,11,13,-1,-1,-1,-1],"loss_changes":[4.1036325E0,2.4184313E0,3.7476075E0,0E0,3.8924885E-1,0E0,2.316733E0,0E0,0E0,4.7889633E0,4.770027E0,0E0,0E0,0E0,0E0],"parents":[2147483647,0,0,1,1,2,2,4,4,6,6,9,9,10,10],"right_children":[2,4,6,-1,8,-1,10,-1,-1,12,14,-1,-1,-1,-1],"split_conditions":[7.226628E-2,-5.2592877E-2,7.530019E-2,1.3063356E-2,6.4818196E-2,4.6013758E-2,2.1959057E-1,-1.6360521E-2,-5.3086836E-2,1.2559459E-1,5E0,1.335842E-3,-1.4808145E-2,1.3043093E-2,-1.6985072E-2],"split_indices":[0,2,0,0,0,0,2,0,0,2,5,0,0,0,0],"split_type":[0,0,0,0,0,0,0,0,0,0,0,0,0,0,0],"sum_hessian":[5.2925616E2,8.539254E0,5.207169E2,1.8888317E0,6.650422E0,3.6497192E0,5.170672E2,2.224579E0,4.425843E0,4.245331E2,9.253408E1,3.731653E2,5.13678E1,7.752766E1,1.5006426E1],"tree_param":{"num_deleted":"0","num_feature":"6","num_nodes":"15","size_leaf_vector":"1"}},{"base_weights":[1.6532138E-2,-7.583041E-1,2.6520409E-2,-8.395288E-4,-5.580342E-2,-2.4469681E-2,1.4984095E-1,7.5989304E-4,-1.0547041E0,5.0578606E-1,8.2227506E-2,3.9159957E-2,-1.2442805E-3,-3.6645948E-3,-6.412094E-2,5.4667827E-2,9.288779E-3,-5.751341E-3,1.2985773E-2],"categories":[],"categories_nodes":[],"categories_segments":[],"categories_sizes":[],"default_left":[0,0,0,0,0,0,0,0,0,0,0,0,0,0,0,0,0,0,0],"id":28,"left_children":[1,3,5,-1,-1,7,9,11,13,15,17,-1,-1,-1,-1,-1,-1,-1,-1],"loss_changes":[4.123195E0,1.7801876E0,3.301052E0,0E0,0E0,9.666009E0,3.6534896E0,7.322699E0,1.8926048E0,4.368792E0,4.5889163E0,0E0,0E0,0E0,0E0,0E0,0E0,0E0,0E0],"parents":[2147483647,0,0,1,1,2,2,5,5,6,6,7,7,8,8,9,9,10,10],"right_children":[2,4,6,-1,-1,8,10,12,14,16,18,-1,-1,-1,-1,-1,-1,-1,-1],"split_conditions":[6.948281E-2,6.4818196E-2,2.4164104E-1,-8.395288E-4,-5.580342E-2,4.0605703E-1,2.6250228E-1,-3.8720128E-1,9.903508E-1,-9.5045865E-2,6.9383085E-3,3.9159957E-2,-1.2442805E-3,-3.6645948E-3,-6.412094E-2,5.4667827E-2,9.288779E-3,-5.751341E-3,1.2985773E-2],"split_indices":[0,0,0,0,0,2,0,2,1,2,2,0,0,0,0,0,0,0,0],"split_type":[0,0,0,0,0,0,0,0,0,0,0,0,0,0,0,0,0,0,0],"sum_hessian":[5.2916394E2,5.7810593E0,5.233829E2,2.2221966E0,3.5588627E0,3.708478E2,1.525351E2,3.629585E2,7.889286E0,2.331496E1,1.2922014E2,1.058144E1,3.5237708E2,1.7347336E0,6.1545525E0,7.3686934E0,1.5946267E1,6.136879E1,6.785135E1],"tree_param":{"num_deleted":"0","num_feature":"6","num_nodes":"19","size_leaf_vector":"1"}},{"base_weights":[8.507965E-4,4.0720788E-1,-1.0867948E-2,7.893373E-1,2.1076399E-1,-5.119026E-1,-2.0964686E-3,1.4109015E-2,4.676446E-2,-3.5715342E-1,6.790984E-1,-7.9115325E-1,1.1866595E-2,-1.17539065E-2,3.6964673E-1,-4.6556415E-3,-3.6257625E-2,1.7717559E-2,4.2526904E-2,-5.820546E-3,-5.7932623E-2,-5.8132787E-3,2.6398404E-3,5.1778346E-2,-2.8368E-2],"categories":[],"categories_nodes":[],"categories_segments":[],"categories_sizes":[],"default_left":[0,0,0,0,0,0,0,0,0,0,0,0,0,0,0,0,0,0,0,0,0,0,0,0,0],"id":29,"left_children":[1,3,5,7,9,11,13,-1,-1,15,17,19,-1,21,23,-1,-1,-1,-1,-1,-1,-1,-1,-1,-1],"loss_changes":[2.535501E0,9.539726E-1,2.2736452E0,8.420181E-2,3.2271667E0,2.0501373E0,1.8341765E0,0E0,0E0,4.8894024E-1,6.0192585E-2,1.5302749E0,0E0,3.3641336E0,8.659657E0,0E0,0E0,0E0,0E0,0E0,0E0,0E0,0E0,0E0,0E0],"parents":[2147483647,0,0,1,1,2,2,3,3,4,4,5,5,6,6,9,9,10,10,11,11,13,13,14,14],"right_children":[2,4,6,8,10,12,14,-1,-1,16,18,20,-1,22,24,-1,-1,-1,-1,-1,-1,-1,-1,-1,-1],"split_conditions":[-6.7020285E-1,9.477708E-1,-5.343522E-1,8.3018535E-1,1.1643745E0,1.2400368E0,9.3120134E-1,1.4109015E-2,4.676446E-2,1.1350493E0,1.3393679E0,4E0,1.1866595E-2,3E0,3E0,-4.6556415E-3,-3.6257625E-2,1.7717559E-2,4.2526904E-2,-5.820546E-3,-5.7932623E-2,-5.8132787E-3,2.6398404E-3,5.1778346E-2,-2.8368E-2],"split_indices":[2,1,2,1,1,1,2,0,0,1,1,5,0,5,5,0,0,0,0,0,0,0,0,0,0],"split_type":[0,0,0,0,0,0,0,0,0,0,0,0,0,0,0,0,0,0,0,0,0,0,0,0,0],"sum_hessian":[5.305159E2,1.3924486E1,5.1659143E2,3.7030513E0,1.0221435E1,7.9013166E0,5.086901E2,1.4830599E0,2.2199914E0,4.726873E0,5.4945617E0,5.715221E0,2.1860955E0,4.9675342E2,1.1936671E1,3.4817386E0,1.2451346E0,2.9581118E0,2.53645E0,2.4795105E0,3.2357104E0,1.8936249E2,3.0739093E2,6.9162107E0,5.02046E0],"tree_param":{"num_deleted":"0","num_feature":"6","num_nodes":"25","size_leaf_vector":"1"}},{"base_weights":[1.7171701E-2,3.2621105E-3,6.045011E-1,6.512055E-1,-2.9474555E-3,-1.188635E-2,7.828766E-1,2.0423804E-3,5.6694318E-2,1.3973089E-3,-3.8255945E-2,1.0241794E-2,4.3726802E-2,9.181518E-4,-8.81657E-3],"categories":[],"categories_nodes":[],"categories_segments":[],"categories_sizes":[],"default_left":[0,0,0,0,0,0,0,0,0,0,0,0,0,0,0],"id":30,"left_children":[1,3,5,7,9,-1,11,-1,-1,13,-1,-1,-1,-1,-1],"loss_changes":[4.3267503E0,2.08852E0,2.0268974E0,1.4053435E0,1.705418E0,0E0,3.6893559E-1,0E0,0E0,1.5493724E0,0E0,0E0,0E0,0E0,0E0],"parents":[2147483647,0,0,1,1,2,2,3,3,4,4,6,6,9,9],"right_children":[2,4,6,8,10,-1,12,-1,-1,14,-1,-1,-1,-1,-1],"split_conditions":[9.3120134E-1,-1.1581836E0,8.9454764E-1,9E2,8.073643E-1,-1.188635E-2,1.0340017E0,2.0423804E-3,5.6694318E-2,1.26E3,-3.8255945E-2,1.0241794E-2,4.3726802E-2,9.181518E-4,-8.81657E-3],"split_indices":[2,2,1,4,2,0,2,0,0,4,0,0,0,0,0],"split_type":[0,0,0,0,0,0,0,0,0,0,0,0,0,0,0],"sum_hessian":[5.2886304E2,5.1761017E2,1.125289E1,3.927428E0,5.1368274E2,1.9085646E0,9.344325E0,2.2133002E0,1.7141278E0,5.1176358E2,1.9191457E0,1.7216518E0,7.622673E0,4.679869E2,4.377668E1],"tree_param":{"num_deleted":"0","num_feature":"6","num_nodes":"15","size_leaf_vector":"1"}},{"base_weights":[4.202173E-2,-5.277183E-1,5.779049E-2,-5.6899052E-2,-7.1099706E-2,8.308396E-2,-2.2120164E-1,5.4696316E-1,-8.298776E-1,-6.6031224E-1,9.5590696E-2,1.2512016E-1,-3.771363E-1,-1.3151253E-2,3.950886E-2,-1.5084142E-2,-6.1846048E-2,-4.9849257E-2,1.4865366E-2,3.071267E-3,1.30513925E-2,5.1048826E-2,-1.023036E-2,-3.6481526E-2,3.6109972E-3],"categories":[],"categories_nodes":[],"categories_segments":[],"categories_sizes":[],"default_left":[0,0,0,0,0,0,0,0,0,0,0,0,0,0,0,0,0,0,0,0,0,0,0,0,0],"id":31,"left_children":[1,3,5,7,-1,9,11,13,15,17,19,21,23,-1,-1,-1,-1,-1,-1,-1,-1,-1,-1,-1,-1],"loss_changes":[4.8032155E0,5.984597E0,3.6725726E0,5.345236E0,0E0,4.4842234E0,2.3864927E0,1.4855467E0,7.0037293E-1,2.873744E0,2.6321616E0,4.4033027E0,4.8232474E0,0E0,0E0,0E0,0E0,0E0,0E0,0E0,0E0,0E0,0E0,0E0,0E0],"parents":[2147483647,0,0,1,1,2,2,3,3,5,5,6,6,7,7,8,8,9,9,10,10,11,11,12,12],"right_children":[2,4,6,8,-1,10,12,14,16,18,20,22,24,-1,-1,-1,-1,-1,-1,-1,-1,-1,-1,-1,-1],"split_conditions":[4.0578938E-1,1.6519028E-1,1.26E3,3.3213055E-1,-7.1099706E-2,7.226628E-2,1.3886733E-1,1.8E2,6E2,8.5090595E-1,1.2240288E0,6.8128335E-1,1.8143837E-1,-1.3151253E-2,3.950886E-2,-1.5084142E-2,-6.1846048E-2,-4.9849257E-2,1.4865366E-2,3.071267E-3,1.30513925E-2,5.1048826E-2,-1.023036E-2,-3.6481526E-2,3.6109972E-3],"split_indices":[1,0,4,1,0,0,0,4,4,1,1,1,0,0,0,0,0,0,0,0,0,0,0,0,0],"split_type":[0,0,0,0,0,0,0,0,0,0,0,0,0,0,0,0,0,0,0,0,0,0,0,0,0],"sum_hessian":[5.3024084E2,1.3405933E1,5.168349E2,9.47903E0,3.9269037E0,4.7451727E2,4.2317604E1,5.4858212E0,3.993209E0,6.9940963E0,4.675232E2,1.3199623E1,2.9117983E1,1.2480202E0,4.237801E0,2.4957657E0,1.4974432E0,5.1443686E0,1.8497275E0,3.8863522E2,7.888797E1,2.9871705E0,1.0212452E1,1.5968156E1,1.3149828E1],"tree_param":{"num_deleted":"0","num_feature":"6","num_nodes":"25","size_leaf_vector":"1"}},{"base_weights":[-3.6466948E-3,7.5745806E-2,-6.796832E-2,1.1569043E-1,-5.604152E-2,-3.8689194E-4,-3.6395842E-1,3.0924613E-2,2.8406116E-1,-1.18117E-1,2.2481106E-1,-4.6394455E-1,1.9176461E-1,5.5963933E-3,-1.672171E-2,1.1723938E-2,4.1107796E-2,2.1780399E-3,-3.2711316E-2,9.181991E-3,6.108279E-2,-1.3419573E-2,-4.9589235E-2,-3.6376406E-2,2.3174018E-2],"categories":[],"categories_nodes":[],"categories_segments":[],"categories_sizes":[],"default_left":[0,0,0,0,0,0,0,0,0,0,0,0,0,0,0,0,0,0,0,0,0,0,0,0,0],"id":32,"left_children":[1,3,5,7,-1,9,11,13,15,17,19,21,23,-1,-1,-1,-1,-1,-1,-1,-1,-1,-1,-1,-1],"loss_changes":[2.7607093E0,1.1695569E1,5.9733114E0,3.3461568E0,0E0,6.4986467E0,3.1732078E0,4.6979823E0,1.904109E0,1.3980302E1,3.2293172E0,4.6198397E0,2.628136E0,0E0,0E0,0E0,0E0,0E0,0E0,0E0,0E0,0E0,0E0,0E0,0E0],"parents":[2147483647,0,0,1,1,2,2,3,3,5,5,6,6,7,7,8,8,9,9,10,10,11,11,12,12],"right_children":[2,4,6,8,-1,10,12,14,16,18,20,22,24,-1,-1,-1,-1,-1,-1,-1,-1,-1,-1,-1,-1],"split_conditions":[-1.2390192E-2,1.7795376E0,5E0,1.0363977E0,-5.604152E-2,1.9498914E-1,1.4180366E0,9.4468766E-1,-2.6003346E-2,1.2559459E-1,2.098522E0,1.0578942E0,5.311811E-2,5.5963933E-3,-1.672171E-2,1.1723938E-2,4.1107796E-2,2.1780399E-3,-3.2711316E-2,9.181991E-3,6.108279E-2,-1.3419573E-2,-4.9589235E-2,-3.6376406E-2,2.3174018E-2],"split_indices":[2,1,5,1,0,2,1,1,2,2,1,1,2,0,0,0,0,0,0,0,0,0,0,0,0],"split_type":[0,0,0,0,0,0,0,0,0,0,0,0,0,0,0,0,0,0,0,0,0,0,0,0,0],"sum_hessian":[5.3860205E2,2.4098071E2,2.9762134E2,2.3407019E2,6.9105167E0,2.4311406E2,5.4507282E1,1.5647627E2,7.759392E1,1.599632E2,8.3150856E1,4.6335682E1,8.171602E0,1.2864763E2,2.7828653E1,7.236193E1,5.2319875E0,1.2360548E2,3.635772E1,8.099007E1,2.1607935E0,3.491056E1,1.1425119E1,1.4815518E0,6.6900506E0],"tree_param":{"num_deleted":"0","num_feature":"6","num_nodes":"25","size_leaf_vector":"1"}},{"base_weights":[-1.7377904E-2,-6.134286E-1,-1.052836E-2,9.107376E-3,-4.69529E-2,5.418059E-2,-7.0477426E-2,7.743786E-2,-9.64872E-1,-5.536218E-1,-2.6376618E-2,2.0087948E-3,3.4895953E-2,-5.5782296E-2,-1.1684834E-2,-3.5744842E-2,2.6843065E-2,-3.286966E-3,1.1060724E-2],"categories":[],"categories_nodes":[],"categories_segments":[],"categories_sizes":[],"default_left":[0,0,0,0,0,0,0,0,0,0,0,0,0,0,0,0,0,0,0],"id":33,"left_children":[1,3,5,-1,-1,7,9,11,13,15,17,-1,-1,-1,-1,-1,-1,-1,-1],"loss_changes":[2.1474829E0,1.7193053E0,2.0311267E0,0E0,0E0,6.044611E0,5.774829E0,5.6872025E0,3.6708164E-1,4.3719845E0,2.451367E0,0E0,0E0,0E0,0E0,0E0,0E0,0E0,0E0],"parents":[2147483647,0,0,1,1,2,2,5,5,6,6,7,7,8,8,9,9,10,10],"right_children":[2,4,6,-1,-1,8,10,12,14,16,18,-1,-1,-1,-1,-1,-1,-1,-1],"split_conditions":[6.948281E-2,-5.2592877E-2,1.7044705E-1,9.107376E-3,-4.69529E-2,3.060777E-1,1.8024573E-1,2.0162445E-1,1.5153493E-1,2.3931591E-1,4.457423E-1,2.0087948E-3,3.4895953E-2,-5.5782296E-2,-1.1684834E-2,-3.5744842E-2,2.6843065E-2,-3.286966E-3,1.1060724E-2],"split_indices":[0,2,0,0,0,2,0,2,0,2,2,0,0,0,0,0,0,0,0],"split_type":[0,0,0,0,0,0,0,0,0,0,0,0,0,0,0,0,0,0,0],"sum_hessian":[5.2658075E2,4.976378E0,5.216044E2,1.57325E0,3.403128E0,2.508901E2,2.7071423E2,2.4619534E2,4.6947713E0,2.167719E1,2.4903705E2,2.332525E2,1.2942843E1,3.4562426E0,1.2385285E0,1.9184376E1,2.4928155E0,2.155093E2,3.352776E1],"tree_param":{"num_deleted":"0","num_feature":"6","num_nodes":"19","size_leaf_vector":"1"}},{"base_weights":[5.2946106E-2,-7.1778584E-1,6.0872696E-2,9.018434E-4,-9.1855884E-1,8.978259E-3,1.6194886E-1,-1.5470751E-2,-5.247738E-2,5.385009E-2,-6.286713E-1,-4.6961161E-1,2.0474087E-1,-1.5553829E-2,4.136033E-3,-3.488073E-2,1.1887568E-2,1.570519E-2,-4.5700792E-2,7.793901E-3,3.3967808E-2],"categories":[],"categories_nodes":[],"categories_segments":[],"categories_sizes":[],"default_left":[0,0,0,0,0,0,0,0,0,0,0,0,0,0,0,0,0,0,0,0,0],"id":34,"left_children":[1,3,5,-1,7,9,11,-1,-1,13,15,17,19,-1,-1,-1,-1,-1,-1,-1,-1],"loss_changes":[3.3058815E0,8.3115697E-1,2.7757118E0,0E0,2.2439241E-2,1.0074024E1,4.948819E0,0E0,0E0,3.4893541E0,1.5486212E0,4.3612394E0,3.8101377E0,0E0,0E0,0E0,0E0,0E0,0E0,0E0,0E0],"parents":[2147483647,0,0,1,1,2,2,4,4,5,5,6,6,9,9,10,10,11,11,12,12],"right_children":[2,4,6,-1,8,10,12,-1,-1,14,16,18,20,-1,-1,-1,-1,-1,-1,-1,-1],"split_conditions":[6.948281E-2,-4.296554E-2,1.04456E0,9.018434E-4,6.7498183E-1,5.705799E-1,1.1243604E-1,-1.5470751E-2,-5.247738E-2,-2.700104E-1,1.1394277E0,8.92927E-2,6.448289E-1,-1.5553829E-2,4.136033E-3,-3.488073E-2,1.1887568E-2,1.570519E-2,-4.5700792E-2,7.793901E-3,3.3967808E-2],"split_indices":[0,2,1,0,1,0,0,0,0,2,0,0,0,0,0,0,0,0,0,0,0],"split_type":[0,0,0,0,0,0,0,0,0,0,0,0,0,0,0,0,0,0,0,0,0],"sum_hessian":[5.329728E2,4.5139155E0,5.2845886E2,1.1627305E0,3.351185E0,3.4990152E2,1.7855733E2,1.1881264E0,2.1630585E0,3.277529E2,2.2148643E1,1.0697683E1,1.6785965E2,2.3312008E1,3.044409E2,2.0696598E1,1.4520447E0,3.9771338E0,6.7205496E0,1.5339561E2,1.4464039E1],"tree_param":{"num_deleted":"0","num_feature":"6","num_nodes":"21","size_leaf_vector":"1"}},{"base_weights":[-2.793014E-2,-5.735841E-2,2.3451377E-1,1.4650471E-2,-1.7574054E-1,3.9598346E-1,-1.5818891E-1,-4.0576074E-2,3.9837182E-1,-2.8119564E-1,1.8574677E-1,5.560604E-1,-2.4803974E-1,-8.5139984E-1,6.2746394E-1,-2.748258E-3,3.4195904E-2,-3.7264198E-2,2.438101E-2,3.9138712E-2,-1.4882286E-2,3.9177664E-2,2.2309355E-3,4.6882136E-3,3.1237498E-2,-4.9236394E-2,4.0447544E-2,-5.2068185E-2,3.499229E-3,-2.9785075E-4,4.9498107E-2],"categories":[],"categories_nodes":[],"categories_segments":[],"categories_sizes":[],"default_left":[0,0,0,0,0,0,0,0,0,0,0,0,0,0,0,0,0,0,0,0,0,0,0,0,0,0,0,0,0,0,0],"id":35,"left_children":[1,3,5,7,9,11,13,15,17,19,21,23,25,27,29,-1,-1,-1,-1,-1,-1,-1,-1,-1,-1,-1,-1,-1,-1,-1,-1],"loss_changes":[4.104587E0,4.0697284E0,3.4617448E0,6.322415E0,6.9340587E0,4.0835004E0,9.429903E0,2.7589815E0,4.194385E0,2.6860323E0,3.4555516E0,9.2459583E-1,7.267787E0,1.6659317E0,1.8960879E0,0E0,0E0,0E0,0E0,0E0,0E0,0E0,0E0,0E0,0E0,0E0,0E0,0E0,0E0,0E0,0E0],"parents":[2147483647,0,0,1,1,2,2,3,3,4,4,5,5,6,6,7,7,8,8,9,9,10,10,11,11,12,12,13,13,14,14],"right_children":[2,4,6,8,10,12,14,16,18,20,22,24,26,28,30,-1,-1,-1,-1,-1,-1,-1,-1,-1,-1,-1,-1,-1,-1,-1,-1],"split_conditions":[1.3761817E0,6.042483E-2,1.7795376E0,2.665755E-2,3.5687447E-1,3.060777E-1,5.311811E-2,1.3393679E0,8.20185E-2,7.530019E-2,4.267056E-1,1.2421244E-1,4.0584627E-1,8.485E3,2.1455647E-1,-2.748258E-3,3.4195904E-2,-3.7264198E-2,2.438101E-2,3.9138712E-2,-1.4882286E-2,3.9177664E-2,2.2309355E-3,4.6882136E-3,3.1237498E-2,-4.9236394E-2,4.0447544E-2,-5.2068185E-2,3.499229E-3,-2.9785075E-4,4.9498107E-2],"split_indices":[1,2,1,2,0,2,2,1,0,0,0,0,0,1,0,0,0,0,0,0,0,0,0,0,0,0,0,0,0,0,0],"split_type":[0,0,0,0,0,0,0,0,0,0,0,0,0,0,0,0,0,0,0,0,0,0,0,0,0,0,0,0,0,0,0],"sum_hessian":[5.2871545E2,4.761099E2,5.2605545E1,2.9658246E2,1.7952744E2,3.7271904E1,1.5333645E1,2.6004947E2,3.653299E1,1.391546E2,4.0372837E1,2.9961359E1,7.310543E0,8.101608E0,7.2320366E0,2.5589137E2,4.1580915E0,2.1124709E0,3.442052E1,1.4094356E0,1.3774516E2,6.841357E0,3.3531483E1,4.1818204E0,2.577954E1,4.348292E0,2.9622517E0,6.608834E0,1.4927742E0,2.9903445E0,4.241692E0],"tree_param":{"num_deleted":"0","num_feature":"6","num_nodes":"31","size_leaf_vector":"1"}},{"base_weights":[1.0965969E-3,1.14759095E-1,-3.591189E-2,7.993506E-3,4.7342172E-1,-6.491685E-1,-2.1756371E-2,-5.0027866E-2,6.9069105E-1,2.6124698E-1,7.6110065E-1,1.7047216E-3,-7.8886056E-1,1.8537762E-2,-2.0440394E-1,-9.2081114E-4,-3.2319408E-2,-1.8789651E-3,4.7032468E-2,-4.8549636E-3,4.6213128E-2,5.179214E-2,-2.1138057E-2,2.516955E-3,-5.0236084E-2,-1.9780782E-3,9.103625E-3,-1.6509887E-2,9.964616E-3],"categories":[],"categories_nodes":[],"categories_segments":[],"categories_sizes":[],"default_left":[0,0,0,0,0,0,0,0,0,0,0,0,0,0,0,0,0,0,0,0,0,0,0,0,0,0,0,0,0],"id":36,"left_children":[1,3,5,7,9,11,13,15,17,19,21,-1,23,25,27,-1,-1,-1,-1,-1,-1,-1,-1,-1,-1,-1,-1,-1,-1],"loss_changes":[2.2177277E0,4.9549522E0,3.4386644E0,4.0276318E0,1.613267E0,8.801E-1,2.8725946E0,1.7572231E0,1.4850724E0,4.511012E0,4.366732E0,0E0,1.4025316E0,3.0501487E0,3.6477776E0,0E0,0E0,0E0,0E0,0E0,0E0,0E0,0E0,0E0,0E0,0E0,0E0,0E0,0E0],"parents":[2147483647,0,0,1,1,2,2,3,3,4,4,5,5,6,6,7,7,8,8,9,9,10,10,12,12,13,13,14,14],"right_children":[2,4,6,8,10,12,14,16,18,20,22,-1,24,26,28,-1,-1,-1,-1,-1,-1,-1,-1,-1,-1,-1,-1,-1,-1],"split_conditions":[-1.1315895E-1,5E0,-9.978854E-2,-1.2767501E-1,-2.3849624E-1,4.2E2,5E0,1.32E3,3E2,9.6E2,1.2E3,1.7047216E-3,-1.0830333E-1,1.9498914E-1,1.02E3,-9.2081114E-4,-3.2319408E-2,-1.8789651E-3,4.7032468E-2,-4.8549636E-3,4.6213128E-2,5.179214E-2,-2.1138057E-2,2.516955E-3,-5.0236084E-2,-1.9780782E-3,9.103625E-3,-1.6509887E-2,9.964616E-3],"split_indices":[2,5,2,2,2,4,5,4,4,4,4,0,2,2,4,0,0,0,0,0,0,0,0,0,0,0,0,0,0],"split_type":[0,0,0,0,0,0,0,0,0,0,0,0,0,0,0,0,0,0,0,0,0,0,0,0,0,0,0,0,0],"sum_hessian":[5.252375E2,1.2849518E2,3.967423E2,9.9807175E1,2.8688005E1,7.9390907E0,3.8880322E2,9.284329E1,6.9638824E0,1.7608875E1,1.107913E1,1.4759321E0,6.4631586E0,3.1926764E2,6.9535576E1,8.914861E1,3.6946754E0,1.996526E0,4.967356E0,1.1984857E1,5.6240196E0,9.093749E0,1.9853811E0,1.4792194E0,4.983939E0,2.3613394E2,8.3133705E1,5.3154446E1,1.6381128E1],"tree_param":{"num_deleted":"0","num_feature":"6","num_nodes":"29","size_leaf_vector":"1"}},{"base_weights":[-7.6970304E-3,5.1012063E-1,-2.2445876E-2,4.804797E-2,2.3717682E-1,4.6454694E-2,-1.2900186E-1,-4.33189E-2,5.1508045E-1,1.4216114E-2,6.428811E-1,1.742454E-1,-1.7552228E-1,4.6711385E-2,3.4276133E-3,5.349876E-3,-4.4356785E-3,4.3751583E-2,-1.3381875E-2,-1.5004217E-2,2.6417661E-2,-3.5816632E-2,-7.015945E-3],"categories":[],"categories_nodes":[],"categories_segments":[],"categories_sizes":[],"default_left":[0,0,0,0,0,0,0,0,0,0,0,0,0,0,0,0,0,0,0,0,0,0,0],"id":37,"left_children":[1,3,5,-1,7,9,11,-1,13,15,17,19,21,-1,-1,-1,-1,-1,-1,-1,-1,-1,-1],"loss_changes":[4.079498E0,1.5924909E0,3.8153982E0,0E0,3.679455E0,6.063951E0,2.9087403E0,0E0,1.6295509E0,2.8809056E0,3.6530824E0,4.800623E0,3.2765684E0,0E0,0E0,0E0,0E0,0E0,0E0,0E0,0E0,0E0,0E0],"parents":[2147483647,0,0,1,1,2,2,4,4,5,5,6,6,8,8,9,9,10,10,11,11,12,12],"right_children":[2,4,6,-1,8,10,12,-1,14,16,18,20,22,-1,-1,-1,-1,-1,-1,-1,-1,-1,-1],"split_conditions":[-6.7020285E-1,3.6350733E-1,8.4E2,4.804797E-2,5.2830786E-1,5.37469E-1,6.208818E-1,-4.33189E-2,7.8038967E-1,1.6616312E-1,7.2E2,-1.6758004E-2,6.5653014E-1,4.6711385E-2,3.4276133E-3,5.349876E-3,-4.4356785E-3,4.3751583E-2,-1.3381875E-2,-1.5004217E-2,2.6417661E-2,-3.5816632E-2,-7.015945E-3],"split_indices":[2,0,4,0,0,2,1,0,0,0,4,2,1,0,0,0,0,0,0,0,0,0,0],"split_type":[0,0,0,0,0,0,0,0,0,0,0,0,0,0,0,0,0,0,0,0,0,0,0],"sum_hessian":[5.3166125E2,1.3793616E1,5.178676E2,4.251093E0,9.542523E0,3.1484717E2,2.030205E2,1.4936585E0,8.048864E0,2.996728E2,1.5174349E1,2.6637327E1,1.7638316E2,3.5883486E0,4.460516E0,1.5758514E2,1.4208766E2,1.2122506E1,3.0518427E0,1.1451086E1,1.5186241E1,9.597261E0,1.667859E2],"tree_param":{"num_deleted":"0","num_feature":"6","num_nodes":"23","size_leaf_vector":"1"}},{"base_weights":[-5.653938E-3,2.9352927E-1,-2.8308986E-2,7.30368E-1,1.0306159E-1,-3.8737826E-2,5.0099593E-1,-3.801076E-2,9.869265E-1,-5.494701E-1,3.174008E-1,2.1085583E-2,-1.0731528E-1,5.771944E-2,-4.2940536E-1,5.7744365E-2,2.5957271E-2,4.0471437E-3,-6.1499733E-2,6.2454935E-2,6.5234723E-3,2.0403934E-3,-4.3534186E-2,-2.7121508E-2,-2.5767763E-3,1.6829358E-2,-5.1929045E-2],"categories":[],"categories_nodes":[],"categories_segments":[],"categories_sizes":[],"default_left":[0,0,0,0,0,0,0,0,0,0,0,0,0,0,0,0,0,0,0,0,0,0,0,0,0,0,0],"id":38,"left_children":[1,3,5,7,9,11,13,-1,15,17,19,21,23,-1,25,-1,-1,-1,-1,-1,-1,-1,-1,-1,-1,-1,-1],"loss_changes":[3.6097977E0,3.0441172E0,2.7510412E0,5.0406747E0,3.9887495E0,1.9970164E0,6.3520823E0,0E0,1.8666077E-1,3.1495373E0,3.522799E0,4.617534E0,5.4742312E0,0E0,2.5441854E0,0E0,0E0,0E0,0E0,0E0,0E0,0E0,0E0,0E0,0E0,0E0,0E0],"parents":[2147483647,0,0,1,1,2,2,3,3,4,4,5,5,6,6,8,8,9,9,10,10,11,11,12,12,14,14],"right_children":[2,4,6,8,10,12,14,-1,16,18,20,22,24,-1,26,-1,-1,-1,-1,-1,-1,-1,-1,-1,-1,-1,-1],"split_conditions":[-3.8720128E-1,2.3435327E-1,1.0340017E0,1.4103271E-1,2.8137535E-1,1.7044705E-1,3E0,-3.801076E-2,-4.7486672E-1,2.6764068E-1,3.2691696E-1,3.1466678E-1,1.8272793E-1,5.771944E-2,1.4771657E0,5.7744365E-2,2.5957271E-2,4.0471437E-3,-6.1499733E-2,6.2454935E-2,6.5234723E-3,2.0403934E-3,-4.3534186E-2,-2.7121508E-2,-2.5767763E-3,1.6829358E-2,-5.1929045E-2],"split_indices":[2,0,2,0,0,0,5,0,2,0,0,2,0,0,2,0,0,0,0,0,0,0,0,0,0,0,0],"split_type":[0,0,0,0,0,0,0,0,0,0,0,0,0,0,0,0,0,0,0,0,0,0,0,0,0,0,0],"sum_hessian":[5.3034894E2,3.649102E1,4.938579E2,1.0219024E1,2.6271997E1,4.852244E2,8.633513E0,1.2123344E0,9.006689E0,6.1093163E0,2.016268E1,2.5952274E2,2.2570164E2,4.9303403E0,3.7031727E0,5.5463576E0,3.4603314E0,3.6287932E0,2.480523E0,2.4198098E0,1.774287E1,2.5484094E2,4.6818E0,2.4654846E1,2.010468E2,1.8386629E0,1.8645098E0],"tree_param":{"num_deleted":"0","num_feature":"6","num_nodes":"27","size_leaf_vector":"1"}},{"base_weights":[-8.462454E-3,-5.951674E-1,1.3631218E-3,1.8423182E-1,-9.2848724E-1,8.06022E-1,-6.9344505E-3,1.6361026E-2,-2.1508965E-3,-1.4619641E-2,-5.6926675E-2,1.1383895E-2,5.6685217E-2,-3.0911965E-2,2.0138356E-1,-1.2618225E-3,-5.3927995E-2,-2.620472E-2,1.5020962E-2],"categories":[],"categories_nodes":[],"categories_segments":[],"categories_sizes":[],"default_left":[0,0,0,0,0,0,0,0,0,0,0,0,0,0,0,0,0,0,0],"id":39,"left_children":[1,3,5,7,9,11,13,-1,-1,-1,-1,-1,-1,15,17,-1,-1,-1,-1],"loss_changes":[3.0538864E0,2.4378924E0,3.4900913E0,1.2612411E-1,5.058236E-1,7.52985E-1,2.5913777E0,0E0,0E0,0E0,0E0,0E0,0E0,2.7376342E0,4.005269E0,0E0,0E0,0E0,0E0],"parents":[2147483647,0,0,1,1,2,2,3,3,4,4,5,5,6,6,13,13,14,14],"right_children":[2,4,6,8,10,12,14,-1,-1,-1,-1,-1,-1,16,18,-1,-1,-1,-1],"split_conditions":[7.226628E-2,6.4818196E-2,7.530019E-2,-2.6003346E-2,6.8128335E-1,7.370291E-2,1.3761817E0,1.6361026E-2,-2.1508965E-3,-1.4619641E-2,-5.6926675E-2,1.1383895E-2,5.6685217E-2,1.3678459E0,1.2804706E-1,-1.2618225E-3,-5.3927995E-2,-2.620472E-2,1.5020962E-2],"split_indices":[0,0,0,2,1,0,1,0,0,0,0,0,0,1,0,0,0,0,0],"split_type":[0,0,0,0,0,0,0,0,0,0,0,0,0,0,0,0,0,0,0],"sum_hessian":[5.286144E2,7.7256713E0,5.208887E2,2.4482439E0,5.277427E0,4.335272E0,5.165534E2,1.2326975E0,1.2155464E0,1.9038714E0,3.373556E0,2.1808991E0,2.1543725E0,4.6399854E2,5.2554867E1,4.62517E2,1.4815447E0,5.797051E0,4.6757816E1],"tree_param":{"num_deleted":"0","num_feature":"6","num_nodes":"19","size_leaf_vector":"1"}},{"base_weights":[3.2282114E-2,1.6067368E-1,-8.82582E-3,3.6613038E-1,-6.3626544E-4,-5.292893E-2,1.5134332E-1,-8.0944866E-2,6.866679E-1,-9.924926E-2,5.182633E-1,-1.4964531E-2,-6.075254E-2,2.4399056E-1,-2.8783152E-1,-1.4858278E-2,3.0470837E-2,4.7860518E-2,1.4958291E-2,-2.5146633E-2,2.5404885E-4,3.4576185E-2,-7.910016E-3,-2.8050106E-3,1.8056994E-2,6.543819E-3,2.1583762E-2,-5.942006E-3,-6.293697E-2],"categories":[],"categories_nodes":[],"categories_segments":[],"categories_sizes":[],"default_left":[0,0,0,0,0,0,0,0,0,0,0,0,0,0,0,0,0,0,0,0,0,0,0,0,0,0,0,0,0],"id":40,"left_children":[1,3,5,7,9,11,13,15,17,19,21,23,-1,25,27,-1,-1,-1,-1,-1,-1,-1,-1,-1,-1,-1,-1,-1,-1],"loss_changes":[2.8165145E0,4.2891197E0,2.868662E0,8.212146E0,3.8119822E0,1.4023747E1,3.6382864E0,3.8624206E0,3.200017E0,2.6387923E0,1.5037522E0,4.804239E0,0E0,1.4923658E0,2.432203E0,0E0,0E0,0E0,0E0,0E0,0E0,0E0,0E0,0E0,0E0,0E0,0E0,0E0,0E0],"parents":[2147483647,0,0,1,1,2,2,3,3,4,4,5,5,6,6,7,7,8,8,9,9,10,10,11,11,13,13,14,14],"right_children":[2,4,6,8,10,12,14,16,18,20,22,24,-1,26,28,-1,-1,-1,-1,-1,-1,-1,-1,-1,-1,-1,-1,-1,-1],"split_conditions":[-1.1315895E-1,1.9707292E-1,2.500271E-1,1.4103271E-1,1.2E3,4.0605703E-1,1.14E3,-1.2767501E-1,-1.8035462E-1,2.2912824E-1,-1.900824E-1,2.256443E-1,-6.075254E-2,4.457423E-1,9.760241E-1,-1.4858278E-2,3.0470837E-2,4.7860518E-2,1.4958291E-2,-2.5146633E-2,2.5404885E-4,3.4576185E-2,-7.910016E-3,-2.8050106E-3,1.8056994E-2,6.543819E-3,2.1583762E-2,-5.942006E-3,-6.293697E-2],"split_indices":[2,0,0,0,4,2,4,2,2,0,2,2,0,2,0,0,0,0,0,0,0,0,0,0,0,0,0,0,0],"split_type":[0,0,0,0,0,0,0,0,0,0,0,0,0,0,0,0,0,0,0,0,0,0,0,0,0,0,0,0,0],"sum_hessian":[5.323731E2,1.284086E2,4.039645E2,5.5917744E1,7.249086E1,3.1727213E2,8.66924E1,2.3662098E1,3.2255646E1,6.1594093E1,1.0896767E1,3.0821613E2,9.05598E0,7.195696E1,1.473543E1,1.8452377E1,5.209719E0,1.8128595E1,1.4127051E1,1.1864886E1,4.9729206E1,8.657171E0,2.2395954E0,2.7859607E2,2.962006E1,4.5956894E1,2.6000072E1,1.3506889E1,1.228541E0],"tree_param":{"num_deleted":"0","num_feature":"6","num_nodes":"29","size_leaf_vector":"1"}},{"base_weights":[-2.1514976E-2,-4.4115437E-3,-2.203788E-1,-2.4606796E-2,1.5265152E-1,6.912228E-1,-3.3887917E-1,-2.9849239E-2,4.34757E-2,2.8505722E-1,-3.8167253E-1,-1.3878661E-2,5.3530194E-2,-7.2517574E-1,-1.6990893E-1,1.0959732E-2,-2.4715222E-3,-1.1854036E-2,1.738875E-2,-5.7284545E-2,2.7216496E-3,1.0709282E-2,-4.321934E-2,1.3618238E-2,-2.0783683E-2],"categories":[],"categories_nodes":[],"categories_segments":[],"categories_sizes":[],"default_left":[0,0,0,0,0,0,0,0,0,0,0,0,0,0,0,0,0,0,0,0,0,0,0,0,0],"id":41,"left_children":[1,3,5,7,9,11,13,15,-1,17,19,-1,-1,21,23,-1,-1,-1,-1,-1,-1,-1,-1,-1,-1],"loss_changes":[1.8032962E0,1.5563561E0,4.77022E0,2.062973E0,4.064013E0,2.1934743E0,2.3460898E0,2.1224382E0,0E0,1.5683966E0,3.9040444E0,0E0,0E0,1.6505485E0,3.1158762E0,0E0,0E0,0E0,0E0,0E0,0E0,0E0,0E0,0E0,0E0],"parents":[2147483647,0,0,1,1,2,2,3,3,4,4,5,5,6,6,7,7,9,9,10,10,13,13,14,14],"right_children":[2,4,6,8,10,12,14,16,-1,18,20,-1,-1,22,24,-1,-1,-1,-1,-1,-1,-1,-1,-1,-1],"split_conditions":[1.26E3,1.14E3,-1.9821152E-1,1.6559663E0,2.510628E-1,2E0,-5.711903E-2,-3.8720128E-1,4.34757E-2,-4.1261506E-1,3.405142E-1,-1.3878661E-2,5.3530194E-2,2E0,4.0563527E-2,1.0959732E-2,-2.4715222E-3,-1.1854036E-2,1.738875E-2,-5.7284545E-2,2.7216496E-3,1.0709282E-2,-4.321934E-2,1.3618238E-2,-2.0783683E-2],"split_indices":[4,4,2,2,2,5,2,2,0,2,2,0,0,5,2,0,0,0,0,0,0,0,0,0,0],"split_type":[0,0,0,0,0,0,0,0,0,0,0,0,0,0,0,0,0,0,0,0,0,0,0,0,0],"sum_hessian":[5.2947144E2,4.8848145E2,4.099003E1,4.335754E2,5.4906025E1,4.1594057E0,3.6830624E1,4.3200906E2,1.5663555E0,4.4376114E1,1.052991E1,1.2459843E0,2.9134212E0,1.0206039E1,2.6624586E1,3.0747856E1,4.012612E2,4.4606E0,3.9915516E1,3.235138E0,7.2947717E0,1.2477782E0,8.958261E0,9.47154E0,1.7153046E1],"tree_param":{"num_deleted":"0","num_feature":"6","num_nodes":"25","size_leaf_vector":"1"}},{"base_weights":[-3.084918E-3,-2.568022E-2,1.9797087E-1,-1.9522188E-2,-4.6848137E-2,4.4790182E-1,5.6468535E-2,-5.281576E-1,-1.2510948E-2,3.2967964E-1,8.893685E-1,4.4158638E-1,-8.0909155E-2,1.1110882E-3,-4.077743E-2,1.3576235E-2,-1.3425117E-3,2.1406855E-2,-1.4775976E-2,5.2117895E-2,1.3617123E-2,-1.980595E-2,6.515648E-2,-1.8722715E-2,1.3553222E-2],"categories":[],"categories_nodes":[],"categories_segments":[],"categories_sizes":[],"default_left":[0,0,0,0,0,0,0,0,0,0,0,0,0,0,0,0,0,0,0,0,0,0,0,0,0],"id":42,"left_children":[1,3,5,7,-1,9,11,13,15,17,19,21,23,-1,-1,-1,-1,-1,-1,-1,-1,-1,-1,-1,-1],"loss_changes":[2.4347205E0,2.6847076E0,1.8896658E0,1.7032251E0,0E0,7.208581E-1,1.9254111E0,1.045455E0,1.9376872E0,1.1677184E0,4.794097E-2,7.405633E0,2.9088602E0,0E0,0E0,0E0,0E0,0E0,0E0,0E0,0E0,0E0,0E0,0E0,0E0],"parents":[2147483647,0,0,1,1,2,2,3,3,5,5,6,6,7,7,8,8,9,9,10,10,11,11,12,12],"right_children":[2,4,6,8,-1,10,12,14,16,18,20,22,24,-1,-1,-1,-1,-1,-1,-1,-1,-1,-1,-1,-1],"split_conditions":[1.3761817E0,1.3678459E0,1.5078535E0,6.948281E-2,-4.6848137E-2,1.4873943E0,1.5011033E-1,6.4818196E-2,8.76248E-2,1.4758259E0,2.1879867E-1,1.3252676E-1,2.5191227E-1,1.1110882E-3,-4.077743E-2,1.3576235E-2,-1.3425117E-3,2.1406855E-2,-1.4775976E-2,5.2117895E-2,1.3617123E-2,-1.980595E-2,6.515648E-2,-1.8722715E-2,1.3553222E-2],"split_indices":[1,1,1,0,0,1,0,0,0,1,0,0,0,0,0,0,0,0,0,0,0,0,0,0,0],"split_type":[0,0,0,0,0,0,0,0,0,0,0,0,0,0,0,0,0,0,0,0,0,0,0,0,0],"sum_hessian":[5.338187E2,4.806716E2,5.3147156E1,4.784598E2,2.21179E0,1.8429827E1,3.471733E1,5.4949455E0,4.7296484E2,1.5914737E1,2.5150905E0,8.545868E0,2.6171461E1,2.2015185E0,3.293427E0,2.1867767E1,4.5109708E2,1.4021764E1,1.8929733E0,1.4630153E0,1.052075E0,4.6067767E0,3.9390912E0,1.4235346E1,1.1936115E1],"tree_param":{"num_deleted":"0","num_feature":"6","num_nodes":"25","size_leaf_vector":"1"}},{"base_weights":[-2.2271907E-2,-1.2553777E-1,4.3550022E-2,-6.5351866E-2,-9.930632E-2,1.5896371E-1,-6.661881E-2,-1.4039463E-1,4.3448177E-1,2.883154E-1,-1.3065657E-1,-1.3745213E-1,8.704393E-2,-1.7255504E-2,-3.4201264E-3,3.392062E-2,-1.2555326E-2,2.8656265E-2,9.758789E-3,7.546253E-3,-3.193813E-2,1.718428E-2,-8.482789E-3,1.7022086E-2,-3.1632998E-3],"categories":[],"categories_nodes":[],"categories_segments":[],"categories_sizes":[],"default_left":[0,0,0,0,0,0,0,0,0,0,0,0,0,0,0,0,0,0,0,0,0,0,0,0,0],"id":43,"left_children":[1,3,5,-1,7,9,11,13,15,17,19,21,23,-1,-1,-1,-1,-1,-1,-1,-1,-1,-1,-1,-1],"loss_changes":[3.5885267E0,6.237945E0,4.113458E0,0E0,4.493126E0,5.9524546E0,1.8165581E0,2.7529125E0,2.626649E0,2.791565E0,7.1688886E0,1.8226745E0,2.0373323E0,0E0,0E0,0E0,0E0,0E0,0E0,0E0,0E0,0E0,0E0,0E0,0E0],"parents":[2147483647,0,0,1,1,2,2,4,4,5,5,6,6,7,7,8,8,9,9,10,10,11,11,12,12],"right_children":[2,4,6,-1,8,10,12,14,16,18,20,22,24,-1,-1,-1,-1,-1,-1,-1,-1,-1,-1,-1,-1],"split_conditions":[3E0,4.0578938E-1,7.2E2,-6.5351866E-2,1.4539866E0,5E0,5E0,3.6E2,2.098522E0,7.095119E-1,4.8E2,5.65583E-1,9.006357E-1,-1.7255504E-2,-3.4201264E-3,3.392062E-2,-1.2555326E-2,2.8656265E-2,9.758789E-3,7.546253E-3,-3.193813E-2,1.718428E-2,-8.482789E-3,1.7022086E-2,-3.1632998E-3],"split_indices":[5,1,4,0,1,5,5,4,1,1,4,1,1,0,0,0,0,0,0,0,0,0,0,0,0],"split_type":[0,0,0,0,0,0,0,0,0,0,0,0,0,0,0,0,0,0,0,0,0,0,0,0,0],"sum_hessian":[5.261408E2,2.0446115E2,3.2167963E2,3.3803108E0,2.0108084E2,1.5688394E2,1.647957E2,1.8739323E2,1.3687596E1,1.08451355E2,4.8432587E1,1.1287133E2,5.1924366E1,4.7767815E1,1.3962543E2,1.0103325E1,3.5842714E0,2.5456121E1,8.299523E1,3.1615118E1,1.6817467E1,6.474026E0,1.063973E2,1.8861706E1,3.306266E1],"tree_param":{"num_deleted":"0","num_feature":"6","num_nodes":"25","size_leaf_vector":"1"}},{"base_weights":[-2.2345617E-2,-4.593272E-2,1.3473758E-1,-5.4470118E-2,3.2983077E-1,5.2425414E-1,1.3818522E-3,-1.6331498E-2,-1.7256461E-1,4.6257854E-2,-1.2741445E-1,9.807815E-1,1.033594E-1,-2.7433386E-1,2.1294063E-1,-1.6587954E-3,4.841575E-2,-2.6701912E-2,-3.0531522E-4,-4.0710166E-2,1.8082688E-2,1.8385762E-2,6.403673E-2,-2.0814156E-2,6.273872E-2,-4.7340058E-4,-3.6117148E-2,3.0684972E-2,-1.4677155E-2],"categories":[],"categories_nodes":[],"categories_segments":[],"categories_sizes":[],"default_left":[0,0,0,0,0,0,0,0,0,0,0,0,0,0,0,0,0,0,0,0,0,0,0,0,0,0,0,0,0],"id":44,"left_children":[1,3,5,7,9,11,13,15,17,-1,19,21,23,25,27,-1,-1,-1,-1,-1,-1,-1,-1,-1,-1,-1,-1,-1,-1],"loss_changes":[1.9457618E0,1.4804659E0,3.5624716E0,2.0087228E0,2.9133172E0,3.2598157E0,3.0976474E0,5.6496563E0,6.550516E0,0E0,2.5406177E0,1.0504375E0,6.6367683E0,2.7293792E0,6.2786417E0,0E0,0E0,0E0,0E0,0E0,0E0,0E0,0E0,0E0,0E0,0E0,0E0,0E0,0E0],"parents":[2147483647,0,0,1,1,2,2,3,3,4,4,5,5,6,6,7,7,8,8,10,10,11,11,12,12,13,13,14,14],"right_children":[2,4,6,8,10,12,14,16,18,-1,20,22,24,26,28,-1,-1,-1,-1,-1,-1,-1,-1,-1,-1,-1,-1,-1,-1],"split_conditions":[1.2916791E0,9.3120134E-1,-1.352994E-1,1.2559459E-1,4.2E2,1.4404982E0,6.81314E-2,1.2073992E-1,1.912463E-1,4.6257854E-2,9E2,5.4E2,-1.8035462E-1,1.6595188E0,3.1466678E-1,-1.6587954E-3,4.841575E-2,-2.6701912E-2,-3.0531522E-4,-4.0710166E-2,1.8082688E-2,1.8385762E-2,6.403673E-2,-2.0814156E-2,6.273872E-2,-4.7340058E-4,-3.6117148E-2,3.0684972E-2,-1.4677155E-2],"split_indices":[1,2,2,2,4,1,2,2,2,0,4,4,2,1,2,0,0,0,0,0,0,0,0,0,0,0,0,0,0],"split_type":[0,0,0,0,0,0,0,0,0,0,0,0,0,0,0,0,0,0,0,0,0,0,0,0,0,0,0,0,0],"sum_hessian":[5.2248193E2,4.548854E2,6.759653E1,4.45616E2,9.269417E0,1.6492529E1,5.1104E1,3.3769553E2,1.0792049E2,3.5821648E0,5.6872516E0,7.273274E0,9.2192545E0,2.2058868E1,2.904513E1,3.3296576E2,4.729759E0,3.3331345E1,7.458914E1,2.0889604E0,3.5982912E0,3.1207542E0,4.1525197E0,6.7922974E0,2.4269571E0,1.4504718E1,7.554151E0,1.6096766E1,1.2948364E1],"tree_param":{"num_deleted":"0","num_feature":"6","num_nodes":"29","size_leaf_vector":"1"}},{"base_weights":[-2.7914537E-4,-2.4042571E-2,2.0570146E-1,3.3869687E-2,-1.2345406E-1,-6.393792E-2,5.5148476E-1,8.638722E-2,-2.09566E-1,-2.0470996E-1,1.5200391E-1,2.574188E-1,-9.0193266E-1,8.915249E-1,-1.0368764E-2,2.5961597E-3,4.8265174E-2,-1.3551797E-2,2.6400924E-2,-8.413913E-3,-4.996088E-2,4.408365E-2,7.3230284E-4,2.507642E-2,-1.8820401E-2,-5.0213005E-2,-7.30423E-3,1.899842E-2,5.9857607E-2,-3.5768114E-2,2.3261173E-2],"categories":[],"categories_nodes":[],"categories_segments":[],"categories_sizes":[],"default_left":[0,0,0,0,0,0,0,0,0,0,0,0,0,0,0,0,0,0,0,0,0,0,0,0,0,0,0,0,0,0,0],"id":45,"left_children":[1,3,5,7,9,11,13,15,17,19,21,23,25,27,29,-1,-1,-1,-1,-1,-1,-1,-1,-1,-1,-1,-1,-1,-1,-1,-1],"loss_changes":[2.5855434E0,2.7306213E0,5.129387E0,3.853913E0,3.9378283E0,8.740371E0,4.60256E0,7.4468775E0,2.570274E0,3.7455316E0,4.0294867E0,3.8425286E0,5.478072E-1,1.8885908E0,3.7034972E0,0E0,0E0,0E0,0E0,0E0,0E0,0E0,0E0,0E0,0E0,0E0,0E0,0E0,0E0,0E0,0E0],"parents":[2147483647,0,0,1,1,2,2,3,3,4,4,5,5,6,6,7,7,8,8,9,9,10,10,11,11,12,12,13,13,14,14],"right_children":[2,4,6,8,10,12,14,16,18,20,22,24,26,28,30,-1,-1,-1,-1,-1,-1,-1,-1,-1,-1,-1,-1,-1,-1,-1,-1],"split_conditions":[1.3761817E0,6.042483E-2,5.311811E-2,2.6764068E-1,3.388192E-1,1.8766729E0,3.060777E-1,2.5191227E-1,2.8534599E-2,2.9303384E-1,7.095119E-1,-5.0098974E-2,8.485E3,1.5192689E-1,2.979057E-1,2.5961597E-3,4.8265174E-2,-1.3551797E-2,2.6400924E-2,-8.413913E-3,-4.996088E-2,4.408365E-2,7.3230284E-4,2.507642E-2,-1.8820401E-2,-5.0213005E-2,-7.30423E-3,1.899842E-2,5.9857607E-2,-3.5768114E-2,2.3261173E-2],"split_indices":[1,2,2,0,0,1,2,0,2,0,1,2,1,2,0,0,0,0,0,0,0,0,0,0,0,0,0,0,0,0,0],"split_type":[0,0,0,0,0,0,0,0,0,0,0,0,0,0,0,0,0,0,0,0,0,0,0,0,0,0,0,0,0,0,0],"sum_hessian":[5.2621155E2,4.725751E2,5.3636436E1,2.9903262E2,1.7354247E2,3.0594305E1,2.3042131E1,2.4649931E2,5.2533325E1,1.3420953E2,3.933293E1,2.261475E1,7.979556E0,1.3989044E1,9.053087E0,2.3821742E2,8.281894E0,4.9075897E1,3.4574263E0,1.2948392E2,4.7256136E0,5.3728104E0,3.396012E1,1.6477428E1,6.1373215E0,6.738622E0,1.240934E0,6.070884E0,7.9181604E0,3.4438906E0,5.6091967E0],"tree_param":{"num_deleted":"0","num_feature":"6","num_nodes":"31","size_leaf_vector":"1"}},{"base_weights":[-4.9991026E-3,3.2546976E-1,-2.9016059E-2,3.384282E-3,6.34922E-1,-6.0485728E-2,1.0696121E-1,3.8235298E-1,-3.4619668E-1,7.987769E-1,1.008474E-1,2.2730336E-2,-1.7327744E-1,3.3457193E-1,-7.0830084E-2,-1.4387116E-2,4.1205134E-2,7.73009E-3,-4.5147974E-2,5.1200736E-2,-3.2734075E-3,4.7516417E-2,-2.130864E-2,1.6446639E-2,-1.3992016E-3,-6.7272656E-2,-6.9087185E-3,-5.2251155E-3,2.255761E-2,7.122139E-3,-1.9076984E-2],"categories":[],"categories_nodes":[],"categories_segments":[],"categories_sizes":[],"default_left":[0,0,0,0,0,0,0,0,0,0,0,0,0,0,0,0,0,0,0,0,0,0,0,0,0,0,0,0,0,0,0],"id":46,"left_children":[1,3,5,7,9,11,13,15,17,19,21,23,25,27,29,-1,-1,-1,-1,-1,-1,-1,-1,-1,-1,-1,-1,-1,-1,-1,-1],"loss_changes":[4.199167E0,3.5706909E0,2.1162462E0,2.5925474E0,1.5188355E0,3.7678876E0,3.788012E0,3.0154393E0,2.979281E0,2.7613754E0,2.8383632E0,3.6063962E0,6.8242316E0,2.1442814E0,3.5698614E0,0E0,0E0,0E0,0E0,0E0,0E0,0E0,0E0,0E0,0E0,0E0,0E0,0E0,0E0,0E0,0E0],"parents":[2147483647,0,0,1,1,2,2,3,3,4,4,5,5,6,6,7,7,8,8,9,9,10,10,11,11,12,12,13,13,14,14],"right_children":[2,4,6,8,10,12,14,16,18,20,22,24,26,28,30,-1,-1,-1,-1,-1,-1,-1,-1,-1,-1,-1,-1,-1,-1,-1,-1],"split_conditions":[-3.9336115E-1,1.0528121E0,2.256443E-1,9.352119E-1,1.02E3,1.6616312E-1,7.2E2,8.189342E-1,-5.965898E-1,1.4180366E0,2.8137535E-1,5.8531797E-1,4.0578938E-1,8.3018535E-1,4.0605703E-1,-1.4387116E-2,4.1205134E-2,7.73009E-3,-4.5147974E-2,5.1200736E-2,-3.2734075E-3,4.7516417E-2,-2.130864E-2,1.6446639E-2,-1.3992016E-3,-6.7272656E-2,-6.9087185E-3,-5.2251155E-3,2.255761E-2,7.122139E-3,-1.9076984E-2],"split_indices":[2,1,2,1,4,0,4,1,2,1,0,1,1,1,2,0,0,0,0,0,0,0,0,0,0,0,0,0,0,0,0],"split_type":[0,0,0,0,0,0,0,0,0,0,0,0,0,0,0,0,0,0,0,0,0,0,0,0,0,0,0,0,0,0,0],"sum_hessian":[5.268819E2,3.4846657E1,4.9203522E2,1.757015E1,1.7276506E1,4.0001385E2,9.2021355E1,8.385727E0,9.184424E0,1.2841185E1,4.4353223E0,2.306455E2,1.6936838E2,3.9969746E1,5.205161E1,3.4702675E0,4.915459E0,5.2154965E0,3.968928E0,1.0039773E1,2.8014119E0,1.3906245E0,3.0446978E0,3.199295E1,1.9865254E2,3.8392115E0,1.6552917E2,8.407674E0,3.1562073E1,3.1186543E1,2.0865068E1],"tree_param":{"num_deleted":"0","num_feature":"6","num_nodes":"31","size_leaf_vector":"1"}},{"base_weights":[1.0188723E-3,4.464456E-1,-1.2193374E-2,-2.9152066E-2,5.2511193E-2,-4.3049586E-1,-1.9147478E-3,6.095387E-1,-5.7729894E-1,-6.255406E-2,3.1277522E-2,9.880031E-2,-4.937803E-2,-4.4541205E-3,4.686948E-2,-4.3572567E-2,3.2650528E-3,-5.0577283E-2,2.1126648E-2,6.5594823E-3,-4.4015717E-2,1.8942326E-4,-1.457513E-2],"categories":[],"categories_nodes":[],"categories_segments":[],"categories_sizes":[],"default_left":[0,0,0,0,0,0,0,0,0,0,0,0,0,0,0,0,0,0,0,0,0,0,0],"id":47,"left_children":[1,3,5,7,-1,9,11,13,15,-1,17,19,21,-1,-1,-1,-1,-1,-1,-1,-1,-1,-1],"loss_changes":[3.150387E0,4.458865E0,2.2348292E0,3.712529E0,0E0,4.762785E0,2.4356678E0,1.2103653E0,1.1304288E0,0E0,4.0801682E0,5.2914534E0,4.458885E0,0E0,0E0,0E0,0E0,0E0,0E0,0E0,0E0,0E0,0E0],"parents":[2147483647,0,0,1,1,2,2,3,3,5,5,6,6,7,7,8,8,10,10,11,11,12,12],"right_children":[2,4,6,8,-1,10,12,14,16,-1,18,20,22,-1,-1,-1,-1,-1,-1,-1,-1,-1,-1],"split_conditions":[-6.7020285E-1,1.1643745E0,4.0578938E-1,1.0105516E0,5.2511193E-2,3E0,-6.2393583E-2,2E0,-8.059198E-1,-6.255406E-2,-5.085943E-2,1.8766729E0,5E0,-4.4541205E-3,4.686948E-2,-4.3572567E-2,3.2650528E-3,-5.0577283E-2,2.1126648E-2,6.5594823E-3,-4.4015717E-2,1.8942326E-4,-1.457513E-2],"split_indices":[2,1,1,1,0,5,2,5,2,0,2,1,5,0,0,0,0,0,0,0,0,0,0],"split_type":[0,0,0,0,0,0,0,0,0,0,0,0,0,0,0,0,0,0,0,0,0,0,0],"sum_hessian":[5.333919E2,1.4421085E1,5.189708E2,8.599195E0,5.821891E0,1.1465951E1,5.0750485E2,3.9198532E0,4.679341E0,3.5133405E0,7.9526105E0,1.6221338E2,3.4529147E2,1.4845955E0,2.4352577E0,2.9656641E0,1.7136767E0,1.7371514E0,6.215459E0,1.5785744E2,4.3559484E0,2.8392963E2,6.136183E1],"tree_param":{"num_deleted":"0","num_feature":"6","num_nodes":"23","size_leaf_vector":"1"}},{"base_weights":[-8.739868E-4,7.7476148E-3,-3.0299366E-1,1.3917553E-3,7.118028E-1,-4.3493015E-1,2.249976E-2,-2.8360358E-1,9.14747E-3,3.7496656E-3,4.5930527E-2,-4.439708E-2,-2.887713E-1,-6.1066E-2,7.7253804E-3,3.1308796E-2,2.420978E-4,-2.6352245E-3,-3.354688E-2],"categories":[],"categories_nodes":[],"categories_segments":[],"categories_sizes":[],"default_left":[0,0,0,0,0,0,0,0,0,0,0,0,0,0,0,0,0,0,0],"id":48,"left_children":[1,3,5,7,9,11,-1,13,15,-1,-1,-1,17,-1,-1,-1,-1,-1,-1],"loss_changes":[1.3881379E0,2.3180566E0,1.6646631E0,1.1400422E0,5.4147005E-1,6.103029E-1,0E0,5.802355E0,1.3304293E0,0E0,0E0,0E0,9.912055E-1,0E0,0E0,0E0,0E0,0E0,0E0],"parents":[2147483647,0,0,1,1,2,2,3,3,4,4,5,5,7,7,8,8,12,12],"right_children":[2,4,6,8,10,12,-1,14,16,-1,-1,-1,18,-1,-1,-1,-1,-1,-1],"split_conditions":[1.7795376E0,1.677693E0,8.485E3,4.0578938E-1,2.4E2,1.8766729E0,2.249976E-2,3E0,4.2063725E-1,3.7496656E-3,4.5930527E-2,-4.439708E-2,2.8330116E0,-6.1066E-2,7.7253804E-3,3.1308796E-2,2.420978E-4,-2.6352245E-3,-3.354688E-2],"split_indices":[1,1,1,1,4,1,0,5,1,0,0,0,1,0,0,0,0,0,0],"split_type":[0,0,0,0,0,0,0,0,0,0,0,0,0,0,0,0,0,0,0],"sum_hessian":[5.3102325E2,5.172372E2,1.3786063E1,5.136026E2,3.634572E0,1.2090072E1,1.695992E0,1.2664369E1,5.0093826E2,1.2250324E0,2.4095395E0,1.71118E0,1.0378892E1,3.46351E0,9.200858E0,2.4703724E0,4.984679E2,7.119213E0,3.2596786E0],"tree_param":{"num_deleted":"0","num_feature":"6","num_nodes":"19","size_leaf_vector":"1"}},{"base_weights":[-1.6461873E-2,-7.263666E-2,8.6702675E-2,-4.6363287E-2,-4.387945E-1,5.273029E-1,3.106199E-2,-4.459852E-3,-2.2637108E-1,-5.156619E-1,2.6940916E-2,-2.210435E-2,6.3524514E-1,-3.3076152E-1,1.0766264E-1,-6.268961E-3,5.4558376E-3,-2.735886E-3,-2.0166889E-2,-1.752679E-2,-6.150521E-2,-1.26677845E-2,3.685875E-2,-6.794262E-3,-4.3426346E-2,6.8059475E-3,-1.8103948E-2],"categories":[],"categories_nodes":[],"categories_segments":[],"categories_sizes":[],"default_left":[0,0,0,0,0,0,0,0,0,0,0,0,0,0,0,0,0,0,0,0,0,0,0,0,0,0,0],"id":49,"left_children":[1,3,5,7,9,11,13,15,17,19,-1,-1,21,23,25,-1,-1,-1,-1,-1,-1,-1,-1,-1,-1,-1,-1],"loss_changes":[3.1060119E0,3.3164022E0,4.617599E0,2.4485197E0,2.0139904E0,2.4920034E0,4.7166166E0,3.6454403E0,1.840076E0,2.155983E0,0E0,0E0,1.9461575E0,3.000144E0,1.9225283E0,0E0,0E0,0E0,0E0,0E0,0E0,0E0,0E0,0E0,0E0,0E0,0E0],"parents":[2147483647,0,0,1,1,2,2,3,3,4,4,5,5,6,6,7,7,8,8,9,9,12,12,13,13,14,14],"right_children":[2,4,6,8,10,12,14,16,18,20,-1,-1,22,24,26,-1,-1,-1,-1,-1,-1,-1,-1,-1,-1,-1,-1],"split_conditions":[9E2,8.4E2,6.208818E-1,5E0,1.3393679E0,4.366774E-1,7.559319E-1,3E0,9.752139E-1,1.087196E0,2.6940916E-2,-2.210435E-2,9.6E2,7.2229344E-1,1.6595188E0,-6.268961E-3,5.4558376E-3,-2.735886E-3,-2.0166889E-2,-1.752679E-2,-6.150521E-2,-1.26677845E-2,3.685875E-2,-6.794262E-3,-4.3426346E-2,6.8059475E-3,-1.8103948E-2],"split_indices":[4,4,1,5,1,1,1,5,1,1,0,0,4,1,1,0,0,0,0,0,0,0,0,0,0,0,0],"split_type":[0,0,0,0,0,0,0,0,0,0,0,0,0,0,0,0,0,0,0,0,0,0,0,0,0,0,0],"sum_hessian":[5.338718E2,3.458479E2,1.8802393E2,3.2374448E2,2.2103415E1,2.0131588E1,1.6789233E2,2.6344318E2,6.030131E1,2.0930248E1,1.173167E0,1.7069051E0,1.8424683E1,2.8754122E1,1.3913821E2,1.2754665E2,1.3589651E2,3.1274761E1,2.902655E1,1.8211697E1,2.7185514E0,1.743105E0,1.6681578E1,2.2025257E1,6.7288632E0,1.3186052E2,7.277703E0],"tree_param":{"num_deleted":"0","num_feature":"6","num_nodes":"27","size_leaf_vector":"1"}},{"base_weights":[-1.0402941E-3,2.4216188E-1,-2.0392124E-2,-3.860652E-2,3.029401E-1,-6.18137E-1,-1.2971843E-2,-3.6561426E-2,3.5736108E-1,2.4105771E-4,-4.9102526E-2,-3.823806E-2,1.424096E-1,4.3391712E-2,7.4598785E-3,-9.875193E-4,-2.3617556E-2,1.6356349E-2,-4.258281E-3],"categories":[],"categories_nodes":[],"categories_segments":[],"categories_sizes":[],"default_left":[0,0,0,0,0,0,0,0,0,0,0,0,0,0,0,0,0,0,0],"id":50,"left_children":[1,3,5,-1,7,9,11,-1,13,-1,-1,15,17,-1,-1,-1,-1,-1,-1],"loss_changes":[2.4972155E0,2.6448388E0,2.1717374E0,0E0,2.3783562E0,1.365952E0,1.915148E0,0E0,3.7392159E0,0E0,0E0,3.3549795E0,2.8967645E0,0E0,0E0,0E0,0E0,0E0,0E0],"parents":[2147483647,0,0,1,1,2,2,4,4,5,5,6,6,8,8,11,11,12,12],"right_children":[2,4,6,-1,8,10,12,-1,14,-1,-1,16,18,-1,-1,-1,-1,-1,-1],"split_conditions":[-3.8720128E-1,6.619417E-1,6.948281E-2,-3.860652E-2,1.4103271E-1,6.4818196E-2,3.5068935E-1,-3.6561426E-2,2.3435327E-1,2.4105771E-4,-4.9102526E-2,4.0605703E-1,5.705799E-1,4.3391712E-2,7.4598785E-3,-9.875193E-4,-2.3617556E-2,1.6356349E-2,-4.258281E-3],"split_indices":[2,1,0,0,0,0,0,0,0,0,0,2,0,0,0,0,0,0,0],"split_type":[0,0,0,0,0,0,0,0,0,0,0,0,0,0,0,0,0,0,0],"sum_hessian":[5.2854987E2,3.810872E1,4.9044116E2,1.4927647E0,3.6615955E1,5.0044107E0,4.8543674E2,1.2087831E0,3.5407173E1,2.209269E0,2.7951415E0,4.1818976E2,6.724697E1,9.338253E0,2.606892E1,4.0211047E2,1.607928E1,3.687719E1,3.0369783E1],"tree_param":{"num_deleted":"0","num_feature":"6","num_nodes":"19","size_leaf_vector":"1"}},{"base_weights":[-6.360862E-3,-3.1384706E-1,1.6330004E-2,-5.916053E-2,-7.348296E-1,3.049777E-1,1.8586373E-3,1.8339047E-1,-9.525629E-1,-6.508835E-2,-2.990489E-1,4.6874216E-1,-4.8940934E-2,-1.5940069E-1,3.995724E-2,-2.9685084E-2,3.4915224E-2,1.6396267E-2,-7.7614956E-2,6.0882457E-2,-3.819988E-2,-2.7281538E-2,2.8992668E-2,-2.5143197E-2,2.3392253E-3,5.8166225E-2,1.5893091E-3],"categories":[],"categories_nodes":[],"categories_segments":[],"categories_sizes":[],"default_left":[0,0,0,0,0,0,0,0,0,0,0,0,0,0,0,0,0,0,0,0,0,0,0,0,0,0,0],"id":51,"left_children":[1,3,5,7,9,11,13,15,17,-1,19,21,-1,23,25,-1,-1,-1,-1,-1,-1,-1,-1,-1,-1,-1,-1],"loss_changes":[3.6922536E0,3.8557394E0,2.0591426E0,5.320423E0,2.9758143E0,5.406787E0,2.8973596E0,8.223049E0,4.5268335E0,0E0,7.276485E0,2.745079E0,0E0,6.406058E0,3.4642117E0,0E0,0E0,0E0,0E0,0E0,0E0,0E0,0E0,0E0,0E0,0E0,0E0],"parents":[2147483647,0,0,1,1,2,2,3,3,4,4,5,5,6,6,7,7,8,8,10,10,11,11,13,13,14,14],"right_children":[2,4,6,8,10,12,14,16,18,-1,20,22,-1,24,26,-1,-1,-1,-1,-1,-1,-1,-1,-1,-1,-1,-1],"split_conditions":[5.220595E-1,1.7044705E-1,5.9749454E-1,4E0,1.8988517E-1,2.8574452E-1,1.2421244E-1,1.3334043E-1,1.2885684E-1,-6.508835E-2,1.9707292E-1,7.994377E-2,-4.8940934E-2,3E0,1.2445489E-1,-2.9685084E-2,3.4915224E-2,1.6396267E-2,-7.7614956E-2,6.0882457E-2,-3.819988E-2,-2.7281538E-2,2.8992668E-2,-2.5143197E-2,2.3392253E-3,5.8166225E-2,1.5893091E-3],"split_indices":[1,0,1,5,0,0,0,0,0,0,0,0,0,5,0,0,0,0,0,0,0,0,0,0,0,0,0],"split_type":[0,0,0,0,0,0,0,0,0,0,0,0,0,0,0,0,0,0,0,0,0,0,0,0,0,0,0],"sum_hessian":[5.2745935E2,3.5366943E1,4.920924E2,2.2746357E1,1.2620587E1,2.2534855E1,4.6955756E2,1.8514545E1,4.2318106E0,4.6212626E0,7.9993253E0,2.0548512E1,1.9863447E0,8.912706E1,3.804305E2,7.317776E0,1.119677E1,1.4943856E0,2.7374249E0,1.4970253E0,6.5023E0,1.6425377E0,1.8905973E1,3.2893753E1,5.6233303E1,1.7262932E0,3.7870422E2],"tree_param":{"num_deleted":"0","num_feature":"6","num_nodes":"27","size_leaf_vector":"1"}},{"base_weights":[2.380342E-2,7.1366854E-2,-9.987187E-2,2.7779442E-1,2.2163663E-2,-6.892386E-1,-3.3749744E-2,3.166288E-1,-5.4768886E-2,-4.9705454E-3,4.3765086E-1,-9.746473E-1,3.3726656E-1,1.3152902E-1,-1.6482715E-1,3.0297196E-2,6.4123557E-3,8.934633E-4,-4.2525593E-2,-3.2009445E-2,4.6004314E-2,-2.944932E-2,-5.940597E-2,-4.855508E-2,6.380704E-2,1.4654867E-2,-2.7681118E-2,-9.654056E-3,3.397843E-2],"categories":[],"categories_nodes":[],"categories_segments":[],"categories_sizes":[],"default_left":[0,0,0,0,0,0,0,0,0,0,0,0,0,0,0,0,0,0,0,0,0,0,0,0,0,0,0,0,0],"id":52,"left_children":[1,3,5,7,9,11,13,15,-1,17,19,21,23,25,27,-1,-1,-1,-1,-1,-1,-1,-1,-1,-1,-1,-1,-1,-1],"loss_changes":[3.1195846E0,3.881174E0,5.720293E0,4.2705746E0,3.498762E0,4.6693325E0,2.9153292E0,3.8645048E0,0E0,5.656698E0,1.0481483E1,2.7576923E-1,6.1111965E0,6.7635317E0,1.9189732E0,0E0,0E0,0E0,0E0,0E0,0E0,0E0,0E0,0E0,0E0,0E0,0E0,0E0,0E0],"parents":[2147483647,0,0,1,1,2,2,3,3,4,4,5,5,6,6,7,7,9,9,10,10,11,11,12,12,13,13,14,14],"right_children":[2,4,6,8,10,12,14,16,-1,18,20,22,24,26,28,-1,-1,-1,-1,-1,-1,-1,-1,-1,-1,-1,-1,-1,-1],"split_conditions":[1.2559459E-1,2E0,1.4599016E-1,1.38E3,9.7366035E-2,1.2E3,7.2E2,7.1628803E-1,-5.4768886E-2,8.6273134E-2,4.8E2,4E0,3E0,5E0,1.8766729E0,3.0297196E-2,6.4123557E-3,8.934633E-4,-4.2525593E-2,-3.2009445E-2,4.6004314E-2,-2.944932E-2,-5.940597E-2,-4.855508E-2,6.380704E-2,1.4654867E-2,-2.7681118E-2,-9.654056E-3,3.397843E-2],"split_indices":[2,5,2,4,2,4,4,1,0,2,4,5,5,5,1,0,0,0,0,0,0,0,0,0,0,0,0,0,0],"split_type":[0,0,0,0,0,0,0,0,0,0,0,0,0,0,0,0,0,0,0,0,0,0,0,0,0,0,0,0,0],"sum_hessian":[5.281116E2,3.8172827E2,1.4638332E2,7.257991E1,3.0914838E2,1.3815733E1,1.3256758E2,7.1332E1,1.2479086E0,2.91124E2,1.8024387E1,1.0849629E1,2.9661036E0,5.8632706E1,7.3934875E1,2.7255953E1,4.407605E1,2.8442007E2,6.7039056E0,5.4720154E0,1.2552372E1,5.205107E0,5.6445217E0,1.224866E0,1.7412375E0,4.790763E1,1.0725077E1,7.228744E1,1.6474419E0],"tree_param":{"num_deleted":"0","num_feature":"6","num_nodes":"29","size_leaf_vector":"1"}},{"base_weights":[-4.336862E-3,5.702226E-2,-9.068637E-2,-3.0870822E-1,7.943618E-2,-1.8417543E-1,5.0364755E-2,-8.726173E-1,-1.0346243E-1,2.111084E-1,1.6682219E-2,-1.5166654E-1,-1.13938E0,9.4520843E-1,-2.2336978E-2,-1.339485E-2,-5.0630856E-2,7.3908204E-3,-3.9705712E-2,3.755742E-5,1.733335E-2,-3.2821927E-2,2.5917448E-3,-1.1815113E-2,-1.43957E-3,-1.5591244E-2,-6.837354E-2,2.6927093E-2,6.326866E-2,-2.7219528E-2,6.700188E-4],"categories":[],"categories_nodes":[],"categories_segments":[],"categories_sizes":[],"default_left":[0,0,0,0,0,0,0,0,0,0,0,0,0,0,0,0,0,0,0,0,0,0,0,0,0,0,0,0,0,0,0],"id":53,"left_children":[1,3,5,7,9,11,13,15,17,19,21,23,25,27,29,-1,-1,-1,-1,-1,-1,-1,-1,-1,-1,-1,-1,-1,-1,-1,-1],"loss_changes":[2.801714E0,2.5589437E0,2.9056664E0,1.9997717E0,2.4101987E0,3.93569E0,5.7680044E0,1.2529373E-1,2.6119282E0,2.6858702E0,4.74076E0,1.3358545E0,3.6658192E-1,1.8577337E-1,1.5497646E0,0E0,0E0,0E0,0E0,0E0,0E0,0E0,0E0,0E0,0E0,0E0,0E0,0E0,0E0,0E0,0E0],"parents":[2147483647,0,0,1,1,2,2,3,3,4,4,5,5,6,6,7,7,8,8,9,9,10,10,11,11,12,12,13,13,14,14],"right_children":[2,4,6,8,10,12,14,16,18,20,22,24,26,28,30,-1,-1,-1,-1,-1,-1,-1,-1,-1,-1,-1,-1,-1,-1,-1,-1],"split_conditions":[7.8E2,4.8108637E-1,9.795894E-1,1.8E2,8.281339E-1,9.687513E-1,9.949314E-1,2.7965242E-1,4E0,3E0,8.472852E-1,8.0235916E-1,2E0,4E0,2E0,-1.339485E-2,-5.0630856E-2,7.3908204E-3,-3.9705712E-2,3.755742E-5,1.733335E-2,-3.2821927E-2,2.5917448E-3,-1.1815113E-2,-1.43957E-3,-1.5591244E-2,-6.837354E-2,2.6927093E-2,6.326866E-2,-2.7219528E-2,6.700188E-4],"split_indices":[4,1,1,4,1,1,1,1,5,5,1,1,5,5,5,0,0,0,0,0,0,0,0,0,0,0,0,0,0,0,0],"split_type":[0,0,0,0,0,0,0,0,0,0,0,0,0,0,0,0,0,0,0,0,0,0,0,0,0,0,0,0,0,0,0],"sum_hessian":[5.268159E2,3.0817172E2,2.1864418E2,1.7058195E1,2.9111353E2,1.313075E2,8.733668E1,3.6842399E0,1.3373956E1,9.319821E1,1.9791531E2,1.2810638E2,3.2011197E0,5.6607385E0,8.167594E1,1.2403177E0,2.4439223E0,1.0382486E1,2.9914691E0,3.6916855E1,5.6281353E1,8.945651E0,1.8896967E2,7.53101E1,5.279628E1,1.2031132E0,1.9980063E0,3.6749594E0,1.985779E0,4.3210254E0,7.735491E1],"tree_param":{"num_deleted":"0","num_feature":"6","num_nodes":"31","size_leaf_vector":"1"}},{"base_weights":[-1.8372508E-2,-8.01139E-3,-3.9994645E-1,-2.1587934E-2,7.6850986E-1,-8.80023E-1,-8.214318E-2,-9.027363E-3,-3.451259E-1,3.042773E-1,5.5066258E-2,-5.7547208E-2,2.2165093E-3,3.005755E-1,-6.359014E-2,-9.215657E-4,3.679755E-2,-2.2553016E-2,1.1090088E-2,-1.0097361E-2,2.8730288E-2,5.427843E-2,-5.5577084E-3],"categories":[],"categories_nodes":[],"categories_segments":[],"categories_sizes":[],"default_left":[0,0,0,0,0,0,0,0,0,0,0,0,0,0,0,0,0,0,0,0,0,0,0],"id":54,"left_children":[1,3,5,7,9,11,13,15,17,19,-1,-1,-1,21,-1,-1,-1,-1,-1,-1,-1,-1,-1],"loss_changes":[2.073056E0,5.4175334E0,2.042749E0,2.046971E0,1.0292239E0,1.4080119E0,4.682185E0,3.4228835E0,1.2306898E0,8.097148E-1,0E0,0E0,0E0,2.691496E0,0E0,0E0,0E0,0E0,0E0,0E0,0E0,0E0,0E0],"parents":[2147483647,0,0,1,1,2,2,3,3,4,4,5,5,6,6,7,7,8,8,9,9,13,13],"right_children":[2,4,6,8,10,12,14,16,18,20,-1,-1,-1,22,-1,-1,-1,-1,-1,-1,-1,-1,-1],"split_conditions":[9.3378174E-1,8.3003527E-1,1.0010827E0,5.8635485E-1,4E0,7.8E2,1.14E3,5.5259514E-1,1.2E3,8.820243E-1,5.5066258E-2,-5.7547208E-2,2.2165093E-3,2E0,-6.359014E-2,-9.215657E-4,3.679755E-2,-2.2553016E-2,1.1090088E-2,-1.0097361E-2,2.8730288E-2,5.427843E-2,-5.5577084E-3],"split_indices":[0,0,0,0,5,4,4,0,4,0,0,0,0,5,0,0,0,0,0,0,0,0,0],"split_type":[0,0,0,0,0,0,0,0,0,0,0,0,0,0,0,0,0,0,0,0,0,0,0],"sum_hessian":[5.241658E2,5.1130304E2,1.2862739E1,5.0347263E2,7.830417E0,4.418711E0,8.444027E0,4.856465E2,1.7826138E1,4.0689845E0,3.7614326E0,3.227593E0,1.1911184E0,6.9541802E0,1.4898468E0,4.8055563E2,5.0908513E0,1.5191818E1,2.634319E0,1.5045252E0,2.564459E0,1.8294992E0,5.124681E0],"tree_param":{"num_deleted":"0","num_feature":"6","num_nodes":"23","size_leaf_vector":"1"}},{"base_weights":[-6.201631E-3,-5.920824E-1,3.713097E-3,1.1563257E-2,-8.657869E-1,