{"learner":{"attributes":{"scikit_learn":"{\"_estimator_type\": \"regressor\"}"},"feature_names":["atr14_m15_pct","rvol15","ret_15m","usd_basket_d1h_pct","tod_min","dow"],"feature_types":["float","float","float","float","float","float"],"gradient_booster":{"model":{"cats":{"enc":[],"feature_segments":[],"sorted_idx":[]},"gbtree_model_param":{"num_parallel_tree":"1","num_trees":"300"},"iteration_indptr":[0,1,2,3,4,5,6,7,8,9,10,11,12,13,14,15,16,17,18,19,20,21,22,23,24,25,26,27,28,29,30,31,32,33,34,35,36,37,38,39,40,41,42,43,44,45,46,47,48,49,50,51,52,53,54,55,56,57,58,59,60,61,62,63,64,65,66,67,68,69,70,71,72,73,74,75,76,77,78,79,80,81,82,83,84,85,86,87,88,89,90,91,92,93,94,95,96,97,98,99,100,101,102,103,104,105,106,107,108,109,110,111,112,113,114,115,116,117,118,119,120,121,122,123,124,125,126,127,128,129,130,131,132,133,134,135,136,137,138,139,140,141,142,143,144,145,146,147,148,149,150,151,152,153,154,155,156,157,158,159,160,161,162,163,164,165,166,167,168,169,170,171,172,173,174,175,176,177,178,179,180,181,182,183,184,185,186,187,188,189,190,191,192,193,194,195,196,197,198,199,200,201,202,203,204,205,206,207,208,209,210,211,212,213,214,215,216,217,218,219,220,221,222,223,224,225,226,227,228,229,230,231,232,233,234,235,236,237,238,239,240,241,242,243,244,245,246,247,248,249,250,251,252,253,254,255,256,257,258,259,260,261,262,263,264,265,266,267,268,269,270,271,272,273,274,275,276,277,278,279,280,281,282,283,284,285,286,287,288,289,290,291,292,293,294,295,296,297,298,299,300],"tree_info":[0,0,0,0,0,0,0,0,0,0,0,0,0,0,0,0,0,0,0,0,0,0,0,0,0,0,0,0,0,0,0,0,0,0,0,0,0,0,0,0,0,0,0,0,0,0,0,0,0,0,0,0,0,0,0,0,0,0,0,0,0,0,0,0,0,0,0,0,0,0,0,0,0,0,0,0,0,0,0,0,0,0,0,0,0,0,0,0,0,0,0,0,0,0,0,0,0,0,0,0,0,0,0,0,0,0,0,0,0,0,0,0,0,0,0,0,0,0,0,0,0,0,0,0,0,0,0,0,0,0,0,0,0,0,0,0,0,0,0,0,0,0,0,0,0,0,0,0,0,0,0,0,0,0,0,0,0,0,0,0,0,0,0,0,0,0,0,0,0,0,0,0,0,0,0,0,0,0,0,0,0,0,0,0,0,0,0,0,0,0,0,0,0,0,0,0,0,0,0,0,0,0,0,0,0,0,0,0,0,0,0,0,0,0,0,0,0,0,0,0,0,0,0,0,0,0,0,0,0,0,0,0,0,0,0,0,0,0,0,0,0,0,0,0,0,0,0,0,0,0,0,0,0,0,0,0,0,0,0,0,0,0,0,0,0,0,0,0,0,0,0,0,0,0,0,0,0,0,0,0,0,0,0,0,0,0,0,0,0,0,0,0,0,0,0,0,0,0,0,0],"trees":[{"base_weights":[2.8996607E-3,5.08666E-2,-2.3719865E-1,-2.2478241E-2,6.971368E-2,2.0486109E-2,-3.4663424E-2,-9.308007E-2,2.4457684E-2,4.264946E-2,8.0922E-2,-1.13387614E-1,6.1743935E-3,-5.968505E-3,-1.7881676E-3,2.1571675E-3,-1.0533107E-3,3.35512E-3,-3.8764887E-3,4.409302E-3,1.3482311E-3,-8.473641E-3,-1.9100804E-3],"categories":[],"categories_nodes":[],"categories_segments":[],"categories_sizes":[],"default_left":[0,0,0,0,0,0,0,0,0,0,0,0,0,0,0,0,0,0,0,0,0,0,0],"id":0,"left_children":[1,3,5,7,9,11,-1,13,15,17,19,21,-1,-1,-1,-1,-1,-1,-1,-1,-1,-1,-1],"loss_changes":[7.606563E-1,7.759552E-2,1.306947E0,4.204167E-2,9.895876E-3,1.2431582E-1,0E0,3.265217E-3,7.714023E-3,4.9283467E-2,9.380549E-3,1.0393154E-2,0E0,0E0,0E0,0E0,0E0,0E0,0E0,0E0,0E0,0E0,0E0],"parents":[2147483647,0,0,1,1,2,2,3,3,4,4,5,5,7,7,8,8,9,9,10,10,11,11],"right_children":[2,4,6,8,10,12,-1,14,16,18,20,22,-1,-1,-1,-1,-1,-1,-1,-1,-1,-1,-1],"split_conditions":[3.634E3,-2.5908247E-2,1.155E3,1.065E3,7.17E2,5.709E3,-3.4663424E-2,5.98E2,-3.179265E-2,2.50108E-2,6.3887104E-2,4.814E3,6.1743935E-3,-5.968505E-3,-1.7881676E-3,2.1571675E-3,-1.0533107E-3,3.35512E-3,-3.8764887E-3,4.409302E-3,1.3482311E-3,-8.473641E-3,-1.9100804E-3],"split_indices":[1,2,4,4,1,1,0,1,2,2,2,1,0,0,0,0,0,0,0,0,0,0,0],"split_type":[0,0,0,0,0,0,0,0,0,0,0,0,0,0,0,0,0,0,0,0,0,0,0],"sum_hessian":[6.4E1,5.4E1,1E1,1.1E1,4.3E1,7E0,3E0,4E0,7E0,1.4E1,2.9E1,3E0,4E0,2E0,2E0,5E0,2E0,1.2E1,2E0,2.5E1,4E0,1E0,2E0],"tree_param":{"num_deleted":"0","num_feature":"6","num_nodes":"23","size_leaf_vector":"1"}},{"base_weights":[2.618842E-2,1.1104953E-2,1.5819843E-1,4.599878E-2,-2.746169E-1,1.0230478E-2,7.22377E-2,-5.1281255E-2,6.292779E-2,-2.5173906E-2,2.2898536E-2,4.120486E-3,1.0430417E-3,-5.283171E-3,6.6785794E-4,1.484183E-3,4.063665E-3,-1.8464111E-3,5.0594704E-3],"categories":[],"categories_nodes":[],"categories_segments":[],"categories_sizes":[],"default_left":[0,0,0,0,0,0,0,0,0,0,0,0,0,0,0,0,0,0,0],"id":1,"left_children":[1,3,5,7,9,-1,11,13,15,-1,17,-1,-1,-1,-1,-1,-1,-1,-1],"loss_changes":[1.3563386E-1,6.4073753E-1,1.3146207E-2,9.709773E-2,4.881572E-1,0E0,3.7129037E-4,3.304795E-2,2.7471647E-2,0E0,2.24723E-2,0E0,0E0,0E0,0E0,0E0,0E0,0E0,0E0],"parents":[2147483647,0,0,1,1,2,2,3,3,4,4,6,6,7,7,8,8,10,10],"right_children":[2,4,6,8,10,-1,12,14,16,-1,18,-1,-1,-1,-1,-1,-1,-1,-1],"split_conditions":[6.3E3,2.0540951E-1,2.7195245E-1,-3.6279768E-2,2.6643115E-1,1.0230478E-2,6.994E3,6.64E2,7.17E2,-2.5173906E-2,2.7124575E-1,4.120486E-3,1.0430417E-3,-5.283171E-3,6.6785794E-4,1.484183E-3,4.063665E-3,-1.8464111E-3,5.0594704E-3],"split_indices":[1,0,0,2,0,0,1,1,1,0,0,0,0,0,0,0,0,0,0],"split_type":[0,0,0,0,0,0,0,0,0,0,0,0,0,0,0,0,0,0,0],"sum_hessian":[6.8E1,6.2E1,6E0,5.6E1,6E0,3E0,3E0,8E0,4.8E1,3E0,3E0,2E0,1E0,4E0,4E0,1.8E1,3E1,2E0,1E0],"tree_param":{"num_deleted":"0","num_feature":"6","num_nodes":"19","size_leaf_vector":"1"}},{"base_weights":[-1.29686035E-2,3.938286E-2,-2.4310684E-1,-3.1431362E-2,5.6582242E-2,9.340535E-2,-3.664525E-2,1.2677837E-2,-7.664092E-3,3.0272262E-2,7.8144304E-2,-1.2448653E-1,9.339186E-3,-3.8704474E-3,1.6807402E-3,-4.724805E-4,3.0425568E-3,4.1315337E-3,1.0345803E-3,-7.6324516E-3,-1.7040384E-3],"categories":[],"categories_nodes":[],"categories_segments":[],"categories_sizes":[],"default_left":[0,0,0,0,0,0,0,0,0,0,0,0,0,0,0,0,0,0,0,0,0],"id":2,"left_children":[1,3,5,7,9,11,-1,13,-1,15,17,19,-1,-1,-1,-1,-1,-1,-1,-1,-1],"loss_changes":[7.80651E-1,6.633039E-2,2.0463338E0,6.106527E-2,2.2028193E-2,1.8602318E-1,0E0,1.957738E-2,0E0,2.6082668E-2,4.2185634E-3,2.4357624E-3,0E0,0E0,0E0,0E0,0E0,0E0,0E0,0E0,0E0],"parents":[2147483647,0,0,1,1,2,2,3,3,4,4,5,5,7,7,9,9,10,10,11,11],"right_children":[2,4,6,8,10,12,-1,14,-1,16,18,20,-1,-1,-1,-1,-1,-1,-1,-1,-1],"split_conditions":[2.0540951E-1,1.035E3,1.155E3,5.1432196E-2,3.5657233E-3,5.523E3,-3.664525E-2,-8.883526E-2,-7.664092E-3,7.17E2,1.237E3,2.4932721E-1,9.339186E-3,-3.8704474E-3,1.6807402E-3,-4.724805E-4,3.0425568E-3,4.1315337E-3,1.0345803E-3,-7.6324516E-3,-1.7040384E-3],"split_indices":[0,4,4,0,2,1,0,2,0,1,1,0,0,0,0,0,0,0,0,0,0],"split_type":[0,0,0,0,0,0,0,0,0,0,0,0,0,0,0,0,0,0,0,0,0],"sum_hessian":[6.3E1,5.2E1,1.1E1,1E1,4.2E1,7E0,4E0,8E0,2E0,2E1,2.2E1,2E0,5E0,1E0,7E0,9E0,1.1E1,2E1,2E0,1E0,1E0],"tree_param":{"num_deleted":"0","num_feature":"6","num_nodes":"21","size_leaf_vector":"1"}},{"base_weights":[6.7371624E-3,4.337779E-2,-1.2650618E-1,-2.907759E-2,6.932914E-2,4.205334E-2,-3.2134905E-2,2.9670252E-2,-1.0884914E-1,-7.441641E-3,7.806712E-2,-6.6174837E-3,4.9969438E-3,5.664111E-4,3.4346122E-3,-6.9435886E-3,-1.126418E-3,2.9706575E-3,7.4959914E-3,3.209614E-3,-2.0459727E-3],"categories":[],"categories_nodes":[],"categories_segments":[],"categories_sizes":[],"default_left":[0,0,0,0,0,0,0,0,0,0,0,0,0,0,0,0,0,0,0,0,0],"id":3,"left_children":[1,3,5,7,9,11,-1,13,15,-1,17,19,-1,-1,-1,-1,-1,-1,-1,-1,-1],"loss_changes":[3.6188233E-1,1.110742E-1,1.4191725E0,7.821208E-2,9.3589544E-2,3.728672E-2,0E0,6.3792653E-3,1.501248E-2,0E0,4.7386974E-2,2.2058027E-2,0E0,0E0,0E0,0E0,0E0,0E0,0E0,0E0,0E0],"parents":[2147483647,0,0,1,1,2,2,3,3,4,4,5,5,7,7,8,8,10,10,11,11],"right_children":[2,4,6,8,10,12,-1,14,16,-1,18,20,-1,-1,-1,-1,-1,-1,-1,-1,-1],"split_conditions":[1.185E3,6.64E2,6.903521E-2,4.8E2,9.9E2,6.519301E-2,-3.2134905E-2,4.37E2,1.065E3,-7.441641E-3,5.709E3,3.9486974E-2,4.9969438E-3,5.664111E-4,3.4346122E-3,-6.9435886E-3,-1.126418E-3,2.9706575E-3,7.4959914E-3,3.209614E-3,-2.0459727E-3],"split_indices":[4,1,0,1,4,0,0,1,4,0,1,0,0,0,0,0,0,0,0,0,0],"split_type":[0,0,0,0,0,0,0,0,0,0,0,0,0,0,0,0,0,0,0,0,0],"sum_hessian":[7.2E1,5.7E1,1.5E1,1.5E1,4.2E1,1.2E1,3E0,9E0,6E0,1E0,4.1E1,7E0,5E0,7E0,2E0,4E0,2E0,3.4E1,7E0,2E0,5E0],"tree_param":{"num_deleted":"0","num_feature":"6","num_nodes":"21","size_leaf_vector":"1"}},{"base_weights":[7.8046615E-3,3.980597E-2,-1.20720886E-1,7.565637E-2,1.380414E-2,5.290344E-2,-3.0570684E-2,4.0194936E-2,9.309124E-2,-8.547853E-2,3.2574847E-2,-1.0240908E-1,1.4336084E-1,3.2379571E-3,1.339449E-4,-2.2243895E-4,4.9945246E-3,-7.1829255E-3,1.0293805E-3,-1.4452346E-3,2.2754779E-3,-6.522951E-3,-2.0111387E-3,8.368685E-3,2.377409E-3],"categories":[],"categories_nodes":[],"categories_segments":[],"categories_sizes":[],"default_left":[0,0,0,0,0,0,0,0,0,0,0,0,0,0,0,0,0,0,0,0,0,0,0,0,0],"id":4,"left_children":[1,3,5,7,9,11,-1,13,15,17,19,21,23,-1,-1,-1,-1,-1,-1,-1,-1,-1,-1,-1,-1],"loss_changes":[3.0916637E-1,5.4886185E-2,1.3102889E0,1.1714846E-2,6.9874264E-2,1.8327144E-1,0E0,9.042036E-3,1.1055574E-2,3.9983135E-2,2.5967255E-2,3.4741834E-3,1.0447562E-2,0E0,0E0,0E0,0E0,0E0,0E0,0E0,0E0,0E0,0E0,0E0,0E0],"parents":[2147483647,0,0,1,1,2,2,3,3,4,4,5,5,7,7,8,8,9,9,10,10,11,11,12,12],"right_children":[2,4,6,8,10,12,-1,14,16,18,20,22,24,-1,-1,-1,-1,-1,-1,-1,-1,-1,-1,-1,-1],"split_conditions":[1.529E3,4.541181E-2,1.155E3,3.5643198E-2,1.035E3,5.709E3,-3.0570684E-2,3.233609E-2,4.37E2,6.64E2,4.829894E-2,2.4932721E-1,2.757377E-1,3.2379571E-3,1.339449E-4,-2.2243895E-4,4.9945246E-3,-7.1829255E-3,1.0293805E-3,-1.4452346E-3,2.2754779E-3,-6.522951E-3,-2.0111387E-3,8.368685E-3,2.377409E-3],"split_indices":[1,0,4,0,4,1,0,0,1,1,0,0,0,0,0,0,0,0,0,0,0,0,0,0,0],"split_type":[0,0,0,0,0,0,0,0,0,0,0,0,0,0,0,0,0,0,0,0,0,0,0,0,0],"sum_hessian":[7.3E1,5.9E1,1.4E1,2.4E1,3.5E1,1.1E1,3E0,9E0,1.5E1,5E0,3E1,4E0,7E0,5E0,4E0,1E0,1.4E1,3E0,2E0,5E0,2.5E1,2E0,2E0,5E0,2E0],"tree_param":{"num_deleted":"0","num_feature":"6","num_nodes":"25","size_leaf_vector":"1"}},{"base_weights":[-5.028711E-3,3.691192E-2,-1.8741083E-1,-2.2316653E-2,5.1872317E-2,6.7847535E-2,-3.302227E-2,-5.573761E-3,1.5578439E-2,7.219931E-2,2.9470434E-2,-1.0008676E-1,7.7058743E-3,-8.9875347E-4,2.0471646E-3,1.9261189E-3,4.4367467E-3,-5.0453627E-3,1.9553655E-3,-7.0925257E-3,-1.9441005E-3],"categories":[],"categories_nodes":[],"categories_segments":[],"categories_sizes":[],"default_left":[0,0,0,0,0,0,0,0,0,0,0,0,0,0,0,0,0,0,0,0,0],"id":5,"left_children":[1,3,5,7,9,11,-1,-1,13,15,17,19,-1,-1,-1,-1,-1,-1,-1,-1,-1],"loss_changes":[5.729601E-1,5.5208683E-2,1.7352543E0,4.565935E-2,2.0185038E-2,1.6030197E-1,0E0,0E0,9.246757E-3,1.0503456E-2,3.5357043E-2,4.7091283E-3,0E0,0E0,0E0,0E0,0E0,0E0,0E0,0E0,0E0],"parents":[2147483647,0,0,1,1,2,2,3,3,4,4,5,5,8,8,9,9,10,10,11,11],"right_children":[2,4,6,8,10,12,-1,-1,14,16,18,20,-1,-1,-1,-1,-1,-1,-1,-1,-1],"split_conditions":[6.9991454E-2,-2.5908247E-2,1.155E3,1.035E3,4.541181E-2,5.709E3,-3.302227E-2,-5.573761E-3,5.98E2,3.5643198E-2,1.02E3,2.4932721E-1,7.7058743E-3,-8.9875347E-4,2.0471646E-3,1.9261189E-3,4.4367467E-3,-5.0453627E-3,1.9553655E-3,-7.0925257E-3,-1.9441005E-3],"split_indices":[0,2,4,4,0,1,0,0,1,0,4,0,0,0,0,0,0,0,0,0,0],"split_type":[0,0,0,0,0,0,0,0,0,0,0,0,0,0,0,0,0,0,0,0,0],"sum_hessian":[7.3E1,6E1,1.3E1,1.2E1,4.8E1,9E0,4E0,3E0,9E0,2.4E1,2.4E1,3E0,6E0,4E0,5E0,9E0,1.5E1,1E0,2.3E1,1E0,2E0],"tree_param":{"num_deleted":"0","num_feature":"6","num_nodes":"21","size_leaf_vector":"1"}},{"base_weights":[8.4058335E-3,4.284457E-2,-1.1265512E-1,2.7611198E-2,1.3079342E-1,3.700976E-2,-2.8545111E-2,4.0697142E-2,-9.568454E-2,7.6989117E-3,4.0825993E-2,-9.034452E-3,4.6116877E-3,-3.225696E-4,3.224323E-3,-6.0944143E-3,-1.8792972E-3,3.4400416E-4,2.7179453E-3,2.788251E-3,-1.9964224E-3],"categories":[],"categories_nodes":[],"categories_segments":[],"categories_sizes":[],"default_left":[0,0,0,0,0,0,0,0,0,0,0,0,0,0,0,0,0,0,0,0,0],"id":6,"left_children":[1,3,5,7,9,11,-1,13,15,-1,17,19,-1,-1,-1,-1,-1,-1,-1,-1,-1],"loss_changes":[3.0083892E-1,7.141505E-2,1.1184648E0,8.295271E-2,1.04007125E-2,3.388897E-2,0E0,5.0889432E-2,3.030721E-3,0E0,1.0041678E-3,1.8241929E-2,0E0,0E0,0E0,0E0,0E0,0E0,0E0,0E0,0E0],"parents":[2147483647,0,0,1,1,2,2,3,3,4,4,5,5,7,7,8,8,10,10,11,11],"right_children":[2,4,6,8,10,12,-1,14,16,-1,18,20,-1,-1,-1,-1,-1,-1,-1,-1,-1],"split_conditions":[1.185E3,5.709E3,6.903521E-2,1.529E3,2.757377E-1,6.519301E-2,-2.8545111E-2,6.64E2,2.4932721E-1,7.6989117E-3,2.8101847E-1,3.9486974E-2,4.6116877E-3,-3.225696E-4,3.224323E-3,-6.0944143E-3,-1.8792972E-3,3.4400416E-4,2.7179453E-3,2.788251E-3,-1.9964224E-3],"split_indices":[4,1,0,1,0,0,0,1,0,0,0,0,0,0,0,0,0,0,0,0,0],"split_type":[0,0,0,0,0,0,0,0,0,0,0,0,0,0,0,0,0,0,0,0,0],"sum_hessian":[7E1,5.5E1,1.5E1,4.8E1,7E0,1.2E1,3E0,4.4E1,4E0,5E0,2E0,7E0,5E0,1.5E1,2.9E1,2E0,2E0,1E0,1E0,2E0,5E0],"tree_param":{"num_deleted":"0","num_feature":"6","num_nodes":"21","size_leaf_vector":"1"}},{"base_weights":[-9.799822E-3,3.3818465E-2,-2.1980488E-1,-2.1156317E-2,5.0170206E-2,-4.7792155E-1,3.2838676E-2,-5.3892676E-2,1.9278998E-2,7.168906E-2,2.6470039E-2,-3.0826235E-2,5.377352E-3,-1.816654E-3,6.7774E-2,-4.0545505E-3,9.234105E-4,-1.5966333E-3,2.3075098E-3,8.8713784E-4,4.1056178E-3,-2.6665996E-3,2.0553472E-3,4.068173E-3,3.3540404E-4],"categories":[],"categories_nodes":[],"categories_segments":[],"categories_sizes":[],"default_left":[0,0,0,0,0,0,0,0,0,0,0,0,0,0,0,0,0,0,0,0,0,0,0,0,0],"id":7,"left_children":[1,3,5,7,9,11,13,15,17,19,21,-1,-1,-1,23,-1,-1,-1,-1,-1,-1,-1,-1,-1,-1],"loss_changes":[6.3947767E-1,5.3199552E-2,7.982326E-1,1.9570867E-2,2.105242E-2,5.531919E-1,1.9378198E-2,1.7242368E-2,1.110653E-2,1.1475936E-2,2.9057572E-2,0E0,0E0,0E0,3.6034714E-3,0E0,0E0,0E0,0E0,0E0,0E0,0E0,0E0,0E0,0E0],"parents":[2147483647,0,0,1,1,2,2,3,3,4,4,5,5,6,6,7,7,8,8,9,9,10,10,14,14],"right_children":[2,4,6,8,10,12,14,16,18,20,22,-1,-1,-1,24,-1,-1,-1,-1,-1,-1,-1,-1,-1,-1],"split_conditions":[2.0540951E-1,-2.5908247E-2,2.679197E-1,6.64E2,4.541181E-2,6.3E3,2.7124575E-1,6.651911E-2,4.829894E-2,4.37E2,4.7011323E-2,-3.0826235E-2,5.377352E-3,-1.816654E-3,6.994E3,-4.0545505E-3,9.234105E-4,-1.5966333E-3,2.3075098E-3,8.8713784E-4,4.1056178E-3,-2.6665996E-3,2.0553472E-3,4.068173E-3,3.3540404E-4],"split_indices":[0,2,0,1,0,1,0,0,0,1,0,0,0,0,1,0,0,0,0,0,0,0,0,0,0],"split_type":[0,0,0,0,0,0,0,0,0,0,0,0,0,0,0,0,0,0,0,0,0,0,0,0,0],"sum_hessian":[6.8E1,5.7E1,1.1E1,1.3E1,4.4E1,5E0,6E0,7E0,6E0,2.2E1,2.2E1,4E0,1E0,2E0,4E0,5E0,2E0,2E0,4E0,4E0,1.8E1,3E0,1.9E1,3E0,1E0],"tree_param":{"num_deleted":"0","num_feature":"6","num_nodes":"25","size_leaf_vector":"1"}},{"base_weights":[-1.4176291E-2,2.29737E-2,-1.5440117E-1,-3.708379E-2,3.814144E-2,5.848191E-2,-2.9593185E-2,4.463188E-2,-8.352061E-2,1.2159213E-2,6.1451852E-2,-8.626345E-2,1.2354435E-1,3.4287719E-3,2.9055157E-4,-6.3675554E-3,-3.926174E-4,5.2061998E-5,2.5987835E-3,2.373041E-3,4.1750656E-3,-5.992196E-3,-1.7560989E-3,7.2778533E-3,1.9168742E-3],"categories":[],"categories_nodes":[],"categories_segments":[],"categories_sizes":[],"default_left":[0,0,0,0,0,0,0,0,0,0,0,0,0,0,0,0,0,0,0,0,0,0,0,0,0],"id":8,"left_children":[1,3,5,7,9,11,-1,13,15,17,19,21,23,-1,-1,-1,-1,-1,-1,-1,-1,-1,-1,-1,-1],"loss_changes":[3.734112E-1,5.3337816E-2,1.4315389E0,4.9263068E-2,2.711299E-2,1.14249706E-1,0E0,4.249052E-3,2.5532607E-2,1.0127481E-2,3.4408271E-3,2.6602633E-3,9.424768E-3,0E0,0E0,0E0,0E0,0E0,0E0,0E0,0E0,0E0,0E0,0E0,0E0],"parents":[2147483647,0,0,1,1,2,2,3,3,4,4,5,5,7,7,8,8,9,9,10,10,11,11,12,12],"right_children":[2,4,6,8,10,12,-1,14,16,18,20,22,24,-1,-1,-1,-1,-1,-1,-1,-1,-1,-1,-1,-1],"split_conditions":[2.0540951E-1,1.035E3,1.155E3,3.194809E-2,3.5657233E-3,5.709E3,-2.9593185E-2,2.8707061E-2,6.64E2,6.76707E-2,1.17E3,2.4932721E-1,2.757377E-1,3.4287719E-3,2.9055157E-4,-6.3675554E-3,-3.926174E-4,5.2061998E-5,2.5987835E-3,2.373041E-3,4.1750656E-3,-5.992196E-3,-1.7560989E-3,7.2778533E-3,1.9168742E-3],"split_indices":[0,4,4,0,2,1,0,0,1,0,4,0,0,0,0,0,0,0,0,0,0,0,0,0,0],"split_type":[0,0,0,0,0,0,0,0,0,0,0,0,0,0,0,0,0,0,0,0,0,0,0,0,0],"sum_hessian":[7E1,5.6E1,1.4E1,1.1E1,4.5E1,1E1,4E0,4E0,7E0,2.2E1,2.3E1,3E0,7E0,2E0,2E0,4E0,3E0,1.8E1,4E0,1.6E1,7E0,1E0,2E0,5E0,2E0],"tree_param":{"num_deleted":"0","num_feature":"6","num_nodes":"25","size_leaf_vector":"1"}},{"base_weights":[-7.8027914E-3,2.9060844E-2,-1.5996623E-1,-3.170802E-3,5.0332233E-2,6.014185E-2,-2.8409457E-2,-3.0357787E-2,4.1724895E-3,6.3782096E-2,1.5188702E-2,-8.3887346E-2,6.692628E-3,2.000813E-3,-3.2958144E-3,3.4738246E-3,-5.678038E-5,-7.0648716E-4,2.6598393E-3,-5.8423914E-3,-1.6975623E-3],"categories":[],"categories_nodes":[],"categories_segments":[],"categories_sizes":[],"default_left":[0,0,0,0,0,0,0,0,0,0,0,0,0,0,0,0,0,0,0,0,0],"id":9,"left_children":[1,3,5,7,9,11,-1,13,-1,15,17,19,-1,-1,-1,-1,-1,-1,-1,-1,-1],"loss_changes":[4.0290886E-1,3.9925087E-2,1.2921162E0,5.9052218E-2,1.557488E-2,1.1739348E-1,0E0,5.0183237E-2,0E0,9.320572E-3,1.3009373E-2,2.6165433E-3,0E0,0E0,0E0,0E0,0E0,0E0,0E0,0E0,0E0],"parents":[2147483647,0,0,1,1,2,2,3,3,4,4,5,5,7,7,9,9,10,10,11,11],"right_children":[2,4,6,8,10,12,-1,14,-1,16,18,20,-1,-1,-1,-1,-1,-1,-1,-1,-1],"split_conditions":[6.9991454E-2,7.17E2,1.155E3,6.76707E-2,5.935845E-2,5.709E3,-2.8409457E-2,4.305503E-2,4.1724895E-3,1.529E3,6.519301E-2,2.4932721E-1,6.692628E-3,2.000813E-3,-3.2958144E-3,3.4738246E-3,-5.678038E-5,-7.0648716E-4,2.6598393E-3,-5.8423914E-3,-1.6975623E-3],"split_indices":[0,1,4,0,0,1,0,0,0,1,0,0,0,0,0,0,0,0,0,0,0],"split_type":[0,0,0,0,0,0,0,0,0,0,0,0,0,0,0,0,0,0,0,0,0],"sum_hessian":[7E1,5.7E1,1.3E1,2.3E1,3.4E1,9E0,4E0,1.8E1,5E0,2.4E1,1E1,3E0,6E0,6E0,1.2E1,2.2E1,2E0,6E0,4E0,1E0,2E0],"tree_param":{"num_deleted":"0","num_feature":"6","num_nodes":"21","size_leaf_vector":"1"}},{"base_weights":[-5.1960964E-3,2.9150542E-2,-1.5693149E-1,-3.0884266E-2,3.9927855E-2,5.302669E-2,-2.7273078E-2,-4.911977E-3,1.2016497E-2,5.9343368E-2,2.1813521E-2,-8.157797E-2,1.22368395E-1,-2.1426582E-3,1.4151818E-3,1.4378619E-3,3.737537E-3,-4.7209635E-3,1.4668405E-3,-5.6963316E-3,-1.6409768E-3,7.5878534E-3,1.6298908E-3],"categories":[],"categories_nodes":[],"categories_segments":[],"categories_sizes":[],"default_left":[0,0,0,0,0,0,0,0,0,0,0,0,0,0,0,0,0,0,0,0,0,0,0],"id":10,"left_children":[1,3,5,7,9,11,-1,-1,13,15,17,19,21,-1,-1,-1,-1,-1,-1,-1,-1,-1,-1],"loss_changes":[3.9544472E-1,4.1348007E-2,1.170975E0,3.0076418E-2,1.7345555E-2,1.03319734E-1,0E0,0E0,7.468587E-3,9.631671E-3,2.8129091E-2,2.570061E-3,1.352071E-2,0E0,0E0,0E0,0E0,0E0,0E0,0E0,0E0,0E0,0E0],"parents":[2147483647,0,0,1,1,2,2,3,3,4,4,5,5,8,8,9,9,10,10,11,11,12,12],"right_children":[2,4,6,8,10,12,-1,-1,14,16,18,20,22,-1,-1,-1,-1,-1,-1,-1,-1,-1,-1],"split_conditions":[2.0540951E-1,-3.6279768E-2,1.155E3,1.035E3,4.541181E-2,5.709E3,-2.7273078E-2,-4.911977E-3,-1.2629125E-1,3.5643198E-2,1.02E3,2.4932721E-1,2.757377E-1,-2.1426582E-3,1.4151818E-3,1.4378619E-3,3.737537E-3,-4.7209635E-3,1.4668405E-3,-5.6963316E-3,-1.6409768E-3,7.5878534E-3,1.6298908E-3],"split_indices":[0,2,4,4,0,1,0,0,2,0,4,0,0,0,0,0,0,0,0,0,0,0,0],"split_type":[0,0,0,0,0,0,0,0,0,0,0,0,0,0,0,0,0,0,0,0,0,0,0],"sum_hessian":[7.4E1,6.1E1,1.3E1,9E0,5.2E1,9E0,4E0,3E0,6E0,2.4E1,2.8E1,3E0,6E0,1E0,5E0,9E0,1.5E1,1E0,2.7E1,1E0,2E0,4E0,2E0],"tree_param":{"num_deleted":"0","num_feature":"6","num_nodes":"23","size_leaf_vector":"1"}},{"base_weights":[-1.1937094E-2,2.2140505E-2,-1.3836432E-1,-2.9904E-2,3.2742728E-2,-3.788877E-1,6.4083256E-2,-5.643036E-2,7.908429E-3,2.3862403E-2,4.0039266E-3,-4.733954E-1,4.70396E-3,-1.5862776E-3,9.598942E-2,-4.822274E-3,7.86663E-4,-1.5364074E-3,2.195443E-3,2.4738917E-3,-1.4446677E-4,-5.5539235E-3,-2.6182154E-2,5.773923E-3,1.5755611E-3],"categories":[],"categories_nodes":[],"categories_segments":[],"categories_sizes":[],"default_left":[0,0,0,0,0,0,0,0,0,0,0,0,0,0,0,0,0,0,0,0,0,0,0,0,0],"id":11,"left_children":[1,3,5,7,9,11,13,15,17,19,-1,21,-1,-1,23,-1,-1,-1,-1,-1,-1,-1,-1,-1,-1],"loss_changes":[3.04647E-1,3.187924E-2,7.54681E-1,1.0476534E-2,1.7845929E-2,3.5742974E-1,3.055735E-2,1.884322E-2,8.303905E-3,2.8238505E-2,0E0,5.1068068E-2,0E0,0E0,5.1574484E-3,0E0,0E0,0E0,0E0,0E0,0E0,0E0,0E0,0E0,0E0],"parents":[2147483647,0,0,1,1,2,2,3,3,4,4,5,5,6,6,7,7,8,8,9,9,11,11,14,14],"right_children":[2,4,6,8,10,12,14,16,18,20,-1,22,-1,-1,24,-1,-1,-1,-1,-1,-1,-1,-1,-1,-1],"split_conditions":[2.0540951E-1,-3.6279768E-2,2.679197E-1,6.64E2,6.693138E-2,6.3E3,5.709E3,6.651911E-2,4.829894E-2,4.541181E-2,4.0039266E-3,2.4932721E-1,4.70396E-3,-1.5862776E-3,2.757377E-1,-4.822274E-3,7.86663E-4,-1.5364074E-3,2.195443E-3,2.4738917E-3,-1.4446677E-4,-5.5539235E-3,-2.6182154E-2,5.773923E-3,1.5755611E-3],"split_indices":[0,2,0,1,0,1,1,0,0,0,0,0,0,0,0,0,0,0,0,0,0,0,0,0,0],"split_type":[0,0,0,0,0,0,0,0,0,0,0,0,0,0,0,0,0,0,0,0,0,0,0,0,0],"sum_hessian":[6.9E1,5.5E1,1.4E1,9E0,4.6E1,6E0,8E0,5E0,4E0,4E1,6E0,5E0,1E0,2E0,6E0,3E0,2E0,2E0,2E0,2E1,2E1,1E0,4E0,4E0,2E0],"tree_param":{"num_deleted":"0","num_feature":"6","num_nodes":"25","size_leaf_vector":"1"}},{"base_weights":[-3.8555951E-3,3.077915E-2,-1.4459309E-1,-1.7672677E-2,4.2749643E-2,4.891836E-2,-2.5134867E-2,-4.3261475E-3,4.749675E-3,2.4344936E-2,6.1720923E-2,-7.7151775E-2,1.139701E-1,-1.9685347E-3,7.01323E-4,2.9333876E-3,-1.2240636E-4,3.468059E-5,3.3894486E-3,-5.4150755E-3,-1.5334018E-3,7.0640817E-3,1.5230423E-3],"categories":[],"categories_nodes":[],"categories_segments":[],"categories_sizes":[],"default_left":[0,0,0,0,0,0,0,0,0,0,0,0,0,0,0,0,0,0,0,0,0,0,0],"id":12,"left_children":[1,3,5,7,9,11,-1,-1,13,15,17,19,21,-1,-1,-1,-1,-1,-1,-1,-1,-1,-1],"loss_changes":[3.4565896E-1,3.3815064E-2,9.94753E-1,1.8936375E-2,1.4558807E-2,9.080382E-2,0E0,0E0,4.6451828E-3,2.3133958E-2,8.099951E-3,2.47043E-3,1.1661813E-2,0E0,0E0,0E0,0E0,0E0,0E0,0E0,0E0,0E0,0E0],"parents":[2147483647,0,0,1,1,2,2,3,3,4,4,5,5,8,8,9,9,10,10,11,11,12,12],"right_children":[2,4,6,8,10,12,-1,-1,14,16,18,20,22,-1,-1,-1,-1,-1,-1,-1,-1,-1,-1],"split_conditions":[2.0540951E-1,-2.5908247E-2,1.155E3,1.035E3,8.43E2,5.709E3,-2.5134867E-2,-4.3261475E-3,-1.2629125E-1,4.2361226E-2,3.194809E-2,2.4932721E-1,2.757377E-1,-1.9685347E-3,7.01323E-4,2.9333876E-3,-1.2240636E-4,3.468059E-5,3.3894486E-3,-5.4150755E-3,-1.5334018E-3,7.0640817E-3,1.5230423E-3],"split_indices":[0,2,4,4,1,1,0,0,2,0,0,0,0,0,0,0,0,0,0,0,0,0,0],"split_type":[0,0,0,0,0,0,0,0,0,0,0,0,0,0,0,0,0,0,0,0,0,0,0],"sum_hessian":[6.9E1,5.6E1,1.3E1,1.1E1,4.5E1,9E0,4E0,2E0,9E0,2.4E1,2.1E1,3E0,6E0,1E0,8E0,1E1,1.4E1,2E0,1.9E1,1E0,2E0,4E0,2E0],"tree_param":{"num_deleted":"0","num_feature":"6","num_nodes":"23","size_leaf_vector":"1"}},{"base_weights":[-1.2348319E-2,2.4291765E-2,-1.7205113E-1,-2.2945715E-2,3.6086503E-2,1.9586986E-2,-2.4129476E-2,-4.4257855E-3,8.746027E-3,5.1826637E-2,1.6559696E-2,-5.2796984E-3,4.843385E-2,-1.9193214E-3,9.717943E-4,1.1519768E-3,3.3289704E-3,-4.596268E-3,1.3051525E-3,5.569007E-3,4.4441983E-4],"categories":[],"categories_nodes":[],"categories_segments":[],"categories_sizes":[],"default_left":[0,0,0,0,0,0,0,0,0,0,0,0,0,0,0,0,0,0,0,0,0],"id":13,"left_children":[1,3,5,7,9,11,-1,-1,13,15,17,-1,19,-1,-1,-1,-1,-1,-1,-1,-1],"loss_changes":[4.0793458E-1,3.25858E-2,7.830955E-1,2.5710486E-2,1.3280075E-2,3.7614025E-2,0E0,0E0,5.2806283E-3,9.0832785E-3,2.5176376E-2,0E0,1.8923925E-2,0E0,0E0,0E0,0E0,0E0,0E0,0E0,0E0],"parents":[2147483647,0,0,1,1,2,2,3,3,4,4,5,5,8,8,9,9,10,10,12,12],"right_children":[2,4,6,8,10,12,-1,-1,14,16,18,-1,20,-1,-1,-1,-1,-1,-1,-1,-1],"split_conditions":[2.0540951E-1,-2.5908247E-2,1.155E3,1.035E3,4.541181E-2,2.4932721E-1,-2.4129476E-2,-4.4257855E-3,-1.2629125E-1,3.5643198E-2,1.02E3,-5.2796984E-3,2.6869828E-1,-1.9193214E-3,9.717943E-4,1.1519768E-3,3.3289704E-3,-4.596268E-3,1.3051525E-3,5.569007E-3,4.4441983E-4],"split_indices":[0,2,4,4,0,0,0,0,2,0,4,0,0,0,0,0,0,0,0,0,0],"split_type":[0,0,0,0,0,0,0,0,0,0,0,0,0,0,0,0,0,0,0,0,0],"sum_hessian":[6.8E1,5.6E1,1.2E1,1.1E1,4.5E1,8E0,4E0,3E0,8E0,2.4E1,2.1E1,1E0,7E0,1E0,7E0,9E0,1.5E1,1E0,2E1,2E0,5E0],"tree_param":{"num_deleted":"0","num_feature":"6","num_nodes":"21","size_leaf_vector":"1"}},{"base_weights":[-1.7497654E-3,2.7487213E-2,-1.4535244E-1,-3.5118565E-2,3.267888E-2,7.1525045E-2,-2.3164297E-2,-2.8929E-3,-6.7293644E-4,2.626532E-2,3.6452697E-3,-5.147706E-3,1.1115837E-1,-1.6428905E-3,1.5924203E-3,-3.32882E-4,2.1214855E-3,6.854041E-3,2.8723169E-3],"categories":[],"categories_nodes":[],"categories_segments":[],"categories_sizes":[],"default_left":[0,0,0,0,0,0,0,0,0,0,0,0,0,0,0,0,0,0,0],"id":14,"left_children":[1,3,5,7,9,11,-1,-1,13,15,-1,-1,17,-1,-1,-1,-1,-1,-1],"loss_changes":[2.9789093E-1,2.0324308E-2,8.605678E-1,3.8774372E-3,1.2274854E-2,6.676573E-2,0E0,0E0,4.1865543E-3,2.6359286E-2,0E0,0E0,1.871638E-3,0E0,0E0,0E0,0E0,0E0,0E0],"parents":[2147483647,0,0,1,1,2,2,3,3,4,4,5,5,8,8,9,9,12,12],"right_children":[2,4,6,8,10,12,-1,-1,14,16,-1,-1,18,-1,-1,-1,-1,-1,-1],"split_conditions":[6.9991454E-2,-8.883526E-2,1.155E3,6.64E2,6.76707E-2,2.4932721E-1,-2.3164297E-2,-2.8929E-3,4.2283E-2,7.17E2,3.6452697E-3,-5.147706E-3,2.7195245E-1,-1.6428905E-3,1.5924203E-3,-3.32882E-4,2.1214855E-3,6.854041E-3,2.8723169E-3],"split_indices":[0,2,4,1,0,0,0,0,0,1,0,0,0,0,0,0,0,0,0],"split_type":[0,0,0,0,0,0,0,0,0,0,0,0,0,0,0,0,0,0,0],"sum_hessian":[6.9E1,5.8E1,1.1E1,4E0,5.4E1,7E0,4E0,2E0,2E0,4.8E1,6E0,1E0,6E0,1E0,1E0,1.6E1,3.2E1,3E0,3E0],"tree_param":{"num_deleted":"0","num_feature":"6","num_nodes":"19","size_leaf_vector":"1"}},{"base_weights":[-1.1479408E-2,1.990951E-2,-1.4294131E-1,-1.1029392E-2,3.4881223E-2,2.22594E-2,-2.2237724E-2,-4.19896E-3,6.784057E-3,2.7071843E-2,3.7311201E-3,-5.019013E-3,4.703939E-2,1.0360834E-3,-2.1846802E-3,2.3916485E-3,-3.7432445E-4,5.1549054E-3,8.147156E-4],"categories":[],"categories_nodes":[],"categories_segments":[],"categories_sizes":[],"default_left":[0,0,0,0,0,0,0,0,0,0,0,0,0,0,0,0,0,0,0],"id":15,"left_children":[1,3,5,7,9,11,-1,-1,13,15,-1,-1,17,-1,-1,-1,-1,-1,-1],"loss_changes":[2.9995006E-1,2.7714014E-2,7.079365E-1,2.655947E-2,1.0393992E-2,3.5111923E-2,0E0,0E0,1.2865551E-2,2.5469547E-2,0E0,0E0,1.3831856E-2,0E0,0E0,0E0,0E0,0E0,0E0],"parents":[2147483647,0,0,1,1,2,2,3,3,4,4,5,5,8,8,9,9,12,12],"right_children":[2,4,6,8,10,12,-1,-1,14,16,-1,-1,18,-1,-1,-1,-1,-1,-1],"split_conditions":[2.0540951E-1,-1.0110713E-2,1.155E3,1.035E3,6.693138E-2,2.4932721E-1,-2.2237724E-2,-4.19896E-3,-1.6650395E-2,4.541181E-2,3.7311201E-3,-5.019013E-3,2.6869828E-1,1.0360834E-3,-2.1846802E-3,2.3916485E-3,-3.7432445E-4,5.1549054E-3,8.147156E-4],"split_indices":[0,2,4,4,0,0,0,0,2,0,0,0,0,0,0,0,0,0,0],"split_type":[0,0,0,0,0,0,0,0,0,0,0,0,0,0,0,0,0,0,0],"sum_hessian":[7.1E1,5.8E1,1.3E1,1.9E1,3.9E1,9E0,4E0,3E0,1.6E1,3.4E1,5E0,1E0,8E0,1.3E1,3E0,2.1E1,1.3E1,2E0,6E0],"tree_param":{"num_deleted":"0","num_feature":"6","num_nodes":"19","size_leaf_vector":"1"}},{"base_weights":[-6.372597E-3,2.3483E-2,-1.2320726E-1,-1.8117461E-2,3.4294877E-2,4.099197E-2,-2.1348214E-2,-4.041499E-3,1.1767818E-2,8.450246E-2,2.5691276E-2,6.13224E-3,-1.1522785E-2,1.0912465E-3,-7.8106916E-4,4.9383244E-3,3.2955848E-4,-4.4636806E-3,1.5532988E-3,-3.9871554E-3,1.5856986E-3],"categories":[],"categories_nodes":[],"categories_segments":[],"categories_sizes":[],"default_left":[0,0,0,0,0,0,0,0,0,0,0,0,0,0,0,0,0,0,0,0,0],"id":16,"left_children":[1,3,5,7,9,11,-1,-1,13,15,17,-1,19,-1,-1,-1,-1,-1,-1,-1,-1],"loss_changes":[2.4008875E-1,2.5359184E-2,7.157755E-1,2.3441363E-2,1.6835522E-2,4.4292994E-2,0E0,0E0,2.8200417E-3,6.0169846E-3,2.6871528E-2,0E0,2.3176348E-2,0E0,0E0,0E0,0E0,0E0,0E0,0E0,0E0],"parents":[2147483647,0,0,1,1,2,2,3,3,4,4,5,5,8,8,9,9,10,10,12,12],"right_children":[2,4,6,8,10,12,-1,-1,14,16,18,-1,20,-1,-1,-1,-1,-1,-1,-1,-1],"split_conditions":[2.0540951E-1,-2.5908247E-2,1.155E3,1.035E3,1.005E3,-1.2846185E-1,-2.1348214E-2,-4.041499E-3,-3.179265E-2,1.2639669E-2,1.02E3,6.13224E-3,1.7171215E-3,1.0912465E-3,-7.8106916E-4,4.9383244E-3,3.2955848E-4,-4.4636806E-3,1.5532988E-3,-3.9871554E-3,1.5856986E-3],"split_indices":[0,2,4,4,4,2,0,0,2,2,4,0,2,0,0,0,0,0,0,0,0],"split_type":[0,0,0,0,0,0,0,0,0,0,0,0,0,0,0,0,0,0,0,0,0],"sum_hessian":[6.7E1,5.4E1,1.3E1,1.1E1,4.3E1,9E0,4E0,3E0,8E0,5E0,3.8E1,3E0,6E0,6E0,2E0,4E0,1E0,1E0,3.7E1,2E0,4E0],"tree_param":{"num_deleted":"0","num_feature":"6","num_nodes":"21","size_leaf_vector":"1"}},{"base_weights":[1.4809137E-3,1.7393593E-2,-9.255198E-2,4.149126E-2,1.9438646E-3,-1.7762626E-2,7.0784315E-2,-1.3958067E-3,4.5915056E-2,-8.195721E-2,2.0826563E-2,5.8351043E-3,2.9076792E-2,8.493921E-4,3.2317415E-3,-6.053172E-3,3.817004E-3,-3.590254E-5,2.53564E-3,-9.87517E-4,2.311058E-3],"categories":[],"categories_nodes":[],"categories_segments":[],"categories_sizes":[],"default_left":[0,0,0,0,0,0,0,0,0,0,0,0,0,0,0,0,0,0,0,0,0],"id":17,"left_children":[1,3,5,7,9,-1,11,-1,13,15,17,-1,19,-1,-1,-1,-1,-1,-1,-1,-1],"loss_changes":[1.0335924E-1,2.1885188E-2,4.5423162E-1,8.343782E-3,6.0325198E-2,0E0,1.0012493E-2,0E0,1.0815233E-2,5.257486E-2,1.9996926E-2,0E0,5.098434E-3,0E0,0E0,0E0,0E0,0E0,0E0,0E0,0E0],"parents":[2147483647,0,0,1,1,2,2,3,3,4,4,6,6,8,8,9,9,10,10,12,12],"right_children":[2,4,6,8,10,-1,12,-1,14,16,18,-1,20,-1,-1,-1,-1,-1,-1,-1,-1],"split_conditions":[2.5843683E-1,4.541181E-2,2.679197E-1,-1.1564181E-1,1.035E3,-1.7762626E-2,1.05E3,-1.3958067E-3,3.5643198E-2,2.4932721E-1,3.5657233E-3,5.8351043E-3,2.687115E-1,8.493921E-4,3.2317415E-3,-6.053172E-3,3.817004E-3,-3.590254E-5,2.53564E-3,-9.87517E-4,2.311058E-3],"split_indices":[0,0,0,2,4,0,4,0,0,0,2,0,0,0,0,0,0,0,0,0,0],"split_type":[0,0,0,0,0,0,0,0,0,0,0,0,0,0,0,0,0,0,0,0,0],"sum_hessian":[6.7E1,5.8E1,9E0,2.2E1,3.6E1,3E0,6E0,1E0,2.1E1,6E0,3E1,2E0,4E0,9E0,1.2E1,5E0,1E0,1.8E1,1.2E1,1E0,3E0],"tree_param":{"num_deleted":"0","num_feature":"6","num_nodes":"21","size_leaf_vector":"1"}},{"base_weights":[-2.5703136E-3,1.9550683E-2,-1.0743085E-1,-1.5886698E-2,3.038188E-2,1.1213052E-2,-1.7376097E-2,-3.7211657E-3,6.843589E-3,3.967921E-2,5.159077E-3,-4.64253E-3,3.582733E-2,-1.8513016E-3,7.466577E-4,3.4972464E-3,1.1371376E-3,-2.800572E-3,1.9284732E-3,4.6935743E-3,4.1701715E-5],"categories":[],"categories_nodes":[],"categories_segments":[],"categories_sizes":[],"default_left":[0,0,0,0,0,0,0,0,0,0,0,0,0,0,0,0,0,0,0,0,0],"id":18,"left_children":[1,3,5,7,9,11,-1,-1,13,15,17,-1,19,-1,-1,-1,-1,-1,-1,-1,-1],"loss_changes":[1.5983449E-1,2.2360934E-2,3.457209E-1,1.9137079E-2,1.01135E-2,2.6379658E-2,0E0,0E0,4.4566635E-3,1.4812268E-2,2.8728832E-2,0E0,1.617096E-2,0E0,0E0,0E0,0E0,0E0,0E0,0E0,0E0],"parents":[2147483647,0,0,1,1,2,2,3,3,4,4,5,5,8,8,9,9,10,10,12,12],"right_children":[2,4,6,8,10,12,-1,-1,14,16,18,-1,20,-1,-1,-1,-1,-1,-1,-1,-1],"split_conditions":[2.0540951E-1,-2.5908247E-2,1.155E3,1.035E3,2.6427062E-2,2.4932721E-1,-1.7376097E-2,-3.7211657E-3,-1.2629125E-1,1.095E3,1.035E3,-4.64253E-3,2.6869828E-1,-1.8513016E-3,7.466577E-4,3.4972464E-3,1.1371376E-3,-2.800572E-3,1.9284732E-3,4.6935743E-3,4.1701715E-5],"split_indices":[0,2,4,4,2,0,0,0,2,4,4,0,0,0,0,0,0,0,0,0,0],"split_type":[0,0,0,0,0,0,0,0,0,0,0,0,0,0,0,0,0,0,0,0,0],"sum_hessian":[6.7E1,5.6E1,1.1E1,1.3E1,4.3E1,8E0,3E0,3E0,1E1,3.1E1,1.2E1,1E0,7E0,1E0,9E0,1E1,2.1E1,4E0,8E0,2E0,5E0],"tree_param":{"num_deleted":"0","num_feature":"6","num_nodes":"21","size_leaf_vector":"1"}},{"base_weights":[-8.866525E-3,2.087229E-2,-9.428608E-2,9.288891E-3,8.3419874E-2,1.6573034E-2,-1.929172E-2,2.3198955E-2,-4.171623E-2,5.9733796E-3,3.789773E-2,-1.089954E-2,2.750986E-3,-1.0359836E-3,2.446169E-3,-9.423893E-4,-3.5653475E-3,2.4726975E-3,-2.0817872E-4,1.3454069E-3,-1.2772876E-3],"categories":[],"categories_nodes":[],"categories_segments":[],"categories_sizes":[],"default_left":[0,0,0,0,0,0,0,0,0,0,0,0,0,0,0,0,0,0,0,0,0],"id":19,"left_children":[1,3,5,7,9,11,-1,13,15,-1,17,19,-1,-1,-1,-1,-1,-1,-1,-1,-1],"loss_changes":[1.7724702E-1,3.6899835E-2,5.8816856E-1,3.2894574E-2,8.600201E-3,1.5386903E-2,0E0,4.168581E-2,5.422961E-3,0E0,2.6362534E-3,5.6710425E-3,0E0,0E0,0E0,0E0,0E0,0E0,0E0,0E0,0E0],"parents":[2147483647,0,0,1,1,2,2,3,3,4,4,5,5,7,7,8,8,10,10,11,11],"right_children":[2,4,6,8,10,12,-1,14,16,-1,18,20,-1,-1,-1,-1,-1,-1,-1,-1,-1],"split_conditions":[1.17E3,5.709E3,1.099E3,1.266E3,1.05E3,3.5657233E-3,-1.929172E-2,6.64E2,3.634E3,5.9733796E-3,6.994E3,5.41E2,2.750986E-3,-1.0359836E-3,2.446169E-3,-9.423893E-4,-3.5653475E-3,2.4726975E-3,-2.0817872E-4,1.3454069E-3,-1.2772876E-3],"split_indices":[4,1,1,1,4,2,0,1,1,0,1,1,0,0,0,0,0,0,0,0,0],"split_type":[0,0,0,0,0,0,0,0,0,0,0,0,0,0,0,0,0,0,0,0,0],"sum_hessian":[6.8E1,5.1E1,1.7E1,4.4E1,7E0,1.3E1,4E0,3.5E1,9E0,3E0,4E0,8E0,5E0,1.3E1,2.2E1,6E0,3E0,3E0,1E0,2E0,6E0],"tree_param":{"num_deleted":"0","num_feature":"6","num_nodes":"21","size_leaf_vector":"1"}},{"base_weights":[-3.3678522E-3,1.6922861E-2,-9.0087496E-2,-4.381357E-3,3.124738E-2,3.342702E-2,-2.0361526E-2,-2.5671946E-2,5.403329E-2,4.188885E-2,3.2541393E-3,-6.8632945E-2,8.027862E-2,1.8288987E-3,-2.8608183E-3,3.2205265E-3,-2.057543E-4,1.3202457E-3,3.6713548E-3,-9.436787E-4,2.3348017E-3,-3.992371E-3,-8.7473774E-4,5.749378E-3,1.8227873E-3],"categories":[],"categories_nodes":[],"categories_segments":[],"categories_sizes":[],"default_left":[0,0,0,0,0,0,0,0,0,0,0,0,0,0,0,0,0,0,0,0,0,0,0,0,0],"id":20,"left_children":[1,3,5,7,9,11,-1,13,15,17,19,21,23,-1,-1,-1,-1,-1,-1,-1,-1,-1,-1,-1,-1],"loss_changes":[1.2997559E-1,1.8447263E-2,5.6201726E-1,3.2479197E-2,1.05877E-2,5.810816E-2,0E0,3.940197E-2,4.4889934E-3,1.07579045E-2,1.1455289E-2,8.970406E-4,7.976405E-3,0E0,0E0,0E0,0E0,0E0,0E0,0E0,0E0,0E0,0E0,0E0,0E0],"parents":[2147483647,0,0,1,1,2,2,3,3,4,4,5,5,7,7,8,8,9,9,10,10,11,11,12,12],"right_children":[2,4,6,8,10,12,-1,14,16,18,20,22,24,-1,-1,-1,-1,-1,-1,-1,-1,-1,-1,-1,-1],"split_conditions":[2.0540951E-1,7.17E2,1.155E3,6.76707E-2,5.935845E-2,5.709E3,-2.0361526E-2,4.2361226E-2,6.9991454E-2,4.829894E-2,6.5323636E-2,5.523E3,2.7195245E-1,1.8288987E-3,-2.8608183E-3,3.2205265E-3,-2.057543E-4,1.3202457E-3,3.6713548E-3,-9.436787E-4,2.3348017E-3,-3.992371E-3,-8.7473774E-4,5.749378E-3,1.8227873E-3],"split_indices":[0,1,4,0,0,1,0,0,0,0,0,1,0,0,0,0,0,0,0,0,0,0,0,0,0],"split_type":[0,0,0,0,0,0,0,0,0,0,0,0,0,0,0,0,0,0,0,0,0,0,0,0,0],"sum_hessian":[7.2E1,5.9E1,1.3E1,2.4E1,3.5E1,1E1,3E0,1.8E1,6E0,2.5E1,1E1,3E0,7E0,6E0,1.2E1,5E0,1E0,1.8E1,7E0,7E0,3E0,2E0,1E0,3E0,4E0],"tree_param":{"num_deleted":"0","num_feature":"6","num_nodes":"25","size_leaf_vector":"1"}},{"base_weights":[-5.7915747E-3,2.0840805E-2,-1.03057526E-1,-3.1220184E-3,3.8161647E-2,2.0426903E-2,-3.5411176E-1,2.9656084E-3,-1.8574463E-2,5.9334554E-2,1.8397463E-2,-6.335309E-2,7.735162E-2,-1.9597968E-2,-5.068034E-3,-3.1786484E-3,3.316171E-5,3.5318085E-3,1.8163773E-3,1.9305336E-3,2.5366523E-4,-3.5331335E-3,-8.528693E-4,5.5337767E-3,1.2344909E-3],"categories":[],"categories_nodes":[],"categories_segments":[],"categories_sizes":[],"default_left":[0,0,0,0,0,0,0,0,0,0,0,0,0,0,0,0,0,0,0,0,0,0,0,0,0],"id":21,"left_children":[1,3,5,7,9,11,13,-1,15,17,19,21,23,-1,-1,-1,-1,-1,-1,-1,-1,-1,-1,-1,-1],"loss_changes":[1.8088703E-1,2.2947237E-2,4.722528E-1,2.425595E-2,1.2299281E-2,5.736115E-2,8.100867E-3,0E0,1.7355513E-2,1.334209E-3,4.651948E-3,4.8669055E-4,9.551715E-3,0E0,0E0,0E0,0E0,0E0,0E0,0E0,0E0,0E0,0E0,0E0,0E0],"parents":[2147483647,0,0,1,1,2,2,3,3,4,4,5,5,6,6,8,8,9,9,10,10,11,11,12,12],"right_children":[2,4,6,8,10,12,14,-1,16,18,20,22,24,-1,-1,-1,-1,-1,-1,-1,-1,-1,-1,-1,-1],"split_conditions":[1.529E3,7.17E2,1.155E3,2.96E2,1.095E3,5.709E3,5.558E3,2.9656084E-3,1.035E3,2.6427062E-2,-1.6650395E-2,5.523E3,1.05E3,-1.9597968E-2,-5.068034E-3,-3.1786484E-3,3.316171E-5,3.5318085E-3,1.8163773E-3,1.9305336E-3,2.5366523E-4,-3.5331335E-3,-8.528693E-4,5.5337767E-3,1.2344909E-3],"split_indices":[1,1,4,1,4,1,1,0,4,2,2,1,4,0,0,0,0,0,0,0,0,0,0,0,0],"split_type":[0,0,0,0,0,0,0,0,0,0,0,0,0,0,0,0,0,0,0,0,0,0,0,0,0],"sum_hessian":[6.8E1,5.4E1,1.4E1,2.3E1,3.1E1,1E1,4E0,4E0,1.9E1,1.4E1,1.7E1,4E0,6E0,3E0,1E0,5E0,1.4E1,8E0,6E0,6E0,1.1E1,3E0,1E0,3E0,3E0],"tree_param":{"num_deleted":"0","num_feature":"6","num_nodes":"25","size_leaf_vector":"1"}},{"base_weights":[3.4021912E-3,1.9246673E-2,-1.0260571E-1,-4.3958235E-3,3.3050112E-2,-1.44046275E-2,3.8153145E-2,-2.569452E-2,3.011645E-3,-4.2491956E-3,3.8537085E-2,3.682732E-3,-2.1899894E-2,1.5047417E-3,-2.804855E-3,2.5428657E-3,1.2094295E-3,-1.3630858E-3,-2.7940623E-4],"categories":[],"categories_nodes":[],"categories_segments":[],"categories_sizes":[],"default_left":[0,0,0,0,0,0,0,0,0,0,0,0,0,0,0,0,0,0,0],"id":22,"left_children":[1,3,5,7,9,-1,11,13,-1,-1,15,-1,17,-1,-1,-1,-1,-1,-1],"loss_changes":[1.1619035E-1,1.9726148E-2,2.4597189E-1,3.3207327E-2,2.7885709E-2,0E0,1.4404862E-2,3.2218758E-2,0E0,0E0,5.310569E-3,0E0,1.10040535E-4,0E0,0E0,0E0,0E0,0E0,0E0],"parents":[2147483647,0,0,1,1,2,2,3,3,4,4,6,6,7,7,10,10,12,12],"right_children":[2,4,6,8,10,-1,12,14,-1,-1,16,-1,18,-1,-1,-1,-1,-1,-1],"split_conditions":[2.5843683E-1,7.17E2,2.679197E-1,6.76707E-2,9.9E2,-1.44046275E-2,-1.2846185E-1,4.305503E-2,3.011645E-3,-4.2491956E-3,1.095E3,3.682732E-3,2.7124575E-1,1.5047417E-3,-2.804855E-3,2.5428657E-3,1.2094295E-3,-1.3630858E-3,-2.7940623E-4],"split_indices":[0,1,0,0,4,0,2,0,0,0,4,0,0,0,0,0,0,0,0],"split_type":[0,0,0,0,0,0,0,0,0,0,0,0,0,0,0,0,0,0,0],"sum_hessian":[6.7E1,5.9E1,8E0,2.2E1,3.7E1,3E0,5E0,1.7E1,5E0,1E0,3.6E1,3E0,2E0,6E0,1.1E1,1.8E1,1.8E1,1E0,1E0],"tree_param":{"num_deleted":"0","num_feature":"6","num_nodes":"19","size_leaf_vector":"1"}},{"base_weights":[-1.4498928E-3,1.3681388E-2,-9.0579465E-2,3.5468243E-2,3.2513482E-3,-1.3864453E-2,2.9051663E-2,1.3881931E-2,5.3507734E-2,-4.8661016E-2,1.5370394E-2,4.9478016E-3,-1.8701287E-2,1.8297503E-3,-8.0750725E-4,2.840001E-3,5.969292E-4,-3.668988E-3,3.1092544E-3,2.5372914E-4,2.4098728E-3,-1.4176527E-3,-1.4078784E-4],"categories":[],"categories_nodes":[],"categories_segments":[],"categories_sizes":[],"default_left":[0,0,0,0,0,0,0,0,0,0,0,0,0,0,0,0,0,0,0,0,0,0,0],"id":23,"left_children":[1,3,5,7,9,-1,11,13,15,17,19,-1,21,-1,-1,-1,-1,-1,-1,-1,-1,-1,-1],"loss_changes":[9.294709E-2,1.329171E-2,2.3141849E-1,6.655924E-3,2.6542198E-2,0E0,2.5217582E-2,7.4122227E-3,6.9046207E-4,2.6482938E-2,1.1246779E-2,0E0,6.8678195E-4,0E0,0E0,0E0,0E0,0E0,0E0,0E0,0E0,0E0,0E0],"parents":[2147483647,0,0,1,1,2,2,3,3,4,4,6,6,7,7,8,8,9,9,10,10,12,12],"right_children":[2,4,6,8,10,-1,12,14,16,18,20,-1,22,-1,-1,-1,-1,-1,-1,-1,-1,-1,-1],"split_conditions":[2.5843683E-1,4.2361226E-2,2.679197E-1,3.6486782E-2,1.035E3,-1.3864453E-2,1.05E3,3.233609E-2,5.6910444E-2,2.4932721E-1,6.76707E-2,4.9478016E-3,2.7124575E-1,1.8297503E-3,-8.0750725E-4,2.840001E-3,5.969292E-4,-3.668988E-3,3.1092544E-3,2.5372914E-4,2.4098728E-3,-1.4176527E-3,-1.4078784E-4],"split_indices":[0,0,0,0,4,0,4,0,2,0,0,0,0,0,0,0,0,0,0,0,0,0,0],"split_type":[0,0,0,0,0,0,0,0,0,0,0,0,0,0,0,0,0,0,0,0,0,0,0],"sum_hessian":[6.7E1,5.8E1,9E0,1.8E1,4E1,3E0,6E0,9E0,9E0,7E0,3.3E1,2E0,4E0,5E0,4E0,8E0,1E0,6E0,1E0,2.6E1,7E0,2E0,2E0],"tree_param":{"num_deleted":"0","num_feature":"6","num_nodes":"23","size_leaf_vector":"1"}},{"base_weights":[-9.448165E-3,1.3576015E-2,-1.0967356E-1,-4.2471876E-3,2.6667047E-2,2.2194749E-2,-3.251018E-1,-2.2473179E-2,4.58301E-2,3.621459E-2,1.0862342E-3,-6.417693E-2,5.6040503E-2,-1.820156E-2,-4.234606E-3,1.4204388E-3,-2.726086E-3,2.7857486E-3,-3.369774E-4,1.1702308E-3,3.199051E-3,-1.142385E-3,2.1349532E-3,-4.0512406E-3,-7.620291E-4,3.2762557E-3,1.0776324E-3],"categories":[],"categories_nodes":[],"categories_segments":[],"categories_sizes":[],"default_left":[0,0,0,0,0,0,0,0,0,0,0,0,0,0,0,0,0,0,0,0,0,0,0,0,0,0,0],"id":24,"left_children":[1,3,5,7,9,11,13,15,17,19,21,23,25,-1,-1,-1,-1,-1,-1,-1,-1,-1,-1,-1,-1,-1,-1],"loss_changes":[1.6071385E-1,1.3412733E-2,3.7652153E-1,2.3847654E-2,8.020384E-3,2.9906338E-2,1.5964448E-2,3.2532044E-2,4.013001E-3,7.0390403E-3,1.0935162E-2,1.2385556E-3,8.7748654E-4,0E0,0E0,0E0,0E0,0E0,0E0,0E0,0E0,0E0,0E0,0E0,0E0,0E0,0E0],"parents":[2147483647,0,0,1,1,2,2,3,3,4,4,5,5,6,6,7,7,8,8,9,9,10,10,11,11,12,12],"right_children":[2,4,6,8,10,12,14,16,18,20,22,24,26,-1,-1,-1,-1,-1,-1,-1,-1,-1,-1,-1,-1,-1,-1],"split_conditions":[2.0540951E-1,7.17E2,1.155E3,6.76707E-2,5.935845E-2,5.709E3,5.558E3,4.305503E-2,6.9991454E-2,4.829894E-2,6.5323636E-2,2.4932721E-1,2.757377E-1,-1.820156E-2,-4.234606E-3,1.4204388E-3,-2.726086E-3,2.7857486E-3,-3.369774E-4,1.1702308E-3,3.199051E-3,-1.142385E-3,2.1349532E-3,-4.0512406E-3,-7.620291E-4,3.2762557E-3,1.0776324E-3],"split_indices":[0,1,4,0,0,1,1,0,0,0,0,0,0,0,0,0,0,0,0,0,0,0,0,0,0,0,0],"split_type":[0,0,0,0,0,0,0,0,0,0,0,0,0,0,0,0,0,0,0,0,0,0,0,0,0,0,0],"sum_hessian":[6.8E1,5.6E1,1.2E1,2.4E1,3.2E1,8E0,4E0,1.8E1,6E0,2.3E1,9E0,2E0,6E0,3E0,1E0,7E0,1.1E1,5E0,1E0,1.7E1,6E0,6E0,3E0,1E0,1E0,4E0,2E0],"tree_param":{"num_deleted":"0","num_feature":"6","num_nodes":"27","size_leaf_vector":"1"}},{"base_weights":[-4.0831366E-3,1.76387E-2,-8.3457656E-2,-1.3816933E-2,3.207456E-2,-2.6841652E-1,3.5863418E-2,-3.304317E-2,1.4346259E-2,2.071927E-2,4.8104722E-2,-3.119037E-1,-1.2745167E-3,-2.0454625E-2,7.6817885E-2,-2.6882053E-3,8.329746E-4,2.0177995E-3,-1.0876234E-3,2.944134E-3,-1.0213008E-4,-3.795568E-4,2.8628625E-3,-3.9499598E-3,-1.7519E-2,-3.2478129E-3,1.5432606E-3,4.9800575E-3,1.0417113E-3],"categories":[],"categories_nodes":[],"categories_segments":[],"categories_sizes":[],"default_left":[0,0,0,0,0,0,0,0,0,0,0,0,0,0,0,0,0,0,0,0,0,0,0,0,0,0,0,0,0],"id":25,"left_children":[1,3,5,7,9,11,13,15,17,19,21,23,-1,25,27,-1,-1,-1,-1,-1,-1,-1,-1,-1,-1,-1,-1,-1,-1],"loss_changes":[1.2043916E-1,2.5418077E-2,3.4066868E-1,1.0220546E-2,5.920332E-3,5.5434465E-2,2.4636036E-2,1.2224425E-2,8.389186E-3,2.0968368E-2,8.081015E-3,1.7126769E-2,0E0,1.3423971E-2,5.5778287E-3,0E0,0E0,0E0,0E0,0E0,0E0,0E0,0E0,0E0,0E0,0E0,0E0,0E0,0E0],"parents":[2147483647,0,0,1,1,2,2,3,3,4,4,5,5,6,6,7,7,8,8,9,9,10,10,11,11,13,13,14,14],"right_children":[2,4,6,8,10,12,14,16,18,20,22,24,-1,26,28,-1,-1,-1,-1,-1,-1,-1,-1,-1,-1,-1,-1,-1,-1],"split_conditions":[2.0540951E-1,-1.5173816E-2,5.558E3,7.98E2,9.05E2,2.679197E-1,6.843E3,6.651911E-2,1.115E3,4.0369306E-2,3.194809E-2,2.4932721E-1,-1.2745167E-3,2.687115E-1,2.7195245E-1,-2.6882053E-3,8.329746E-4,2.0177995E-3,-1.0876234E-3,2.944134E-3,-1.0213008E-4,-3.795568E-4,2.8628625E-3,-3.9499598E-3,-1.7519E-2,-3.2478129E-3,1.5432606E-3,4.9800575E-3,1.0417113E-3],"split_indices":[0,2,1,1,1,0,1,0,1,0,0,0,0,0,0,0,0,0,0,0,0,0,0,0,0,0,0,0,0],"split_type":[0,0,0,0,0,0,0,0,0,0,0,0,0,0,0,0,0,0,0,0,0,0,0,0,0,0,0,0,0],"sum_hessian":[6.8E1,5.4E1,1.4E1,1.7E1,3.7E1,5E0,9E0,1E1,7E0,2.3E1,1.4E1,4E0,1E0,4E0,5E0,7E0,3E0,4E0,3E0,8E0,1.5E1,2E0,1.2E1,1E0,3E0,2E0,2E0,3E0,2E0],"tree_param":{"num_deleted":"0","num_feature":"6","num_nodes":"29","size_leaf_vector":"1"}},{"base_weights":[-5.3787273E-3,1.5455946E-2,-9.471434E-2,-1.048011E-2,3.0155981E-2,-3.006023E-1,3.0191667E-2,2.5308998E-3,-2.7833665E-2,-9.942684E-3,3.4102608E-2,-3.8512107E-3,-1.6862039E-2,-1.9772807E-2,7.411781E-2,-1.8532159E-3,1.3798747E-3,-1.4079948E-3,1.1177238E-3,2.1722296E-3,4.1357908E-4,-3.1395524E-3,1.4918186E-3,4.793306E-3,-3.2188496E-4],"categories":[],"categories_nodes":[],"categories_segments":[],"categories_sizes":[],"default_left":[0,0,0,0,0,0,0,0,0,0,0,0,0,0,0,0,0,0,0,0,0,0,0,0,0],"id":26,"left_children":[1,3,5,7,9,11,13,-1,15,17,19,-1,-1,21,23,-1,-1,-1,-1,-1,-1,-1,-1,-1,-1],"loss_changes":[1.2803084E-1,2.1666652E-2,3.4339204E-1,2.367454E-2,6.0362294E-3,1.49820745E-2,2.1218237E-2,0E0,9.7212E-3,2.9829564E-3,7.603977E-3,0E0,0E0,1.2543956E-2,9.3768835E-3,0E0,0E0,0E0,0E0,0E0,0E0,0E0,0E0,0E0,0E0],"parents":[2147483647,0,0,1,1,2,2,3,3,4,4,5,5,6,6,8,8,9,9,10,10,13,13,14,14],"right_children":[2,4,6,8,10,12,14,-1,16,18,20,-1,-1,22,24,-1,-1,-1,-1,-1,-1,-1,-1,-1,-1],"split_conditions":[2.0540951E-1,7.17E2,5.558E3,2.96E2,-4.9017508E-2,2.4932721E-1,6.843E3,2.5308998E-3,6.76707E-2,4.829894E-2,5.935845E-2,-3.8512107E-3,-1.6862039E-2,2.687115E-1,2.7195245E-1,-1.8532159E-3,1.3798747E-3,-1.4079948E-3,1.1177238E-3,2.1722296E-3,4.1357908E-4,-3.1395524E-3,1.4918186E-3,4.793306E-3,-3.2188496E-4],"split_indices":[0,1,1,1,2,0,1,0,0,0,0,0,0,0,0,0,0,0,0,0,0,0,0,0,0],"split_type":[0,0,0,0,0,0,0,0,0,0,0,0,0,0,0,0,0,0,0,0,0,0,0,0,0],"sum_hessian":[6.7E1,5.5E1,1.2E1,2E1,3.5E1,4E0,8E0,4E0,1.6E1,3E0,3.2E1,1E0,3E0,4E0,4E0,1.4E1,2E0,2E0,1E0,2.3E1,9E0,2E0,2E0,3E0,1E0],"tree_param":{"num_deleted":"0","num_feature":"6","num_nodes":"25","size_leaf_vector":"1"}},{"base_weights":[-6.7392946E-3,1.361993E-2,-1.1347526E-1,-2.7309932E-2,1.9773241E-2,2.9844468E-2,-2.9142785E-1,-3.1467061E-3,-4.946179E-3,1.6314855E-2,3.483458E-3,-8.211026E-4,4.0292565E-2,-1.6229711E-2,-3.969057E-3,-7.3268305E-4,1.0897806E-3,9.943193E-4,-2.2538712E-3,9.246496E-4,2.7963903E-3],"categories":[],"categories_nodes":[],"categories_segments":[],"categories_sizes":[],"default_left":[0,0,0,0,0,0,0,0,0,0,0,0,0,0,0,0,0,0,0,0,0],"id":27,"left_children":[1,3,5,7,9,11,13,-1,15,17,-1,-1,19,-1,-1,-1,-1,-1,-1,-1,-1],"loss_changes":[1.493137E-1,1.514755E-2,2.8924277E-1,6.062242E-3,7.663889E-3,4.045465E-3,9.397477E-3,0E0,1.8769581E-3,1.1640384E-2,0E0,0E0,1.0107774E-3,0E0,0E0,0E0,0E0,0E0,0E0,0E0,0E0],"parents":[2147483647,0,0,1,1,2,2,3,3,4,4,5,5,6,6,8,8,9,9,12,12],"right_children":[2,4,6,8,10,12,14,-1,16,18,-1,-1,20,-1,-1,-1,-1,-1,-1,-1,-1],"split_conditions":[3.634E3,-3.6279768E-2,1.155E3,1.035E3,1.414E3,5.523E3,5.558E3,-3.1467061E-3,1.189E3,1.29E3,3.483458E-3,-8.211026E-4,6.437882E-2,-1.6229711E-2,-3.969057E-3,-7.3268305E-4,1.0897806E-3,9.943193E-4,-2.2538712E-3,9.246496E-4,2.7963903E-3],"split_indices":[1,2,4,4,1,1,1,0,1,1,0,0,2,0,0,0,0,0,0,0,0],"split_type":[0,0,0,0,0,0,0,0,0,0,0,0,0,0,0,0,0,0,0,0,0],"sum_hessian":[6.7E1,5.7E1,1E1,7E0,5E1,6E0,4E0,2E0,5E0,4.8E1,2E0,1E0,5E0,3E0,1E0,4E0,1E0,4.6E1,2E0,3E0,2E0],"tree_param":{"num_deleted":"0","num_feature":"6","num_nodes":"21","size_leaf_vector":"1"}},{"base_weights":[1.6571163E-3,1.6463557E-2,-5.557181E-2,-1.6269526E-2,2.1684859E-2,2.7345588E-2,-2.6970172E-1,-1.6454197E-3,2.954766E-4,-6.762606E-3,2.683223E-2,-3.734403E-3,4.501776E-2,-3.8698302E-3,-1.5400226E-2,-1.4446452E-3,7.407899E-4,1.6312465E-3,-1.8460058E-3,4.63009E-3,1.0466892E-3,4.5554857E-3,6.1241974E-4],"categories":[],"categories_nodes":[],"categories_segments":[],"categories_sizes":[],"default_left":[0,0,0,0,0,0,0,0,0,0,0,0,0,0,0,0,0,0,0,0,0,0,0],"id":28,"left_children":[1,3,5,7,9,11,13,-1,15,17,19,-1,21,-1,-1,-1,-1,-1,-1,-1,-1,-1,-1],"loss_changes":[5.768781E-2,9.581903E-3,2.559465E-1,2.2147067E-3,7.0636477E-3,2.3197006E-2,5.624801E-3,0E0,2.547195E-3,1.0707155E-2,1.3579026E-2,0E0,1.3988094E-2,0E0,0E0,0E0,0E0,0E0,0E0,0E0,0E0,0E0,0E0],"parents":[2147483647,0,0,1,1,2,2,3,3,4,4,5,5,6,6,8,8,9,9,10,10,12,12],"right_children":[2,4,6,8,10,12,14,-1,16,18,20,-1,22,-1,-1,-1,-1,-1,-1,-1,-1,-1,-1],"split_conditions":[2.0540951E-1,-4.9017508E-2,1.155E3,4.829894E-2,3.5643198E-2,2.4932721E-1,-2.7052212E-1,-1.6454197E-3,-1.2629125E-1,3.0865198E-2,1.005E3,-3.734403E-3,1.05E3,-3.8698302E-3,-1.5400226E-2,-1.4446452E-3,7.407899E-4,1.6312465E-3,-1.8460058E-3,4.63009E-3,1.0466892E-3,4.5554857E-3,6.1241974E-4],"split_indices":[0,2,4,0,0,0,2,0,2,0,4,0,4,0,0,0,0,0,0,0,0,0,0],"split_type":[0,0,0,0,0,0,0,0,0,0,0,0,0,0,0,0,0,0,0,0,0,0,0],"sum_hessian":[6.6E1,5.3E1,1.3E1,7E0,4.6E1,1E1,3E0,3E0,4E0,7E0,3.9E1,1E0,9E0,1E0,2E0,1E0,3E0,3E0,4E0,2E0,3.7E1,3E0,6E0],"tree_param":{"num_deleted":"0","num_feature":"6","num_nodes":"23","size_leaf_vector":"1"}},{"base_weights":[-2.108088E-3,1.4574867E-2,-4.8533797E-2,-5.369989E-3,2.8902506E-2,-1.2093134E-1,2.8717127E-2,-1.9061565E-2,3.6599733E-2,3.8167614E-2,-2.5056326E-3,-3.9512537E-2,-1.4886886E-2,-2.394365E-2,6.781492E-2,1.1929257E-3,-2.427165E-3,2.3496149E-3,-3.840768E-4,6.120457E-4,2.1370454E-3,-2.1963306E-3,1.556614E-3,-2.608462E-3,1.2271103E-3,-2.6053456E-3,2.2177347E-3,4.384655E-3,9.352858E-4],"categories":[],"categories_nodes":[],"categories_segments":[],"categories_sizes":[],"default_left":[0,0,0,0,0,0,0,0,0,0,0,0,0,0,0,0,0,0,0,0,0,0,0,0,0,0,0,0,0],"id":29,"left_children":[1,3,5,7,9,11,13,15,17,19,21,23,-1,25,27,-1,-1,-1,-1,-1,-1,-1,-1,-1,-1,-1,-1,-1,-1],"loss_changes":[5.5698153E-2,1.530063E-2,1.0973558E-1,1.3914176E-2,9.116629E-3,1.3218927E-1,2.2212937E-2,2.3934621E-2,3.1221462E-3,2.3224987E-3,1.2514058E-2,7.766124E-3,0E0,1.19287055E-2,4.216846E-3,0E0,0E0,0E0,0E0,0E0,0E0,0E0,0E0,0E0,0E0,0E0,0E0,0E0,0E0],"parents":[2147483647,0,0,1,1,2,2,3,3,4,4,5,5,6,6,7,7,8,8,9,9,10,10,11,11,13,13,14,14],"right_children":[2,4,6,8,10,12,14,16,18,20,22,24,-1,26,28,-1,-1,-1,-1,-1,-1,-1,-1,-1,-1,-1,-1,-1,-1],"split_conditions":[1.266E3,7.17E2,5.447E3,6.76707E-2,6.0878523E-2,2.4932721E-1,6.3E3,4.305503E-2,6.9991454E-2,-3.179265E-2,6.519301E-2,6.87459E-2,-1.4886886E-2,2.7124575E-1,2.7195245E-1,1.1929257E-3,-2.427165E-3,2.3496149E-3,-3.840768E-4,6.120457E-4,2.1370454E-3,-2.1963306E-3,1.556614E-3,-2.608462E-3,1.2271103E-3,-2.6053456E-3,2.2177347E-3,4.384655E-3,9.352858E-4],"split_indices":[1,1,1,0,0,0,1,0,0,2,0,2,0,0,0,0,0,0,0,0,0,0,0,0,0,0,0,0,0],"split_type":[0,0,0,0,0,0,0,0,0,0,0,0,0,0,0,0,0,0,0,0,0,0,0,0,0,0,0,0,0],"sum_hessian":[7E1,5.2E1,1.8E1,2.2E1,3E1,9E0,9E0,1.7E1,5E0,2.3E1,7E0,7E0,2E0,4E0,5E0,7E0,1E1,4E0,1E0,4E0,1.9E1,3E0,4E0,6E0,1E0,3E0,1E0,3E0,2E0],"tree_param":{"num_deleted":"0","num_feature":"6","num_nodes":"29","size_leaf_vector":"1"}},{"base_weights":[5.054287E-3,-1.878781E-3,5.9020415E-2,1.3607329E-2,-1.5126471E-1,4.22023E-3,2.6908979E-2,8.820008E-3,4.7226377E-2,-1.0691184E-2,-8.715593E-4,3.739269E-2,-3.7564672E-4,1.257375E-3,-3.6147147E-4,7.0734066E-4,2.5190918E-3,-1.5483331E-4,2.5960682E-3],"categories":[],"categories_nodes":[],"categories_segments":[],"categories_sizes":[],"default_left":[0,0,0,0,0,0,0,0,0,0,0,0,0,0,0,0,0,0,0],"id":30,"left_children":[1,3,5,7,9,-1,11,13,15,-1,-1,17,-1,-1,-1,-1,-1,-1,-1],"loss_changes":[2.6301445E-2,1.4780295E-1,4.2497404E-3,8.918282E-3,4.65077E-2,0E0,2.085276E-3,1.38082495E-2,1.7927028E-5,0E0,0E0,2.5138105E-3,0E0,0E0,0E0,0E0,0E0,0E0,0E0],"parents":[2147483647,0,0,1,1,2,2,3,3,4,4,6,6,7,7,8,8,11,11],"right_children":[2,4,6,8,10,-1,12,14,16,-1,-1,18,-1,-1,-1,-1,-1,-1,-1],"split_conditions":[5.709E3,6.9991454E-2,2.7195245E-1,6.76707E-2,2.679197E-1,4.22023E-3,6.994E3,4.541181E-2,-5.803025E-2,-1.0691184E-2,-8.715593E-4,2.7447352E-1,-3.7564672E-4,1.257375E-3,-3.6147147E-4,7.0734066E-4,2.5190918E-3,-1.5483331E-4,2.5960682E-3],"split_indices":[1,0,0,0,0,0,1,0,2,0,0,0,0,0,0,0,0,0,0],"split_type":[0,0,0,0,0,0,0,0,0,0,0,0,0,0,0,0,0,0,0],"sum_hessian":[6.9E1,6.2E1,7E0,5.7E1,5E0,3E0,4E0,5.1E1,6E0,3E0,2E0,3E0,1E0,2.5E1,2.6E1,1E0,5E0,1E0,2E0],"tree_param":{"num_deleted":"0","num_feature":"6","num_nodes":"19","size_leaf_vector":"1"}},{"base_weights":[-1.6422786E-3,1.5249799E-2,-6.797496E-2,-1.9526504E-2,2.1900063E-2,2.4722585E-2,-2.5831458E-1,-5.1020883E-2,9.973227E-3,3.746881E-2,1.2744382E-2,-3.3085519E-3,4.0429052E-2,-3.8134574E-3,-1.4237933E-2,-2.8398219E-3,-6.979666E-4,-1.3388131E-3,1.1339189E-3,3.4704732E-4,2.813232E-3,2.3369472E-4,2.4141297E-3,4.061972E-3,5.6666293E-4],"categories":[],"categories_nodes":[],"categories_segments":[],"categories_sizes":[],"default_left":[0,0,0,0,0,0,0,0,0,0,0,0,0,0,0,0,0,0,0,0,0,0,0,0,0],"id":31,"left_children":[1,3,5,7,9,11,13,15,17,19,21,-1,23,-1,-1,-1,-1,-1,-1,-1,-1,-1,-1,-1,-1],"loss_changes":[8.283288E-2,1.40726585E-2,2.7104646E-1,9.7996E-3,6.649608E-3,1.8379025E-2,2.3517907E-3,2.77414E-4,3.408689E-3,9.93781E-3,9.239084E-3,0E0,1.0953397E-2,0E0,0E0,0E0,0E0,0E0,0E0,0E0,0E0,0E0,0E0,0E0,0E0],"parents":[2147483647,0,0,1,1,2,2,3,3,4,4,5,5,6,6,7,7,8,8,9,9,10,10,12,12],"right_children":[2,4,6,8,10,12,14,16,18,20,22,-1,24,-1,-1,-1,-1,-1,-1,-1,-1,-1,-1,-1,-1],"split_conditions":[2.0540951E-1,-3.6279768E-2,1.155E3,1.05E3,1.095E3,2.4932721E-1,-2.7052212E-1,1.035E3,-1.2629125E-1,3.3937838E-2,6.76707E-2,-3.3085519E-3,1.05E3,-3.8134574E-3,-1.4237933E-2,-2.8398219E-3,-6.979666E-4,-1.3388131E-3,1.1339189E-3,3.4704732E-4,2.813232E-3,2.3369472E-4,2.4141297E-3,4.061972E-3,5.6666293E-4],"split_indices":[0,2,4,4,4,0,2,4,2,0,0,0,4,0,0,0,0,0,0,0,0,0,0,0,0],"split_type":[0,0,0,0,0,0,0,0,0,0,0,0,0,0,0,0,0,0,0,0,0,0,0,0,0],"sum_hessian":[7.2E1,5.8E1,1.4E1,9E0,4.9E1,1E1,4E0,4E0,5E0,1.7E1,3.2E1,1E0,9E0,1E0,3E0,3E0,1E0,1E0,4E0,7E0,1E1,2.7E1,5E0,3E0,6E0],"tree_param":{"num_deleted":"0","num_feature":"6","num_nodes":"25","size_leaf_vector":"1"}},{"base_weights":[-5.3463094E-3,9.250968E-3,-7.006137E-2,2.4095194E-2,-1.9359912E-3,1.85523E-2,-1.3704011E-2,1.3164617E-3,3.473716E-2,-8.5466385E-2,1.2050274E-2,6.3069485E-2,-2.1637406E-2,1.4513728E-3,-2.0289572E-3,-1.0658618E-3,1.9786444E-3,-1.1643854E-3,-4.7594565E-3,1.13744136E-4,1.9324118E-3,3.9770612E-3,1.2787294E-3,-1.9593416E-3,1.652743E-3],"categories":[],"categories_nodes":[],"categories_segments":[],"categories_sizes":[],"default_left":[0,0,0,0,0,0,0,0,0,0,0,0,0,0,0,0,0,0,0,0,0,0,0,0,0],"id":32,"left_children":[1,3,5,7,9,11,-1,13,15,17,19,21,23,-1,-1,-1,-1,-1,-1,-1,-1,-1,-1,-1,-1],"loss_changes":[6.67746E-2,9.678229E-3,2.4010995E-1,6.0145333E-3,4.0751353E-2,1.9255986E-2,0E0,1.1626627E-2,5.451668E-3,8.0599636E-4,7.7122445E-3,1.0537971E-3,7.054221E-3,0E0,0E0,0E0,0E0,0E0,0E0,0E0,0E0,0E0,0E0,0E0,0E0],"parents":[2147483647,0,0,1,1,2,2,3,3,4,4,5,5,7,7,8,8,9,9,10,10,11,11,12,12],"right_children":[2,4,6,8,10,12,-1,14,16,18,20,22,24,-1,-1,-1,-1,-1,-1,-1,-1,-1,-1,-1,-1],"split_conditions":[2.0540951E-1,4.541181E-2,1.155E3,3.5643198E-2,1.035E3,-1.2846185E-1,-1.3704011E-2,3.233609E-2,-1.1564181E-1,-8.883526E-2,2.141511E-2,2.7195245E-1,2.8101847E-1,1.4513728E-3,-2.0289572E-3,-1.0658618E-3,1.9786444E-3,-1.1643854E-3,-4.7594565E-3,1.13744136E-4,1.9324118E-3,3.9770612E-3,1.2787294E-3,-1.9593416E-3,1.652743E-3],"split_indices":[0,0,4,0,4,2,0,0,2,2,2,0,0,0,0,0,0,0,0,0,0,0,0,0,0],"split_type":[0,0,0,0,0,0,0,0,0,0,0,0,0,0,0,0,0,0,0,0,0,0,0,0,0],"sum_hessian":[6.9E1,5.7E1,1.2E1,2.4E1,3.3E1,9E0,3E0,8E0,1.6E1,4E0,2.9E1,4E0,5E0,5E0,3E0,1E0,1.5E1,1E0,3E0,2.2E1,7E0,2E0,2E0,4E0,1E0],"tree_param":{"num_deleted":"0","num_feature":"6","num_nodes":"25","size_leaf_vector":"1"}},{"base_weights":[-1.0186876E-3,1.8670741E-2,-4.8787367E-2,-1.3639085E-2,2.8961947E-2,9.746763E-3,-2.3804593E-1,3.519963E-2,-3.1810664E-2,2.269234E-2,5.966274E-2,-9.794091E-3,1.9530712E-3,-1.319011E-2,-3.3755214E-3,2.2862654E-3,8.224651E-4,-5.877289E-4,-2.4757916E-3,1.6640626E-3,2.529462E-5,3.8347126E-3,8.533238E-4,1.1052951E-3,-9.6695946E-4],"categories":[],"categories_nodes":[],"categories_segments":[],"categories_sizes":[],"default_left":[0,0,0,0,0,0,0,0,0,0,0,0,0,0,0,0,0,0,0,0,0,0,0,0,0],"id":33,"left_children":[1,3,5,7,9,11,13,15,17,19,21,23,-1,-1,-1,-1,-1,-1,-1,-1,-1,-1,-1,-1,-1],"loss_changes":[6.76891E-2,1.7352873E-2,2.3495995E-1,1.2656918E-2,6.152913E-3,1.0120741E-2,4.152417E-3,3.729062E-5,2.968926E-3,7.970795E-3,3.043972E-3,3.7768849E-3,0E0,0E0,0E0,0E0,0E0,0E0,0E0,0E0,0E0,0E0,0E0,0E0,0E0],"parents":[2147483647,0,0,1,1,2,2,3,3,4,4,5,5,6,6,7,7,8,8,9,9,10,10,11,11],"right_children":[2,4,6,8,10,12,14,16,18,20,22,24,-1,-1,-1,-1,-1,-1,-1,-1,-1,-1,-1,-1,-1],"split_conditions":[1.17E3,6.64E2,1.099E3,2.72E2,6.843E3,3.5657233E-3,5.558E3,2.33E2,4.58E2,1.266E3,1.05E3,5.41E2,1.9530712E-3,-1.319011E-2,-3.3755214E-3,2.2862654E-3,8.224651E-4,-5.877289E-4,-2.4757916E-3,1.6640626E-3,2.529462E-5,3.8347126E-3,8.533238E-4,1.1052951E-3,-9.6695946E-4],"split_indices":[4,1,1,1,1,2,1,1,1,1,4,1,0,0,0,0,0,0,0,0,0,0,0,0,0],"split_type":[0,0,0,0,0,0,0,0,0,0,0,0,0,0,0,0,0,0,0,0,0,0,0,0,0],"sum_hessian":[7E1,5E1,2E1,1.2E1,3.8E1,1.6E1,4E0,3E0,9E0,3.3E1,5E0,1E1,6E0,3E0,1E0,1E0,2E0,5E0,4E0,2.2E1,1.1E1,3E0,2E0,2E0,8E0],"tree_param":{"num_deleted":"0","num_feature":"6","num_nodes":"25","size_leaf_vector":"1"}},{"base_weights":[-1.3349776E-3,1.0585677E-2,-3.0473832E-2,-1.9471541E-2,2.3164893E-2,7.693161E-3,-9.253255E-3,6.782402E-3,-5.9982855E-2,-3.1774864E-3,2.7584434E-2,-1.708591E-2,2.2766339E-3,1.7108417E-3,-4.9316644E-4,-3.5683743E-3,-7.6491946E-5,1.9862072E-3,4.7795955E-4,1.2938839E-3,-1.8215983E-3],"categories":[],"categories_nodes":[],"categories_segments":[],"categories_sizes":[],"default_left":[0,0,0,0,0,0,0,0,0,0,0,0,0,0,0,0,0,0,0,0,0],"id":34,"left_children":[1,3,5,7,9,11,-1,13,15,-1,17,19,-1,-1,-1,-1,-1,-1,-1,-1,-1],"loss_changes":[2.394267E-2,1.8977774E-2,1.19429395E-1,1.6360555E-2,1.5166335E-2,1.6717646E-2,0E0,4.9041538E-3,3.8836151E-3,0E0,7.060189E-3,1.0085709E-2,0E0,0E0,0E0,0E0,0E0,0E0,0E0,0E0,0E0],"parents":[2147483647,0,0,1,1,2,2,3,3,4,4,5,5,7,7,8,8,10,10,11,11],"right_children":[2,4,6,8,10,12,-1,14,16,-1,18,20,-1,-1,-1,-1,-1,-1,-1,-1,-1],"split_conditions":[1.17E3,6.64E2,6.9991454E-2,4.8E2,9.9E2,6.519301E-2,-9.253255E-3,2.72E2,6.651911E-2,-3.1774864E-3,1.095E3,3.9486974E-2,2.2766339E-3,1.7108417E-3,-4.9316644E-4,-3.5683743E-3,-7.6491946E-5,1.9862072E-3,4.7795955E-4,1.2938839E-3,-1.8215983E-3],"split_indices":[4,1,0,1,4,0,0,1,0,0,4,0,0,0,0,0,0,0,0,0,0],"split_type":[0,0,0,0,0,0,0,0,0,0,0,0,0,0,0,0,0,0,0,0,0],"sum_hessian":[6.7E1,4.8E1,1.9E1,1.4E1,3.4E1,1.6E1,3E0,9E0,5E0,1E0,3.3E1,1E1,6E0,3E0,6E0,4E0,1E0,1.9E1,1.4E1,3E0,7E0],"tree_param":{"num_deleted":"0","num_feature":"6","num_nodes":"21","size_leaf_vector":"1"}},{"base_weights":[-3.4064366E-3,1.1487109E-2,-6.8446875E-2,3.2673325E-2,2.4224068E-3,-2.0322956E-1,1.4037611E-2,4.387473E-2,-1.4699922E-2,-1.4647619E-2,2.5047863E-2,-1.2348484E-2,-7.0672727E-4,-1.3946955E-2,3.9214656E-2,2.9443125E-3,1.2627655E-3,4.7451467E-6,-9.831582E-4,-2.005646E-3,1.2507548E-3,1.590273E-3,-9.670973E-4,-1.8910215E-3,2.0386735E-3,2.509215E-3,7.5867283E-4],"categories":[],"categories_nodes":[],"categories_segments":[],"categories_sizes":[],"default_left":[0,0,0,0,0,0,0,0,0,0,0,0,0,0,0,0,0,0,0,0,0,0,0,0,0,0,0],"id":35,"left_children":[1,3,5,7,9,11,13,15,17,19,21,-1,-1,23,25,-1,-1,-1,-1,-1,-1,-1,-1,-1,-1,-1,-1],"loss_changes":[6.762536E-2,1.0867517E-2,1.4738011E-1,9.665951E-3,1.6201792E-2,3.7864387E-2,6.888043E-3,2.4258904E-3,2.9558735E-4,2.524398E-2,6.0146116E-3,0E0,0E0,8.073904E-3,5.5714743E-4,0E0,0E0,0E0,0E0,0E0,0E0,0E0,0E0,0E0,0E0,0E0,0E0],"parents":[2147483647,0,0,1,1,2,2,3,3,4,4,5,5,6,6,7,7,8,8,9,9,10,10,13,13,14,14],"right_children":[2,4,6,8,10,12,14,16,18,20,22,-1,-1,24,26,-1,-1,-1,-1,-1,-1,-1,-1,-1,-1,-1,-1],"split_conditions":[2.0540951E-1,4.0369306E-2,5.558E3,1.027E3,9.05E2,2.679197E-1,6.843E3,1.7171215E-3,3.0865198E-2,6.519301E-2,6.3887104E-2,-1.2348484E-2,-7.0672727E-4,2.7447352E-1,2.6869828E-1,2.9443125E-3,1.2627655E-3,4.7451467E-6,-9.831582E-4,-2.005646E-3,1.2507548E-3,1.590273E-3,-9.670973E-4,-1.8910215E-3,2.0386735E-3,2.509215E-3,7.5867283E-4],"split_indices":[0,0,1,1,1,0,1,2,0,0,2,0,0,0,0,0,0,0,0,0,0,0,0,0,0,0,0],"split_type":[0,0,0,0,0,0,0,0,0,0,0,0,0,0,0,0,0,0,0,0,0,0,0,0,0,0,0],"sum_hessian":[6.8E1,5.6E1,1.2E1,1.6E1,4E1,4E0,8E0,1.3E1,3E0,2.3E1,1.7E1,3E0,1E0,4E0,4E0,6E0,7E0,1E0,2E0,1.4E1,9E0,1.5E1,2E0,3E0,1E0,2E0,2E0],"tree_param":{"num_deleted":"0","num_feature":"6","num_nodes":"27","size_leaf_vector":"1"}},{"base_weights":[-6.152176E-3,1.1266074E-2,-8.547314E-2,-2.2766266E-2,1.7543202E-2,-1.971513E-1,2.246145E-2,-2.3175366E-3,5.371454E-3,-1.8638688E-3,2.2188662E-2,-2.7893372E-3,-2.1426687E-1,3.0798754E-2,-6.8905915E-4,1.3104209E-3,-8.627997E-4,1.2070804E-3,-1.6348833E-3,4.206618E-3,8.205168E-4,-3.012526E-3,-1.1885417E-2,7.01955E-4,2.1439353E-3],"categories":[],"categories_nodes":[],"categories_segments":[],"categories_sizes":[],"default_left":[0,0,0,0,0,0,0,0,0,0,0,0,0,0,0,0,0,0,0,0,0,0,0,0,0],"id":36,"left_children":[1,3,5,7,9,11,13,-1,15,17,19,-1,21,23,-1,-1,-1,-1,-1,-1,-1,-1,-1,-1,-1],"loss_changes":[9.215068E-2,1.2148786E-2,1.4907557E-1,6.221489E-3,4.278631E-3,2.5639534E-3,2.5396037E-3,0E0,2.8096887E-3,8.80785E-3,1.2220731E-2,0E0,3.7297904E-3,6.1275624E-4,0E0,0E0,0E0,0E0,0E0,0E0,0E0,0E0,0E0,0E0,0E0],"parents":[2147483647,0,0,1,1,2,2,3,3,4,4,5,5,6,6,8,8,9,9,10,10,12,12,13,13],"right_children":[2,4,6,8,10,12,14,-1,16,18,20,-1,22,24,-1,-1,-1,-1,-1,-1,-1,-1,-1,-1,-1],"split_conditions":[2.0540951E-1,-3.6279768E-2,2.679197E-1,1.05E3,3.5643198E-2,2.4932721E-1,2.1464288E-1,-2.3175366E-3,6.0878523E-2,3.233609E-2,1.005E3,-2.7893372E-3,-2.7052212E-1,6.437882E-2,-6.8905915E-4,1.3104209E-3,-8.627997E-4,1.2070804E-3,-1.6348833E-3,4.206618E-3,8.205168E-4,-3.012526E-3,-1.1885417E-2,7.01955E-4,2.1439353E-3],"split_indices":[0,2,0,4,0,0,2,0,0,0,4,0,2,2,0,0,0,0,0,0,0,0,0,0,0],"split_type":[0,0,0,0,0,0,0,0,0,0,0,0,0,0,0,0,0,0,0,0,0,0,0,0,0],"sum_hessian":[6.5E1,5.4E1,1.1E1,8E0,4.6E1,5E0,6E0,4E0,4E0,9E0,3.7E1,1E0,4E0,5E0,1E0,2E0,2E0,5E0,4E0,2E0,3.5E1,1E0,3E0,3E0,2E0],"tree_param":{"num_deleted":"0","num_feature":"6","num_nodes":"25","size_leaf_vector":"1"}},{"base_weights":[-3.8411582E-3,8.872482E-3,-5.274449E-2,4.651298E-3,3.8962353E-2,2.1954387E-2,-2.0653312E-1,-1.8102974E-2,1.62206E-2,5.85434E-4,2.0776594E-3,-3.874272E-2,4.9558643E-2,-1.1439714E-2,-2.9372126E-3,8.569211E-4,-2.1043678E-3,1.2495643E-3,-4.1026247E-4,-2.7196035E-3,-7.697791E-4,3.5462976E-3,1.1276536E-3],"categories":[],"categories_nodes":[],"categories_segments":[],"categories_sizes":[],"default_left":[0,0,0,0,0,0,0,0,0,0,0,0,0,0,0,0,0,0,0,0,0,0,0],"id":37,"left_children":[1,3,5,7,9,11,13,15,17,-1,-1,19,21,-1,-1,-1,-1,-1,-1,-1,-1,-1,-1],"loss_changes":[4.5233205E-2,7.1856384E-3,1.7685188E-1,1.3982694E-2,7.733703E-6,2.0350521E-2,3.0094087E-3,1.5935687E-2,7.7031627E-3,0E0,0E0,6.2407274E-4,3.0166917E-3,0E0,0E0,0E0,0E0,0E0,0E0,0E0,0E0,0E0,0E0],"parents":[2147483647,0,0,1,1,2,2,3,3,4,4,5,5,6,6,7,7,8,8,11,11,12,12],"right_children":[2,4,6,8,10,12,14,16,18,-1,-1,20,22,-1,-1,-1,-1,-1,-1,-1,-1,-1,-1],"split_conditions":[6.9991454E-2,6.76707E-2,1.155E3,7.17E2,-5.803025E-2,5.709E3,5.558E3,4.305503E-2,5.935845E-2,5.85434E-4,2.0776594E-3,2.4932721E-1,2.7195245E-1,-1.1439714E-2,-2.9372126E-3,8.569211E-4,-2.1043678E-3,1.2495643E-3,-4.1026247E-4,-2.7196035E-3,-7.697791E-4,3.5462976E-3,1.1276536E-3],"split_indices":[0,0,4,1,2,1,1,0,0,0,0,0,0,0,0,0,0,0,0,0,0,0,0],"split_type":[0,0,0,0,0,0,0,0,0,0,0,0,0,0,0,0,0,0,0,0,0,0,0],"sum_hessian":[7.1E1,5.7E1,1.4E1,5.1E1,6E0,1E1,4E0,1.7E1,3.4E1,1E0,5E0,3E0,7E0,3E0,1E0,7E0,1E1,2.5E1,9E0,1E0,2E0,3E0,4E0],"tree_param":{"num_deleted":"0","num_feature":"6","num_nodes":"23","size_leaf_vector":"1"}},{"base_weights":[-4.8468956E-3,1.0450102E-2,-4.4376746E-2,-2.5687817E-2,2.3154737E-2,6.742143E-3,-1.9908184E-1,-3.8083356E-3,-5.422574E-2,-2.6516132E-3,2.6555244E-2,-1.5367556E-2,2.307645E-3,-1.1010724E-2,-2.8637827E-3,-1.0052761E-3,1.7743938E-3,-3.647045E-3,-5.598469E-4,3.7256963E-4,1.8694341E-3,1.1252895E-3,-1.6191642E-3],"categories":[],"categories_nodes":[],"categories_segments":[],"categories_sizes":[],"default_left":[0,0,0,0,0,0,0,0,0,0,0,0,0,0,0,0,0,0,0,0,0,0,0],"id":38,"left_children":[1,3,5,7,9,11,13,15,17,-1,19,21,-1,-1,-1,-1,-1,-1,-1,-1,-1,-1,-1],"loss_changes":[4.339659E-2,2.446899E-2,1.595093E-1,8.535018E-3,1.1512188E-2,1.4651018E-2,2.3707598E-3,6.4772614E-3,4.015032E-3,0E0,7.585898E-3,7.817679E-3,0E0,0E0,0E0,0E0,0E0,0E0,0E0,0E0,0E0,0E0,0E0],"parents":[2147483647,0,0,1,1,2,2,3,3,4,4,5,5,6,6,7,7,8,8,10,10,11,11],"right_children":[2,4,6,8,10,12,14,16,18,-1,20,22,-1,-1,-1,-1,-1,-1,-1,-1,-1,-1,-1],"split_conditions":[1.17E3,6.64E2,6.903521E-2,4.8E2,9.9E2,6.519301E-2,5.558E3,4.37E2,6.12E2,-2.6516132E-3,4.3766644E-2,3.9486974E-2,2.307645E-3,-1.1010724E-2,-2.8637827E-3,-1.0052761E-3,1.7743938E-3,-3.647045E-3,-5.598469E-4,3.7256963E-4,1.8694341E-3,1.1252895E-3,-1.6191642E-3],"split_indices":[4,1,0,1,4,0,1,1,1,0,0,0,0,0,0,0,0,0,0,0,0,0,0],"split_type":[0,0,0,0,0,0,0,0,0,0,0,0,0,0,0,0,0,0,0,0,0,0,0],"sum_hessian":[7E1,5.1E1,1.9E1,1.3E1,3.8E1,1.5E1,4E0,8E0,5E0,1E0,3.7E1,1E1,5E0,3E0,1E0,6E0,2E0,3E0,2E0,1.4E1,2.3E1,3E0,7E0],"tree_param":{"num_deleted":"0","num_feature":"6","num_nodes":"23","size_leaf_vector":"1"}},{"base_weights":[-3.866347E-3,7.258009E-3,-5.3200677E-2,3.0687856E-3,3.305706E-2,1.5621694E-2,-1.0597822E-2,-1.3817902E-2,1.7433489E-2,1.8896296E-3,-2.292171E-6,-3.7949745E-2,4.4002276E-2,8.855018E-4,-1.8801428E-3,1.0462478E-3,-9.318523E-4,-2.5853233E-3,-8.064342E-4,3.4539816E-3,1.0077702E-3],"categories":[],"categories_nodes":[],"categories_segments":[],"categories_sizes":[],"default_left":[0,0,0,0,0,0,0,0,0,0,0,0,0,0,0,0,0,0,0,0,0],"id":39,"left_children":[1,3,5,7,9,11,-1,13,15,-1,-1,17,19,-1,-1,-1,-1,-1,-1,-1,-1],"loss_changes":[3.880302E-2,6.167078E-3,1.4534846E-1,1.2612079E-2,1.255813E-3,1.6873762E-2,0E0,1.8663324E-2,3.916274E-3,0E0,0E0,3.667879E-4,2.793787E-3,0E0,0E0,0E0,0E0,0E0,0E0,0E0,0E0],"parents":[2147483647,0,0,1,1,2,2,3,3,4,4,5,5,7,7,8,8,11,11,12,12],"right_children":[2,4,6,8,10,12,-1,14,16,-1,-1,18,20,-1,-1,-1,-1,-1,-1,-1,-1],"split_conditions":[2.0540951E-1,6.76707E-2,1.155E3,8.43E2,6.9991454E-2,5.709E3,-1.0597822E-2,4.305503E-2,1.185E3,1.8896296E-3,-2.292171E-6,2.4932721E-1,2.7195245E-1,8.855018E-4,-1.8801428E-3,1.0462478E-3,-9.318523E-4,-2.5853233E-3,-8.064342E-4,3.4539816E-3,1.0077702E-3],"split_indices":[0,0,4,1,0,1,0,0,4,0,0,0,0,0,0,0,0,0,0,0,0],"split_type":[0,0,0,0,0,0,0,0,0,0,0,0,0,0,0,0,0,0,0,0,0],"sum_hessian":[6.9E1,5.7E1,1.2E1,5E1,7E0,9E0,3E0,2.3E1,2.7E1,6E0,1E0,3E0,6E0,1E1,1.3E1,2.5E1,2E0,1E0,2E0,2E0,4E0],"tree_param":{"num_deleted":"0","num_feature":"6","num_nodes":"21","size_leaf_vector":"1"}},{"base_weights":[-9.511519E-3,4.6682083E-3,-6.877102E-2,-2.103925E-2,1.1573237E-2,2.56653E-3,-1.834244E-1,1.4709601E-2,-7.402956E-2,6.921661E-3,3.1640124E-2,-3.6900196E-2,2.8449927E-2,-1.0200404E-2,-2.527243E-3,-1.7996089E-3,1.8804446E-3,-7.6248235E-4,-4.2456063E-3,8.208553E-4,-8.507291E-4,1.8086456E-3,-2.2348017E-6,-2.5206902E-3,-7.79553E-4,1.9226213E-3,-5.39064E-4],"categories":[],"categories_nodes":[],"categories_segments":[],"categories_sizes":[],"default_left":[0,0,0,0,0,0,0,0,0,0,0,0,0,0,0,0,0,0,0,0,0,0,0,0,0,0,0],"id":40,"left_children":[1,3,5,7,9,11,13,15,17,19,21,23,25,-1,-1,-1,-1,-1,-1,-1,-1,-1,-1,-1,-1,-1,-1],"loss_changes":[5.6620035E-2,1.0006583E-2,1.0679895E-1,2.3821058E-2,3.8880743E-3,1.0243604E-2,3.3641756E-3,1.0641904E-2,1.9035004E-3,8.688886E-3,1.150581E-3,3.658482E-4,2.769027E-3,0E0,0E0,0E0,0E0,0E0,0E0,0E0,0E0,0E0,0E0,0E0,0E0,0E0,0E0],"parents":[2147483647,0,0,1,1,2,2,3,3,4,4,5,5,6,6,7,7,8,8,9,9,10,10,11,11,12,12],"right_children":[2,4,6,8,10,12,14,16,18,20,22,24,26,-1,-1,-1,-1,-1,-1,-1,-1,-1,-1,-1,-1,-1,-1],"split_conditions":[2.0540951E-1,1.035E3,1.155E3,4.541181E-2,6.76707E-2,5.709E3,5.558E3,4.09E2,-8.883526E-2,5.935845E-2,6.9991454E-2,2.4932721E-1,2.757377E-1,-1.0200404E-2,-2.527243E-3,-1.7996089E-3,1.8804446E-3,-7.6248235E-4,-4.2456063E-3,8.208553E-4,-8.507291E-4,1.8086456E-3,-2.2348017E-6,-2.5206902E-3,-7.79553E-4,1.9226213E-3,-5.39064E-4],"split_indices":[0,4,4,0,0,1,1,1,2,0,0,0,0,0,0,0,0,0,0,0,0,0,0,0,0,0,0],"split_type":[0,0,0,0,0,0,0,0,0,0,0,0,0,0,0,0,0,0,0,0,0,0,0,0,0,0,0],"sum_hessian":[6.6E1,5.4E1,1.2E1,1.1E1,4.3E1,8E0,4E0,7E0,4E0,3.6E1,7E0,3E0,5E0,3E0,1E0,2E0,5E0,1E0,3E0,2.6E1,1E1,6E0,1E0,1E0,2E0,4E0,1E0],"tree_param":{"num_deleted":"0","num_feature":"6","num_nodes":"27","size_leaf_vector":"1"}},{"base_weights":[-3.3290528E-3,9.059468E-3,-3.884132E-2,4.6565417E-2,5.601137E-3,3.1843954E-3,-1.7622098E-1,3.16271E-3,1.9917756E-2,-1.5114242E-2,1.3356984E-2,-2.0272873E-2,1.4768894E-3,-2.464062E-3,-1.01053575E-2,-3.2813902E-4,1.8219708E-3,-2.1483446E-3,1.0194058E-4,2.65172E-3,3.1494242E-4,-1.5950178E-3,1.5279878E-3],"categories":[],"categories_nodes":[],"categories_segments":[],"categories_sizes":[],"default_left":[0,0,0,0,0,0,0,0,0,0,0,0,0,0,0,0,0,0,0,0,0,0,0],"id":41,"left_children":[1,3,5,7,9,11,13,-1,15,17,19,21,-1,-1,-1,-1,-1,-1,-1,-1,-1,-1,-1],"loss_changes":[2.894827E-2,6.0948734E-3,9.871029E-2,5.1898696E-4,7.5924844E-3,9.253317E-3,3.1838492E-3,0E0,1.5516509E-3,6.2984554E-3,9.187596E-3,5.7033105E-3,0E0,0E0,0E0,0E0,0E0,0E0,0E0,0E0,0E0,0E0,0E0],"parents":[2147483647,0,0,1,1,2,2,3,3,4,4,5,5,6,6,8,8,9,9,10,10,11,11],"right_children":[2,4,6,8,10,12,14,-1,16,18,20,22,-1,-1,-1,-1,-1,-1,-1,-1,-1,-1,-1],"split_conditions":[1.17E3,-1.2846185E-1,6.9991454E-2,2.7195245E-1,-2.576226E-2,3.5657233E-3,-2.7052212E-1,3.16271E-3,2.7447352E-1,1.05E3,-1.3893275E-2,6.519301E-2,1.4768894E-3,-2.464062E-3,-1.01053575E-2,-3.2813902E-4,1.8219708E-3,-2.1483446E-3,1.0194058E-4,2.65172E-3,3.1494242E-4,-1.5950178E-3,1.5279878E-3],"split_indices":[4,2,0,0,2,2,2,0,0,4,2,0,0,0,0,0,0,0,0,0,0,0,0],"split_type":[0,0,0,0,0,0,0,0,0,0,0,0,0,0,0,0,0,0,0,0,0,0,0],"sum_hessian":[6.4E1,4.8E1,1.6E1,3E0,4.5E1,1.3E1,3E0,1E0,2E0,1.2E1,3.3E1,7E0,6E0,1E0,2E0,1E0,1E0,4E0,8E0,4E0,2.9E1,6E0,1E0],"tree_param":{"num_deleted":"0","num_feature":"6","num_nodes":"23","size_leaf_vector":"1"}},{"base_weights":[-4.7354028E-3,5.8472604E-3,-4.3928318E-2,1.8374233E-2,-2.1939005E-3,1.7480789E-2,-1.702427E-1,-5.638719E-3,2.9956192E-2,-4.058716E-2,5.5578817E-3,-3.606321E-2,4.2067688E-2,-9.438938E-3,-2.4024607E-3,1.0864588E-3,-1.9219455E-3,1.766415E-3,-1.1313333E-3,-2.2131541E-4,-3.7636291E-3,-5.074208E-5,1.3649475E-3,-2.4655468E-3,-7.605159E-4,3.05858E-3,9.18551E-4],"categories":[],"categories_nodes":[],"categories_segments":[],"categories_sizes":[],"default_left":[0,0,0,0,0,0,0,0,0,0,0,0,0,0,0,0,0,0,0,0,0,0,0,0,0,0,0],"id":42,"left_children":[1,3,5,7,9,11,13,15,17,19,21,23,25,-1,-1,-1,-1,-1,-1,-1,-1,-1,-1,-1,-1,-1,-1],"loss_changes":[2.929044E-2,5.6812693E-3,1.1932877E-1,6.2874886E-3,1.0642145E-2,1.5998384E-2,2.2542626E-3,8.016623E-3,5.036572E-3,7.1923463E-3,4.314645E-3,3.5497826E-4,2.4978071E-3,0E0,0E0,0E0,0E0,0E0,0E0,0E0,0E0,0E0,0E0,0E0,0E0,0E0,0E0],"parents":[2147483647,0,0,1,1,2,2,3,3,4,4,5,5,6,6,7,7,8,8,9,9,10,10,11,11,12,12],"right_children":[2,4,6,8,10,12,14,16,18,20,22,24,26,-1,-1,-1,-1,-1,-1,-1,-1,-1,-1,-1,-1,-1,-1],"split_conditions":[2.0540951E-1,4.541181E-2,1.155E3,3.4892183E-2,1.035E3,5.709E3,5.558E3,3.233609E-2,1.529E3,5.1432196E-2,6.76707E-2,2.4932721E-1,2.7195245E-1,-9.438938E-3,-2.4024607E-3,1.0864588E-3,-1.9219455E-3,1.766415E-3,-1.1313333E-3,-2.2131541E-4,-3.7636291E-3,-5.074208E-5,1.3649475E-3,-2.4655468E-3,-7.605159E-4,3.05858E-3,9.18551E-4],"split_indices":[0,0,4,0,4,1,1,0,1,0,0,0,0,0,0,0,0,0,0,0,0,0,0,0,0,0,0],"split_type":[0,0,0,0,0,0,0,0,0,0,0,0,0,0,0,0,0,0,0,0,0,0,0,0,0,0,0],"sum_hessian":[6.9E1,5.5E1,1.4E1,2.1E1,3.4E1,1E1,4E0,7E0,1.4E1,5E0,2.9E1,3E0,7E0,3E0,1E0,4E0,3E0,1.3E1,1E0,3E0,2E0,2.3E1,6E0,1E0,2E0,3E0,4E0],"tree_param":{"num_deleted":"0","num_feature":"6","num_nodes":"27","size_leaf_vector":"1"}},{"base_weights":[-2.4677492E-3,1.0044E-2,-4.9013764E-2,-4.128809E-3,2.0802632E-2,7.753432E-3,-1.6409883E-1,-1.6143693E-2,2.9072847E-2,4.5935728E-2,1.1927936E-2,-3.6877647E-2,3.852514E-2,-9.084978E-3,-2.3423985E-3,7.078266E-4,-1.7499268E-3,2.8529996E-4,1.8639194E-3,-7.189719E-4,3.4218677E-3,7.2052056E-4,-1.191287E-3,-2.3379722E-3,-7.351653E-4,2.4327748E-3,-5.5642467E-4],"categories":[],"categories_nodes":[],"categories_segments":[],"categories_sizes":[],"default_left":[0,0,0,0,0,0,0,0,0,0,0,0,0,0,0,0,0,0,0,0,0,0,0,0,0,0,0],"id":43,"left_children":[1,3,5,7,9,11,13,15,17,19,21,23,25,-1,-1,-1,-1,-1,-1,-1,-1,-1,-1,-1,-1,-1,-1],"loss_changes":[4.1258335E-2,8.6247735E-3,9.9268176E-2,1.0442194E-2,6.589636E-3,1.6527839E-2,1.8062443E-3,1.1350271E-2,1.1294526E-3,1.1841608E-2,2.5622793E-3,4.080925E-4,4.062526E-3,0E0,0E0,0E0,0E0,0E0,0E0,0E0,0E0,0E0,0E0,0E0,0E0,0E0,0E0],"parents":[2147483647,0,0,1,1,2,2,3,3,4,4,5,5,6,6,7,7,8,8,9,9,10,10,11,11,12,12],"right_children":[2,4,6,8,10,12,14,16,18,20,22,24,26,-1,-1,-1,-1,-1,-1,-1,-1,-1,-1,-1,-1,-1,-1],"split_conditions":[1.529E3,7.17E2,1.155E3,6.76707E-2,1.05E3,5.709E3,5.558E3,4.305503E-2,1.17E3,3.194809E-2,1.266E3,2.4932721E-1,2.757377E-1,-9.084978E-3,-2.3423985E-3,7.078266E-4,-1.7499268E-3,2.8529996E-4,1.8639194E-3,-7.189719E-4,3.4218677E-3,7.2052056E-4,-1.191287E-3,-2.3379722E-3,-7.351653E-4,2.4327748E-3,-5.5642467E-4],"split_indices":[1,1,4,0,4,1,1,0,4,0,1,0,0,0,0,0,0,0,0,0,0,0,0,0,0,0,0],"split_type":[0,0,0,0,0,0,0,0,0,0,0,0,0,0,0,0,0,0,0,0,0,0,0,0,0,0,0],"sum_hessian":[6.9E1,5.5E1,1.4E1,2.4E1,3.1E1,1E1,4E0,1.8E1,6E0,7E0,2.4E1,4E0,6E0,3E0,1E0,7E0,1.1E1,2E0,4E0,2E0,5E0,2.3E1,1E0,2E0,2E0,5E0,1E0],"tree_param":{"num_deleted":"0","num_feature":"6","num_nodes":"27","size_leaf_vector":"1"}},{"base_weights":[-4.139758E-3,5.802342E-3,-4.098095E-2,-1.6116608E-2,1.0342495E-2,1.6016595E-2,-1.5817936E-1,-2.1630109E-3,1.6963985E-3,7.1760016E-3,2.719619E-3,-3.4114487E-2,3.908006E-2,-8.744291E-3,-2.2838383E-3,-5.830782E-4,7.31513E-4,6.266545E-4,-1.9093659E-3,-2.3454593E-3,-7.1065984E-4,2.8526539E-3,8.442818E-4],"categories":[],"categories_nodes":[],"categories_segments":[],"categories_sizes":[],"default_left":[0,0,0,0,0,0,0,0,0,0,0,0,0,0,0,0,0,0,0,0,0,0,0],"id":44,"left_children":[1,3,5,7,9,11,13,-1,15,17,-1,19,21,-1,-1,-1,-1,-1,-1,-1,-1,-1,-1],"loss_changes":[2.5877304E-2,5.7395464E-3,1.0273382E-1,4.908479E-3,6.165412E-3,1.4051359E-2,1.4093667E-3,0E0,1.3800019E-3,1.1414292E-2,0E0,3.5179406E-4,2.2278288E-3,0E0,0E0,0E0,0E0,0E0,0E0,0E0,0E0,0E0,0E0],"parents":[2147483647,0,0,1,1,2,2,3,3,4,4,5,5,6,6,8,8,9,9,11,11,12,12],"right_children":[2,4,6,8,10,12,14,-1,16,18,-1,20,22,-1,-1,-1,-1,-1,-1,-1,-1,-1,-1],"split_conditions":[3.634E3,-2.9182546E-2,1.155E3,1.05E3,1.414E3,5.709E3,5.558E3,-2.1630109E-3,6.54E2,1.237E3,2.719619E-3,4.814E3,1.05E3,-8.744291E-3,-2.2838383E-3,-5.830782E-4,7.31513E-4,6.266545E-4,-1.9093659E-3,-2.3454593E-3,-7.1065984E-4,2.8526539E-3,8.442818E-4],"split_indices":[1,2,4,4,1,1,1,0,1,1,0,1,4,0,0,0,0,0,0,0,0,0,0],"split_type":[0,0,0,0,0,0,0,0,0,0,0,0,0,0,0,0,0,0,0,0,0,0,0],"sum_hessian":[6.9E1,5.5E1,1.4E1,9E0,4.6E1,1E1,4E0,3E0,6E0,4.4E1,2E0,3E0,7E0,3E0,1E0,3E0,3E0,4E1,4E0,1E0,2E0,3E0,4E0],"tree_param":{"num_deleted":"0","num_feature":"6","num_nodes":"23","size_leaf_vector":"1"}},{"base_weights":[-4.6678404E-3,6.5163933E-3,-5.0669108E-2,-5.284586E-4,1.7259797E-2,-1.3154647E-1,8.879035E-3,-1.0150918E-2,2.226358E-2,-3.0253532E-3,3.3096477E-2,-1.5295665E-1,-6.123893E-4,-1.1184844E-2,2.7167108E-2,3.6452198E-4,-2.5152639E-3,2.5658138E-4,1.5660087E-3,5.660616E-4,-2.252833E-3,4.940553E-4,2.1158261E-3,-2.2868223E-3,-8.41638E-3,-1.5348183E-3,1.6715311E-3,1.7442115E-3,5.197142E-4],"categories":[],"categories_nodes":[],"categories_segments":[],"categories_sizes":[],"default_left":[0,0,0,0,0,0,0,0,0,0,0,0,0,0,0,0,0,0,0,0,0,0,0,0,0,0,0,0,0],"id":45,"left_children":[1,3,5,7,9,11,13,15,17,19,21,23,-1,25,27,-1,-1,-1,-1,-1,-1,-1,-1,-1,-1,-1,-1,-1,-1],"loss_changes":[3.6858894E-2,4.3988917E-3,6.859335E-2,8.121353E-3,7.4888654E-3,1.3451859E-2,3.6062275E-3,1.8575758E-2,1.5460053E-3,7.1431603E-3,2.3644743E-3,5.4166466E-4,0E0,5.3787767E-3,2.8459285E-4,0E0,0E0,0E0,0E0,0E0,0E0,0E0,0E0,0E0,0E0,0E0,0E0,0E0,0E0],"parents":[2147483647,0,0,1,1,2,2,3,3,4,4,5,5,6,6,7,7,8,8,9,9,10,10,11,11,13,13,14,14],"right_children":[2,4,6,8,10,12,14,16,18,20,22,24,-1,26,28,-1,-1,-1,-1,-1,-1,-1,-1,-1,-1,-1,-1,-1,-1],"split_conditions":[2.0540951E-1,9.05E2,5.558E3,6.519301E-2,4.829894E-2,2.679197E-1,6.843E3,4.809006E-2,-1.0110713E-2,4.541181E-2,-2.576226E-2,2.4932721E-1,-6.123893E-4,2.7447352E-1,2.6869828E-1,3.6452198E-4,-2.5152639E-3,2.5658138E-4,1.5660087E-3,5.660616E-4,-2.252833E-3,4.940553E-4,2.1158261E-3,-2.2868223E-3,-8.41638E-3,-1.5348183E-3,1.6715311E-3,1.7442115E-3,5.197142E-4],"split_indices":[0,1,1,0,0,0,1,0,2,0,2,0,0,0,0,0,0,0,0,0,0,0,0,0,0,0,0,0,0],"split_type":[0,0,0,0,0,0,0,0,0,0,0,0,0,0,0,0,0,0,0,0,0,0,0,0,0,0,0,0,0],"sum_hessian":[7E1,5.7E1,1.3E1,3.5E1,2.2E1,5E0,8E0,2.5E1,1E1,1E1,1.2E1,4E0,1E0,4E0,4E0,1.8E1,7E0,4E0,6E0,8E0,2E0,4E0,8E0,1E0,3E0,3E0,1E0,2E0,2E0],"tree_param":{"num_deleted":"0","num_feature":"6","num_nodes":"29","size_leaf_vector":"1"}},{"base_weights":[-1.2980913E-3,1.0284249E-2,-3.3399142E-2,4.4187963E-2,6.375491E-3,9.600832E-3,-1.4711924E-1,2.853472E-3,1.6577164E-2,-1.1496683E-2,1.2320937E-2,-9.269614E-3,3.6306363E-2,-2.1883727E-3,-8.100766E-3,-3.8645547E-4,1.6297428E-3,-1.8904783E-3,7.376706E-5,2.3805208E-3,3.1158183E-4,4.6983687E-4,-2.486728E-3,4.9519114E-4,1.9803054E-3],"categories":[],"categories_nodes":[],"categories_segments":[],"categories_sizes":[],"default_left":[0,0,0,0,0,0,0,0,0,0,0,0,0,0,0,0,0,0,0,0,0,0,0,0,0],"id":46,"left_children":[1,3,5,7,9,11,13,-1,15,17,19,21,23,-1,-1,-1,-1,-1,-1,-1,-1,-1,-1,-1,-1],"loss_changes":[2.5254436E-2,6.344349E-3,8.943177E-2,8.3228946E-4,5.02952E-3,7.3917788E-3,6.066784E-4,0E0,1.4199202E-3,4.1517583E-3,7.224398E-3,7.265338E-3,1.3047736E-4,0E0,0E0,0E0,0E0,0E0,0E0,0E0,0E0,0E0,0E0,0E0,0E0],"parents":[2147483647,0,0,1,1,2,2,3,3,4,4,5,5,6,6,8,8,9,9,10,10,11,11,12,12],"right_children":[2,4,6,8,10,12,14,-1,16,18,20,22,24,-1,-1,-1,-1,-1,-1,-1,-1,-1,-1,-1,-1],"split_conditions":[1.17E3,-1.2846185E-1,6.903521E-2,2.7195245E-1,-2.576226E-2,6.519301E-2,-2.7052212E-1,2.853472E-3,2.7447352E-1,1.035E3,-1.3893275E-2,6.2437598E-2,-3.499041E-2,-2.1883727E-3,-8.100766E-3,-3.8645547E-4,1.6297428E-3,-1.8904783E-3,7.376706E-5,2.3805208E-3,3.1158183E-4,4.6983687E-4,-2.486728E-3,4.9519114E-4,1.9803054E-3],"split_indices":[4,2,0,0,2,0,2,0,0,4,2,0,2,0,0,0,0,0,0,0,0,0,0,0,0],"split_type":[0,0,0,0,0,0,0,0,0,0,0,0,0,0,0,0,0,0,0,0,0,0,0,0,0],"sum_hessian":[6.6E1,4.9E1,1.7E1,4E0,4.5E1,1.3E1,4E0,2E0,2E0,1.1E1,3.4E1,8E0,5E0,1E0,3E0,1E0,1E0,3E0,8E0,4E0,3E1,6E0,2E0,1E0,4E0],"tree_param":{"num_deleted":"0","num_feature":"6","num_nodes":"25","size_leaf_vector":"1"}},{"base_weights":[-6.6013164E-3,4.919235E-3,-4.974331E-2,2.6891432E-3,3.0221003E-3,1.2699207E-3,-1.4182112E-1,5.4635243E-3,-2.2223461E-3,-3.0387072E-2,3.900433E-2,-7.796988E-3,-2.133663E-3,-1.2797637E-4,1.0594123E-3,-2.1299042E-3,-6.8160234E-4,2.7583565E-3,4.9200427E-4],"categories":[],"categories_nodes":[],"categories_segments":[],"categories_sizes":[],"default_left":[0,0,0,0,0,0,0,0,0,0,0,0,0,0,0,0,0,0,0],"id":47,"left_children":[1,3,5,7,-1,9,11,13,-1,15,17,-1,-1,-1,-1,-1,-1,-1,-1],"loss_changes":[3.304799E-2,6.399969E-3,6.594071E-2,7.0430543E-3,0E0,1.3130806E-2,3.44716E-4,6.3622436E-3,0E0,6.4687664E-4,1.814031E-3,0E0,0E0,0E0,0E0,0E0,0E0,0E0,0E0],"parents":[2147483647,0,0,1,1,2,2,3,3,5,5,6,6,7,7,9,9,10,10],"right_children":[2,4,6,8,-1,10,12,14,-1,16,18,-1,-1,-1,-1,-1,-1,-1,-1],"split_conditions":[1.529E3,1.414E3,1.14E3,1.29E3,3.0221003E-3,6.843E3,5.558E3,9.05E2,-2.2223461E-3,2.4932721E-1,2.7195245E-1,-7.796988E-3,-2.133663E-3,-1.2797637E-4,1.0594123E-3,-2.1299042E-3,-6.8160234E-4,2.7583565E-3,4.9200427E-4],"split_indices":[1,1,4,1,0,1,1,1,0,0,0,0,0,0,0,0,0,0,0],"split_type":[0,0,0,0,0,0,0,0,0,0,0,0,0,0,0,0,0,0,0],"sum_hessian":[6.5E1,5.2E1,1.3E1,5.1E1,1E0,9E0,4E0,4.9E1,2E0,5E0,4E0,3E0,1E0,3.3E1,1.6E1,2E0,3E0,2E0,2E0],"tree_param":{"num_deleted":"0","num_feature":"6","num_nodes":"19","size_leaf_vector":"1"}},{"base_weights":[-4.157934E-3,8.201492E-3,-3.48486E-2,-1.1709771E-3,2.2318745E-2,-8.369478E-4,-1.3671617E-1,3.116044E-2,-8.587036E-3,2.6659044E-3,1.5912257E-2,-3.2731503E-2,3.5149045E-2,-7.5046006E-3,-2.0803213E-3,3.525761E-4,1.728596E-3,-3.0509995E-3,-2.0244592E-4,-3.5978438E-4,1.050678E-3,-2.155929E-3,-4.4840077E-4,2.5169083E-3,7.983972E-4],"categories":[],"categories_nodes":[],"categories_segments":[],"categories_sizes":[],"default_left":[0,0,0,0,0,0,0,0,0,0,0,0,0,0,0,0,0,0,0,0,0,0,0,0,0],"id":48,"left_children":[1,3,5,7,9,11,13,15,17,-1,19,21,23,-1,-1,-1,-1,-1,-1,-1,-1,-1,-1,-1,-1],"loss_changes":[2.6458824E-2,6.6418108E-3,6.917927E-2,7.7004978E-3,3.1235265E-3,1.95146E-2,1.16072595E-4,2.4969783E-4,5.9395544E-3,0E0,2.2730576E-3,1.8348098E-3,1.5269555E-3,0E0,0E0,0E0,0E0,0E0,0E0,0E0,0E0,0E0,0E0,0E0,0E0],"parents":[2147483647,0,0,1,1,2,2,3,3,4,4,5,5,6,6,7,7,8,8,10,10,11,11,12,12],"right_children":[2,4,6,8,10,12,14,16,18,-1,20,22,24,-1,-1,-1,-1,-1,-1,-1,-1,-1,-1,-1,-1],"split_conditions":[1.266E3,8.59E2,1.155E3,2.96E2,1.035E3,5.523E3,5.558E3,2.4960836E-2,3.3200867E-2,2.6659044E-3,3.6486782E-2,1.035E3,2.7195245E-1,-7.5046006E-3,-2.0803213E-3,3.525761E-4,1.728596E-3,-3.0509995E-3,-2.0244592E-4,-3.5978438E-4,1.050678E-3,-2.155929E-3,-4.4840077E-4,2.5169083E-3,7.983972E-4],"split_indices":[1,1,4,1,4,1,1,0,0,0,0,4,0,0,0,0,0,0,0,0,0,0,0,0,0],"split_type":[0,0,0,0,0,0,0,0,0,0,0,0,0,0,0,0,0,0,0,0,0,0,0,0,0],"sum_hessian":[6.8E1,4.9E1,1.9E1,3E1,1.9E1,1.5E1,4E0,5E0,2.5E1,2E0,1.7E1,8E0,7E0,3E0,1E0,1E0,4E0,1E0,2.4E1,3E0,1.4E1,5E0,3E0,3E0,4E0],"tree_param":{"num_deleted":"0","num_feature":"6","num_nodes":"25","size_leaf_vector":"1"}},{"base_weights":[-5.25298E-3,3.6620593E-3,-3.9968602E-2,1.6559252E-3,3.0004461E-3,-1.0287737E-1,1.3401397E-2,5.0433734E-3,-3.52597E-2,-1.1617947E-1,-5.7661923E-4,-9.704563E-3,3.3827078E-2,-1.20588185E-4,1.0043817E-3,-1.03125894E-4,-2.1521684E-3,-8.5026905E-4,-6.6306605E-3,-1.4177257E-3,1.6223809E-3,2.4225242E-3,-6.1666354E-4],"categories":[],"categories_nodes":[],"categories_segments":[],"categories_sizes":[],"default_left":[0,0,0,0,0,0,0,0,0,0,0,0,0,0,0,0,0,0,0,0,0,0,0],"id":49,"left_children":[1,3,5,7,-1,9,11,13,15,17,-1,19,21,-1,-1,-1,-1,-1,-1,-1,-1,-1,-1],"loss_changes":[2.273922E-2,6.569952E-3,5.174032E-2,7.430715E-3,0E0,7.16573E-3,4.5758714E-3,6.1049256E-3,1.2032012E-3,7.523671E-3,0E0,4.8507163E-3,3.97266E-3,0E0,0E0,0E0,0E0,0E0,0E0,0E0,0E0,0E0,0E0],"parents":[2147483647,0,0,1,1,2,2,3,3,5,5,6,6,7,7,8,8,9,9,11,11,12,12],"right_children":[2,4,6,8,-1,10,12,14,16,18,-1,20,22,-1,-1,-1,-1,-1,-1,-1,-1,-1,-1],"split_conditions":[1.529E3,1.414E3,5.558E3,1.266E3,3.0004461E-3,2.679197E-1,6.843E3,9.05E2,3.0865198E-2,4.2283E-2,-5.7661923E-4,2.7447352E-1,2.7195245E-1,-1.20588185E-4,1.0043817E-3,-1.03125894E-4,-2.1521684E-3,-8.5026905E-4,-6.6306605E-3,-1.4177257E-3,1.6223809E-3,2.4225242E-3,-6.1666354E-4],"split_indices":[1,1,1,1,0,0,1,1,0,0,0,0,0,0,0,0,0,0,0,0,0,0,0],"split_type":[0,0,0,0,0,0,0,0,0,0,0,0,0,0,0,0,0,0,0,0,0,0,0],"sum_hessian":[7.2E1,5.8E1,1.4E1,5.7E1,1E0,6E0,8E0,5.3E1,4E0,5E0,1E0,4E0,4E0,3.6E1,1.7E1,1E0,3E0,1E0,4E0,3E0,1E0,3E0,1E0],"tree_param":{"num_deleted":"0","num_feature":"6","num_nodes":"23","size_leaf_vector":"1"}},{"base_weights":[-5.6453445E-3,3.4156088E-3,-2.9669726E-2,3.9921567E-2,-5.406761E-4,4.9301554E-3,-6.3767717E-3,2.5017634E-3,1.6500674E-2,-1.758214E-2,5.1548313E-3,-1.747339E-2,3.3030406E-2,-3.4427084E-4,1.5818215E-3,-1.7476742E-3,-2.2636424E-4,2.1802236E-3,-5.0700673E-5,7.836457E-4,-1.8329349E-3,4.940866E-4,1.7620781E-3],"categories":[],"categories_nodes":[],"categories_segments":[],"categories_sizes":[],"default_left":[0,0,0,0,0,0,0,0,0,0,0,0,0,0,0,0,0,0,0,0,0,0,0],"id":50,"left_children":[1,3,5,7,9,11,-1,-1,13,15,17,19,21,-1,-1,-1,-1,-1,-1,-1,-1,-1,-1],"loss_changes":[1.5121521E-2,7.387411E-3,6.496546E-2,3.587436E-4,4.6524433E-3,1.00203315E-2,0E0,0E0,1.2797285E-3,2.56312E-3,8.583049E-3,6.2978463E-3,1.0049902E-5,0E0,0E0,0E0,0E0,0E0,0E0,0E0,0E0,0E0,0E0],"parents":[2147483647,0,0,1,1,2,2,3,3,4,4,5,5,8,8,9,9,10,10,11,11,12,12],"right_children":[2,4,6,8,10,12,-1,-1,14,16,18,20,22,-1,-1,-1,-1,-1,-1,-1,-1,-1,-1],"split_conditions":[1.17E3,-1.2846185E-1,6.903521E-2,2.7195245E-1,-2.576226E-2,6.519301E-2,-6.3767717E-3,2.5017634E-3,2.7447352E-1,1.05E3,-1.3893275E-2,3.9486974E-2,-3.499041E-2,-3.4427084E-4,1.5818215E-3,-1.7476742E-3,-2.2636424E-4,2.1802236E-3,-5.0700673E-5,7.836457E-4,-1.8329349E-3,4.940866E-4,1.7620781E-3],"split_indices":[4,2,0,0,2,0,0,0,0,4,2,0,2,0,0,0,0,0,0,0,0,0,0],"split_type":[0,0,0,0,0,0,0,0,0,0,0,0,0,0,0,0,0,0,0,0,0,0,0],"sum_hessian":[6.8E1,5E1,1.8E1,4E0,4.6E1,1.4E1,4E0,2E0,2E0,1.1E1,3.5E1,8E0,6E0,1E0,1E0,4E0,7E0,4E0,3.1E1,3E0,5E0,1E0,5E0],"tree_param":{"num_deleted":"0","num_feature":"6","num_nodes":"23","size_leaf_vector":"1"}},{"base_weights":[7.565641E-5,8.06769E-3,-3.1364717E-2,-1.27415005E-2,1.2068174E-2,1.2881763E-2,-1.22434035E-1,-1.6777674E-3,6.726954E-3,2.3392683E-2,4.967116E-3,-1.9632615E-3,2.2022985E-2,-1.8334523E-3,-6.7354008E-3,-8.890033E-4,7.592185E-4,-3.1467247E-5,1.872899E-3,-5.8665995E-5,1.5885612E-3,2.2697689E-3,2.7605958E-4],"categories":[],"categories_nodes":[],"categories_segments":[],"categories_sizes":[],"default_left":[0,0,0,0,0,0,0,0,0,0,0,0,0,0,0,0,0,0,0,0,0,0,0],"id":51,"left_children":[1,3,5,7,9,11,13,-1,15,17,19,-1,21,-1,-1,-1,-1,-1,-1,-1,-1,-1,-1],"loss_changes":[1.8595936E-2,5.0653303E-3,6.201962E-2,4.27786E-3,3.9046067E-3,6.108297E-3,3.2377243E-4,0E0,1.5135757E-3,6.443235E-3,5.3041223E-3,0E0,3.6062268E-3,0E0,0E0,0E0,0E0,0E0,0E0,0E0,0E0,0E0,0E0],"parents":[2147483647,0,0,1,1,2,2,3,3,4,4,5,5,6,6,8,8,9,9,10,10,12,12],"right_children":[2,4,6,8,10,12,14,-1,16,18,20,-1,22,-1,-1,-1,-1,-1,-1,-1,-1,-1,-1],"split_conditions":[2.0540951E-1,-3.6279768E-2,1.155E3,1.05E3,1.095E3,2.4932721E-1,-2.7052212E-1,-1.6777674E-3,-1.2629125E-1,3.4892183E-2,6.76707E-2,-1.9632615E-3,1.05E3,-1.8334523E-3,-6.7354008E-3,-8.890033E-4,7.592185E-4,-3.1467247E-5,1.872899E-3,-5.8665995E-5,1.5885612E-3,2.2697689E-3,2.7605958E-4],"split_indices":[0,2,4,4,4,0,2,0,2,0,0,0,4,0,0,0,0,0,0,0,0,0,0],"split_type":[0,0,0,0,0,0,0,0,0,0,0,0,0,0,0,0,0,0,0,0,0,0,0],"sum_hessian":[7.2E1,5.8E1,1.4E1,9E0,4.9E1,1E1,4E0,4E0,5E0,1.8E1,3.1E1,1E0,9E0,1E0,3E0,1E0,4E0,7E0,1.1E1,2.6E1,5E0,3E0,6E0],"tree_param":{"num_deleted":"0","num_feature":"6","num_nodes":"23","size_leaf_vector":"1"}},{"base_weights":[-2.8100193E-3,3.427058E-3,-3.1380374E-2,-9.533521E-3,8.772718E-3,2.0242857E-2,-1.18026115E-1,-1.6106566E-3,-7.526938E-4,1.677895E-2,-1.2733975E-3,-1.9141801E-3,3.2344114E-2,-1.7876163E-3,-6.482824E-3,3.6873235E-4,-1.6505579E-3,2.104862E-3,1.9387323E-4,-2.4575393E-3,6.8839366E-4,2.2676948E-3,3.9979286E-4],"categories":[],"categories_nodes":[],"categories_segments":[],"categories_sizes":[],"default_left":[0,0,0,0,0,0,0,0,0,0,0,0,0,0,0,0,0,0,0,0,0,0,0],"id":52,"left_children":[1,3,5,7,9,11,13,-1,15,17,19,-1,21,-1,-1,-1,-1,-1,-1,-1,-1,-1,-1],"loss_changes":[1.2937618E-2,4.2406055E-3,6.0537316E-2,3.5603768E-3,3.4799224E-3,7.6124426E-3,1.4885515E-4,0E0,3.913903E-3,7.6762135E-3,1.5079437E-2,0E0,2.171481E-3,0E0,0E0,0E0,0E0,0E0,0E0,0E0,0E0,0E0,0E0],"parents":[2147483647,0,0,1,1,2,2,3,3,4,4,5,5,6,6,8,8,9,9,10,10,12,12],"right_children":[2,4,6,8,10,12,14,-1,16,18,20,-1,22,-1,-1,-1,-1,-1,-1,-1,-1,-1,-1],"split_conditions":[2.0540951E-1,-1.5173816E-2,1.155E3,1.05E3,1.8890444E-2,2.4932721E-1,-2.7052212E-1,-1.6106566E-3,-1.6650395E-2,1.035E3,1.035E3,-1.9141801E-3,1.08E3,-1.7876163E-3,-6.482824E-3,3.6873235E-4,-1.6505579E-3,2.104862E-3,1.9387323E-4,-2.4575393E-3,6.8839366E-4,2.2676948E-3,3.9979286E-4],"split_indices":[0,2,4,4,2,0,2,0,2,4,4,0,4,0,0,0,0,0,0,0,0,0,0],"split_type":[0,0,0,0,0,0,0,0,0,0,0,0,0,0,0,0,0,0,0,0,0,0,0],"sum_hessian":[7.1E1,5.9E1,1.2E1,1.7E1,4.2E1,8E0,4E0,4E0,1.3E1,2.3E1,1.9E1,1E0,7E0,1E0,3E0,1.1E1,2E0,7E0,1.6E1,4E0,1.5E1,4E0,3E0],"tree_param":{"num_deleted":"0","num_feature":"6","num_nodes":"23","size_leaf_vector":"1"}},{"base_weights":[-2.6360315E-3,4.897345E-3,-2.3114955E-2,3.6152184E-2,2.2459836E-3,2.8761583E-3,-1.2130067E-1,2.9620907E-4,2.212673E-3,-3.022277E-3,4.811339E-3,-2.1338893E-2,2.9758573E-2,-6.9247605E-3,-1.7429263E-3,9.458914E-4,-4.843619E-5,7.4525905E-4,-2.0972562E-3,2.0996141E-3,7.009945E-4],"categories":[],"categories_nodes":[],"categories_segments":[],"categories_sizes":[],"default_left":[0,0,0,0,0,0,0,0,0,0,0,0,0,0,0,0,0,0,0,0,0],"id":53,"left_children":[1,3,5,7,9,11,13,-1,-1,-1,15,17,19,-1,-1,-1,-1,-1,-1,-1,-1],"loss_changes":[1.0912483E-2,4.2279325E-3,4.883604E-2,7.173754E-4,8.1713E-3,1.1050359E-2,1.1175945E-3,0E0,0E0,0E0,3.9320737E-3,7.3468853E-3,9.5161283E-4,0E0,0E0,0E0,0E0,0E0,0E0,0E0,0E0],"parents":[2147483647,0,0,1,1,2,2,3,3,4,4,5,5,6,6,10,10,11,11,12,12],"right_children":[2,4,6,8,10,12,14,-1,-1,-1,16,18,20,-1,-1,-1,-1,-1,-1,-1,-1],"split_conditions":[1.266E3,3.233609E-2,1.155E3,2.4960836E-2,3.3200867E-2,5.709E3,5.447E3,2.9620907E-4,2.212673E-3,-3.022277E-3,4.2361226E-2,4.541181E-2,2.7195245E-1,-6.9247605E-3,-1.7429263E-3,9.458914E-4,-4.843619E-5,7.4525905E-4,-2.0972562E-3,2.0996141E-3,7.009945E-4],"split_indices":[1,0,4,0,0,1,1,0,0,0,0,0,0,0,0,0,0,0,0,0,0],"split_type":[0,0,0,0,0,0,0,0,0,0,0,0,0,0,0,0,0,0,0,0,0],"sum_hessian":[6.9E1,5.1E1,1.8E1,3E0,4.8E1,1.5E1,3E0,1E0,2E0,1E0,4.7E1,8E0,7E0,2E0,1E0,1.3E1,3.4E1,3E0,5E0,3E0,4E0],"tree_param":{"num_deleted":"0","num_feature":"6","num_nodes":"21","size_leaf_vector":"1"}},{"base_weights":[-1.6997308E-3,4.7482084E-3,-3.0336712E-2,1.4866791E-3,2.8298397E-2,-5.5614077E-3,1.7973727E-2,-1.41638145E-2,9.493028E-3,5.6111347E-4,1.6442196E-3,2.871721E-2,-1.6993538E-3,-3.7328206E-4,-2.2583068E-3,8.377439E-4,-5.1685446E-4,2.401779E-3,3.7595376E-4],"categories":[],"categories_nodes":[],"categories_segments":[],"categories_sizes":[],"default_left":[0,0,0,0,0,0,0,0,0,0,0,0,0,0,0,0,0,0,0],"id":54,"left_children":[1,3,5,7,9,-1,11,13,15,-1,-1,17,-1,-1,-1,-1,-1,-1,-1],"loss_changes":[1.3069511E-2,4.412888E-3,5.2801896E-2,6.6502295E-3,1.7914036E-4,0E0,6.000175E-3,3.4006655E-3,5.2133147E-3,0E0,0E0,2.9149237E-3,0E0,0E0,0E0,0E0,0E0,0E0,0E0],"parents":[2147483647,0,0,1,1,2,2,3,3,4,4,6,6,7,7,8,8,11,11],"right_children":[2,4,6,8,10,-1,12,14,16,-1,-1,18,-1,-1,-1,-1,-1,-1,-1],"split_conditions":[6.9991454E-2,6.76707E-2,5.558E3,7.17E2,6.8206914E-2,-5.5614077E-3,1.155E3,2.50108E-2,5.935845E-2,5.6111347E-4,1.6442196E-3,-1.2846185E-1,-1.6993538E-3,-3.7328206E-4,-2.2583068E-3,8.377439E-4,-5.1685446E-4,2.401779E-3,3.7595376E-4],"split_indices":[0,0,1,1,0,0,4,2,0,0,0,2,0,0,0,0,0,0,0],"split_type":[0,0,0,0,0,0,0,0,0,0,0,0,0,0,0,0,0,0,0],"sum_hessian":[6.9E1,5.7E1,1.2E1,5.1E1,6E0,4E0,8E0,1.7E1,3.4E1,2E0,4E0,7E0,1E0,1.5E1,2E0,2.5E1,9E0,3E0,4E0],"tree_param":{"num_deleted":"0","num_feature":"6","num_nodes":"19","size_leaf_vector":"1"}},{"base_weights":[-1.8310192E-3,4.714184E-3,-2.7453417E-2,-8.347588E-3,1.0199844E-2,-1.1437692E-1,3.8088684E-3,-1.9058533E-2,4.4809706E-3,6.884484E-3,2.5502346E-3,-1.6748592E-3,-6.5085553E-3,-1.8831015E-2,2.9587254E-2,-1.3184836E-3,3.3953425E-4,9.2410494E-4,-5.208175E-4,1.0227739E-3,1.6889575E-5,-1.5810793E-3,1.4478104E-3,2.3507124E-3,4.5600973E-4],"categories":[],"categories_nodes":[],"categories_segments":[],"categories_sizes":[],"default_left":[0,0,0,0,0,0,0,0,0,0,0,0,0,0,0,0,0,0,0,0,0,0,0,0,0],"id":55,"left_children":[1,3,5,7,9,11,13,15,17,19,-1,-1,-1,21,23,-1,-1,-1,-1,-1,-1,-1,-1,-1,-1],"loss_changes":[1.2371797E-2,4.3126373E-3,4.1197058E-2,2.5587084E-3,5.330734E-3,7.493533E-4,7.5605935E-3,2.0689403E-3,2.0697294E-3,3.546895E-3,0E0,0E0,0E0,5.1942226E-3,1.7112968E-3,0E0,0E0,0E0,0E0,0E0,0E0,0E0,0E0,0E0,0E0],"parents":[2147483647,0,0,1,1,2,2,3,3,4,4,5,5,6,6,7,7,8,8,9,9,13,13,14,14],"right_children":[2,4,6,8,10,12,14,16,18,20,-1,-1,-1,22,24,-1,-1,-1,-1,-1,-1,-1,-1,-1,-1],"split_conditions":[2.0540951E-1,-1.5173816E-2,5.447E3,7.98E2,1.352E3,2.4932721E-1,6.843E3,6.651911E-2,1.115E3,3.0278487E-3,2.5502346E-3,-1.6748592E-3,-6.5085553E-3,2.7447352E-1,7.164E3,-1.3184836E-3,3.3953425E-4,9.2410494E-4,-5.208175E-4,1.0227739E-3,1.6889575E-5,-1.5810793E-3,1.4478104E-3,2.3507124E-3,4.5600973E-4],"split_indices":[0,2,1,1,1,0,1,0,1,2,0,0,0,0,1,0,0,0,0,0,0,0,0,0,0],"split_type":[0,0,0,0,0,0,0,0,0,0,0,0,0,0,0,0,0,0,0,0,0,0,0,0,0],"sum_hessian":[7.2E1,5.8E1,1.4E1,1.7E1,4.1E1,3E0,1.1E1,9E0,8E0,3.9E1,2E0,1E0,2E0,6E0,5E0,7E0,2E0,4E0,4E0,1.2E1,2.7E1,5E0,1E0,2E0,3E0],"tree_param":{"num_deleted":"0","num_feature":"6","num_nodes":"25","size_leaf_vector":"1"}},{"base_weights":[1.4390863E-3,9.917085E-3,-1.760401E-2,2.6693225E-2,3.402602E-3,-4.008465E-2,1.6824026E-2,2.4285363E-3,6.948448E-3,-7.8928415E-3,2.312511E-2,-6.2150275E-4,-7.382142E-2,-4.449981E-4,2.544516E-2,-8.9197507E-4,9.0921734E-4,-1.1668926E-3,1.1991892E-3,-7.61778E-4,1.3795731E-3,-1.5384693E-3,1.4840878E-3,-4.5910696E-3,8.544613E-4,1.7718181E-3,1.5571744E-5],"categories":[],"categories_nodes":[],"categories_segments":[],"categories_sizes":[],"default_left":[0,0,0,0,0,0,0,0,0,0,0,0,0,0,0,0,0,0,0,0,0,0,0,0,0,0,0],"id":56,"left_children":[1,3,5,7,9,11,13,-1,15,17,19,21,23,-1,25,-1,-1,-1,-1,-1,-1,-1,-1,-1,-1,-1,-1],"loss_changes":[1.0991554E-2,5.045704E-3,1.6927633E-2,5.2780714E-3,7.97963E-3,1.726179E-2,2.22239E-3,0E0,2.552519E-3,1.1883431E-2,2.6476905E-3,7.308343E-3,1.3023883E-2,0E0,1.746777E-3,0E0,0E0,0E0,0E0,0E0,0E0,0E0,0E0,0E0,0E0,0E0,0E0],"parents":[2147483647,0,0,1,1,2,2,3,3,4,4,5,5,6,6,8,8,9,9,10,10,11,11,12,12,14,14],"right_children":[2,4,6,8,10,12,14,-1,16,18,20,22,24,-1,26,-1,-1,-1,-1,-1,-1,-1,-1,-1,-1,-1,-1],"split_conditions":[1.266E3,4.0369306E-2,2.679197E-1,1.7171215E-3,8.59E2,5.935845E-2,5.709E3,2.4285363E-3,3.5643198E-2,6.76707E-2,4.829894E-2,1.414E3,6.3E3,-4.449981E-4,7.164E3,-8.9197507E-4,9.0921734E-4,-1.1668926E-3,1.1991892E-3,-7.61778E-4,1.3795731E-3,-1.5384693E-3,1.4840878E-3,-4.5910696E-3,8.544613E-4,1.7718181E-3,1.5571744E-5],"split_indices":[1,0,0,2,1,0,1,0,0,0,0,1,1,0,1,0,0,0,0,0,0,0,0,0,0,0,0],"split_type":[0,0,0,0,0,0,0,0,0,0,0,0,0,0,0,0,0,0,0,0,0,0,0,0,0,0,0],"sum_hessian":[6.6E1,4.6E1,2E1,1.2E1,3.4E1,1.2E1,8E0,5E0,7E0,2.2E1,1.2E1,6E0,6E0,2E0,6E0,2E0,5E0,1.5E1,7E0,1E0,1.1E1,3E0,3E0,5E0,1E0,4E0,2E0],"tree_param":{"num_deleted":"0","num_feature":"6","num_nodes":"27","size_leaf_vector":"1"}},{"base_weights":[-3.155358E-3,3.1692719E-3,-2.958377E-2,2.66769E-2,4.986228E-4,-4.6613384E-3,1.613198E-2,2.1185307E-4,1.5158728E-3,-1.3597065E-2,7.3425076E-3,1.9543695E-3,3.9893785E-3,-2.1318553E-3,4.259802E-5,6.6690665E-4,-4.020764E-4,-5.4007256E-4,8.8914315E-4],"categories":[],"categories_nodes":[],"categories_segments":[],"categories_sizes":[],"default_left":[0,0,0,0,0,0,0,0,0,0,0,0,0,0,0,0,0,0,0],"id":57,"left_children":[1,3,5,7,9,-1,11,-1,-1,13,15,-1,17,-1,-1,-1,-1,-1,-1],"loss_changes":[1.2128554E-2,3.6907555E-3,4.223676E-2,3.617038E-4,5.3091766E-3,0E0,2.352711E-3,0E0,0E0,7.5891307E-3,3.5200252E-3,0E0,1.6202003E-3,0E0,0E0,0E0,0E0,0E0,0E0],"parents":[2147483647,0,0,1,1,2,2,3,3,4,4,6,6,9,9,10,10,12,12],"right_children":[2,4,6,8,10,-1,12,-1,-1,14,16,-1,18,-1,-1,-1,-1,-1,-1],"split_conditions":[2.0540951E-1,2.96E2,2.679197E-1,2.4960836E-2,7.17E2,-4.6613384E-3,1.05E3,2.1185307E-4,1.5158728E-3,1.065E3,5.935845E-2,1.9543695E-3,2.7447352E-1,-2.1318553E-3,4.259802E-5,6.6690665E-4,-4.020764E-4,-5.4007256E-4,8.8914315E-4],"split_indices":[0,1,0,0,1,0,4,0,0,4,0,0,0,0,0,0,0,0,0],"split_type":[0,0,0,0,0,0,0,0,0,0,0,0,0,0,0,0,0,0,0],"sum_hessian":[7.1E1,5.8E1,1.3E1,5E0,5.3E1,5E0,8E0,1E0,4E0,1.7E1,3.6E1,2E0,6E0,5E0,1.2E1,2.6E1,1E1,3E0,3E0],"tree_param":{"num_deleted":"0","num_feature":"6","num_nodes":"19","size_leaf_vector":"1"}},{"base_weights":[-4.293329E-3,1.1199478E-3,-2.3855789E-2,-9.7455585E-4,2.8068507E-2,1.1104554E-2,-9.599738E-2,2.2544102E-3,-3.1777717E-2,-7.834394E-4,2.3935267E-3,-2.0199206E-2,2.5368365E-2,-5.983192E-3,-2.01659E-3,1.588093E-3,-2.0928615E-5,-5.526332E-5,-1.9584757E-3,-1.401677E-3,-4.121624E-4,1.8917343E-3,5.160817E-4],"categories":[],"categories_nodes":[],"categories_segments":[],"categories_sizes":[],"default_left":[0,0,0,0,0,0,0,0,0,0,0,0,0,0,0,0,0,0,0,0,0,0,0],"id":58,"left_children":[1,3,5,7,9,11,13,15,17,-1,-1,19,21,-1,-1,-1,-1,-1,-1,-1,-1,-1,-1],"loss_changes":[7.33361E-3,3.1317663E-3,3.8897432E-2,5.243683E-3,4.214422E-3,5.4240404E-3,1.7607771E-3,3.7991935E-3,1.0903296E-3,0E0,0E0,1.4358049E-4,1.110103E-3,0E0,0E0,0E0,0E0,0E0,0E0,0E0,0E0,0E0,0E0],"parents":[2147483647,0,0,1,1,2,2,3,3,4,4,5,5,6,6,7,7,8,8,11,11,12,12],"right_children":[2,4,6,8,10,12,14,16,18,-1,-1,20,22,-1,-1,-1,-1,-1,-1,-1,-1,-1,-1],"split_conditions":[2.0540951E-1,1.414E3,1.155E3,1.266E3,4.2283E-2,5.709E3,5.447E3,3.233609E-2,3.0865198E-2,-7.834394E-4,2.3935267E-3,2.4932721E-1,2.7195245E-1,-5.983192E-3,-2.01659E-3,1.588093E-3,-2.0928615E-5,-5.526332E-5,-1.9584757E-3,-1.401677E-3,-4.121624E-4,1.8917343E-3,5.160817E-4],"split_indices":[0,1,4,1,0,1,1,0,0,0,0,0,0,0,0,0,0,0,0,0,0,0,0],"split_type":[0,0,0,0,0,0,0,0,0,0,0,0,0,0,0,0,0,0,0,0,0,0,0],"sum_hessian":[6.8E1,5.4E1,1.4E1,5.1E1,3E0,1E1,4E0,4.7E1,4E0,1E0,2E0,3E0,7E0,2E0,2E0,3E0,4.4E1,1E0,3E0,1E0,2E0,3E0,4E0],"tree_param":{"num_deleted":"0","num_feature":"6","num_nodes":"23","size_leaf_vector":"1"}},{"base_weights":[-3.7167077E-3,1.6168652E-3,-2.7226746E-2,-1.1669761E-2,9.473322E-3,-8.644213E-2,2.0588132E-2,1.5401725E-2,-2.8239304E-2,1.3173347E-2,-5.5859364E-3,-1.0042264E-1,-1.9493699E-3,-3.9842376E-4,3.143508E-2,1.4399849E-3,-5.382959E-5,-3.1669755E-3,-3.9326362E-4,2.2160604E-3,4.6828E-4,-1.5295789E-3,1.3533802E-3,-1.3666354E-3,-5.783753E-3,5.9859396E-4,1.9086857E-3],"categories":[],"categories_nodes":[],"categories_segments":[],"categories_sizes":[],"default_left":[0,0,0,0,0,0,0,0,0,0,0,0,0,0,0,0,0,0,0,0,0,0,0,0,0,0,0],"id":59,"left_children":[1,3,5,7,9,11,13,15,17,19,21,23,-1,-1,25,-1,-1,-1,-1,-1,-1,-1,-1,-1,-1,-1,-1],"loss_changes":[8.821497E-3,6.1649284E-3,3.858757E-2,1.0303303E-2,2.1352118E-3,6.5434724E-5,2.7285062E-3,2.0179898E-3,9.513674E-3,3.143E-3,7.3602227E-3,1.2974776E-3,0E0,0E0,3.2992102E-4,0E0,0E0,0E0,0E0,0E0,0E0,0E0,0E0,0E0,0E0,0E0,0E0],"parents":[2147483647,0,0,1,1,2,2,3,3,4,4,5,5,6,6,7,7,8,8,9,9,10,10,11,11,14,14],"right_children":[2,4,6,8,10,12,14,16,18,20,22,24,-1,-1,26,-1,-1,-1,-1,-1,-1,-1,-1,-1,-1,-1,-1],"split_conditions":[2.0540951E-1,7.17E2,2.679197E-1,3.73E2,1.266E3,5.447E3,5.709E3,2.96E2,1.035E3,1.035E3,1.414E3,2.4932721E-1,-1.9493699E-3,-3.9842376E-4,6.843E3,1.4399849E-3,-5.382959E-5,-3.1669755E-3,-3.9326362E-4,2.2160604E-3,4.6828E-4,-1.5295789E-3,1.3533802E-3,-1.3666354E-3,-5.783753E-3,5.9859396E-4,1.9086857E-3],"split_indices":[0,1,0,1,1,1,1,1,4,4,1,0,0,0,1,0,0,0,0,0,0,0,0,0,0,0,0],"split_type":[0,0,0,0,0,0,0,0,0,0,0,0,0,0,0,0,0,0,0,0,0,0,0,0,0,0,0],"sum_hessian":[6.9E1,5.7E1,1.2E1,2.1E1,3.6E1,5E0,7E0,8E0,1.3E1,2.9E1,7E0,3E0,2E0,2E0,5E0,4E0,4E0,4E0,9E0,2E0,2.7E1,4E0,3E0,1E0,2E0,2E0,3E0],"tree_param":{"num_deleted":"0","num_feature":"6","num_nodes":"27","size_leaf_vector":"1"}},{"base_weights":[-4.3203225E-3,3.3244714E-3,-3.6331348E-2,1.4775323E-3,2.5764797E-3,-6.1870668E-2,1.6905693E-2,4.431385E-3,-3.6553472E-2,-7.6246776E-2,-3.8514286E-4,-4.492631E-4,1.2812375E-3,5.7499303E-5,1.0962578E-3,-5.646374E-4,-2.0604732E-3,-1.3897155E-3,-4.5034452E-3],"categories":[],"categories_nodes":[],"categories_segments":[],"categories_sizes":[],"default_left":[0,0,0,0,0,0,0,0,0,0,0,0,0,0,0,0,0,0,0],"id":60,"left_children":[1,3,5,7,-1,9,11,13,15,17,-1,-1,-1,-1,-1,-1,-1,-1,-1],"loss_changes":[1.651687E-2,4.8206197E-3,1.872126E-2,6.228234E-3,0E0,6.4211786E-3,1.3589683E-3,2.9023928E-3,5.086884E-6,2.1846108E-3,0E0,0E0,0E0,0E0,0E0,0E0,0E0,0E0,0E0],"parents":[2147483647,0,0,1,1,2,2,3,3,5,5,6,6,7,7,8,8,9,9],"right_children":[2,4,6,8,-1,10,12,14,16,18,-1,-1,-1,-1,-1,-1,-1,-1,-1],"split_conditions":[1.529E3,1.414E3,6.3E3,1.266E3,2.5764797E-3,2.679197E-1,6.843E3,6.76707E-2,3.194809E-2,-1.1564181E-1,-3.8514286E-4,-4.492631E-4,1.2812375E-3,5.7499303E-5,1.0962578E-3,-5.646374E-4,-2.0604732E-3,-1.3897155E-3,-4.5034452E-3],"split_indices":[1,1,1,1,0,0,1,0,0,2,0,0,0,0,0,0,0,0,0],"split_type":[0,0,0,0,0,0,0,0,0,0,0,0,0,0,0,0,0,0,0],"sum_hessian":[6.6E1,5.4E1,1.2E1,5.3E1,1E0,8E0,4E0,5E1,3E0,6E0,2E0,1E0,3E0,4.3E1,7E0,1E0,2E0,2E0,4E0],"tree_param":{"num_deleted":"0","num_feature":"6","num_nodes":"19","size_leaf_vector":"1"}},{"base_weights":[-7.668985E-4,5.075538E-3,-2.8454565E-2,3.412357E-2,9.890328E-4,4.6756314E-3,-9.588386E-2,-7.629452E-4,4.489713E-2,-3.4616314E-2,5.6117075E-3,1.4972641E-3,-6.822166E-3,-5.4408475E-3,-1.4271155E-3,2.6944387E-3,-1.5263097E-6,1.5951594E-4,-2.7158605E-3,4.0155657E-5,8.878181E-4,-1.0964873E-3,1.0315593E-3],"categories":[],"categories_nodes":[],"categories_segments":[],"categories_sizes":[],"default_left":[0,0,0,0,0,0,0,0,0,0,0,0,0,0,0,0,0,0,0,0,0,0,0],"id":61,"left_children":[1,3,5,7,9,11,13,-1,15,17,19,-1,21,-1,-1,-1,-1,-1,-1,-1,-1,-1,-1],"loss_changes":[1.1144335E-2,6.7324312E-3,2.7255667E-2,4.4092583E-3,8.588446E-3,2.8191996E-3,3.7784874E-4,0E0,2.4254853E-3,4.6422356E-3,2.6720809E-3,0E0,3.3557124E-3,0E0,0E0,0E0,0E0,0E0,0E0,0E0,0E0,0E0,0E0],"parents":[2147483647,0,0,1,1,2,2,3,3,4,4,5,5,6,6,8,8,9,9,10,10,12,12],"right_children":[2,4,6,8,10,12,14,-1,16,18,20,-1,22,-1,-1,-1,-1,-1,-1,-1,-1,-1,-1],"split_conditions":[2.0540951E-1,1.005E3,1.155E3,-1.1564181E-1,1.035E3,-2.0516844E-1,1.1375845E-2,-7.629452E-4,1.2639669E-2,-1.3893275E-2,2.4048164E-2,1.4972641E-3,6.437882E-2,-5.4408475E-3,-1.4271155E-3,2.6944387E-3,-1.5263097E-6,1.5951594E-4,-2.7158605E-3,4.0155657E-5,8.878181E-4,-1.0964873E-3,1.0315593E-3],"split_indices":[0,4,4,2,4,2,2,0,2,2,2,0,2,0,0,0,0,0,0,0,0,0,0],"split_type":[0,0,0,0,0,0,0,0,0,0,0,0,0,0,0,0,0,0,0,0,0,0,0],"sum_hessian":[6.7E1,5.6E1,1.1E1,6E0,5E1,8E0,3E0,1E0,5E0,5E0,4.5E1,2E0,6E0,2E0,1E0,4E0,1E0,2E0,3E0,3.3E1,1.2E1,4E0,2E0],"tree_param":{"num_deleted":"0","num_feature":"6","num_nodes":"23","size_leaf_vector":"1"}},{"base_weights":[-2.0583414E-3,3.930873E-3,-2.983648E-2,2.4884904E-2,1.8404683E-3,-8.37851E-2,7.6109683E-3,6.205635E-5,1.5242783E-3,-1.39762E-2,6.9348738E-3,-1.1924707E-3,-9.280667E-2,1.5076083E-2,-1.1161208E-3,-2.9594754E-3,-2.6379825E-4,5.122206E-4,-9.1403903E-4,-5.259486E-3,-1.3914377E-3,-2.387263E-4,9.590136E-4],"categories":[],"categories_nodes":[],"categories_segments":[],"categories_sizes":[],"default_left":[0,0,0,0,0,0,0,0,0,0,0,0,0,0,0,0,0,0,0,0,0,0,0],"id":62,"left_children":[1,3,5,7,9,11,13,-1,-1,15,17,-1,19,21,-1,-1,-1,-1,-1,-1,-1,-1,-1],"loss_changes":[1.1264021E-2,2.4071345E-3,2.4880543E-2,6.242676E-4,4.286902E-3,4.9018115E-4,2.1241836E-3,0E0,0E0,4.8014806E-3,3.5253628E-3,0E0,2.9120222E-4,6.618713E-4,0E0,0E0,0E0,0E0,0E0,0E0,0E0,0E0,0E0],"parents":[2147483647,0,0,1,1,2,2,3,3,4,4,5,5,6,6,9,9,10,10,12,12,13,13],"right_children":[2,4,6,8,10,12,14,-1,-1,16,18,-1,20,22,-1,-1,-1,-1,-1,-1,-1,-1,-1],"split_conditions":[2.0540951E-1,2.96E2,5.558E3,2.4960836E-2,6.12E2,2.4932721E-1,1.155E3,6.205635E-5,1.5242783E-3,3.3200867E-2,1.185E3,-1.1924707E-3,5.447E3,5.709E3,-1.1161208E-3,-2.9594754E-3,-2.6379825E-4,5.122206E-4,-9.1403903E-4,