{"learner":{"attributes":{"scikit_learn":"{\"_estimator_type\": \"classifier\"}"},"feature_names":["atr14_m15_pct","rvol15","ret_15m","usd_basket_d1h_pct","tod_min","dow"],"feature_types":["float","float","float","float","float","float"],"gradient_booster":{"model":{"cats":{"enc":[],"feature_segments":[],"sorted_idx":[]},"gbtree_model_param":{"num_parallel_tree":"1","num_trees":"200"},"iteration_indptr":[0,1,2,3,4,5,6,7,8,9,10,11,12,13,14,15,16,17,18,19,20,21,22,23,24,25,26,27,28,29,30,31,32,33,34,35,36,37,38,39,40,41,42,43,44,45,46,47,48,49,50,51,52,53,54,55,56,57,58,59,60,61,62,63,64,65,66,67,68,69,70,71,72,73,74,75,76,77,78,79,80,81,82,83,84,85,86,87,88,89,90,91,92,93,94,95,96,97,98,99,100,101,102,103,104,105,106,107,108,109,110,111,112,113,114,115,116,117,118,119,120,121,122,123,124,125,126,127,128,129,130,131,132,133,134,135,136,137,138,139,140,141,142,143,144,145,146,147,148,149,150,151,152,153,154,155,156,157,158,159,160,161,162,163,164,165,166,167,168,169,170,171,172,173,174,175,176,177,178,179,180,181,182,183,184,185,186,187,188,189,190,191,192,193,194,195,196,197,198,199,200],"tree_info":[0,0,0,0,0,0,0,0,0,0,0,0,0,0,0,0,0,0,0,0,0,0,0,0,0,0,0,0,0,0,0,0,0,0,0,0,0,0,0,0,0,0,0,0,0,0,0,0,0,0,0,0,0,0,0,0,0,0,0,0,0,0,0,0,0,0,0,0,0,0,0,0,0,0,0,0,0,0,0,0,0,0,0,0,0,0,0,0,0,0,0,0,0,0,0,0,0,0,0,0,0,0,0,0,0,0,0,0,0,0,0,0,0,0,0,0,0,0,0,0,0,0,0,0,0,0,0,0,0,0,0,0,0,0,0,0,0,0,0,0,0,0,0,0,0,0,0,0,0,0,0,0,0,0,0,0,0,0,0,0,0,0,0,0,0,0,0,0,0,0,0,0,0,0,0,0,0,0,0,0,0,0,0,0,0,0,0,0,0,0,0,0,0,0,0,0,0,0,0,0],"trees":[{"base_weights":[2.9411766E-1,-6E-1,6.1538464E-1,-6.0000002E-2,-0E0,8.5714287E-1,-2.857143E-1,3.3333335E-2,-3.3333335E-2,1.3333334E-1,1.0967742E0,-3.3333335E-2,1.1111111E-2,3.3333335E-2,-2.0000001E-2,6.52174E-2,1.6666668E-2],"categories":[],"categories_nodes":[],"categories_segments":[],"categories_sizes":[],"default_left":[0,0,0,0,0,0,0,0,0,0,0,0,0,0,0,0,0],"id":0,"left_children":[1,3,5,-1,7,9,11,-1,-1,13,15,-1,-1,-1,-1,-1,-1],"loss_changes":[5.2524886E0,1.8E0,3.076923E0,0E0,2E0,1.6749611E0,8.253969E-1,0E0,0E0,1.3333333E0,7.9336166E-1,0E0,0E0,0E0,0E0,0E0,0E0],"parents":[2147483647,0,0,1,1,2,2,4,4,5,5,6,6,9,9,10,10],"right_children":[2,4,6,-1,8,10,12,-1,-1,14,16,-1,-1,-1,-1,-1,-1],"split_conditions":[-2.5908247E-2,1.11E3,1.191E3,-6.0000002E-2,1.17E3,6.12E2,3.5655476E-2,3.3333335E-2,-3.3333335E-2,3.73E2,1.17E3,-3.3333335E-2,1.1111111E-2,3.3333335E-2,-2.0000001E-2,6.52174E-2,1.6666668E-2],"split_indices":[2,4,1,0,4,1,2,0,0,1,4,0,0,0,0,0,0],"split_type":[0,0,0,0,0,0,0,0,0,0,0,0,0,0,0,0,0],"sum_hessian":[1.6E1,4E0,1.2E1,1.5E0,2.5E0,9.5E0,2.5E0,1.25E0,1.25E0,2.75E0,6.75E0,1.25E0,1.25E0,1.25E0,1.5E0,4.75E0,2E0],"tree_param":{"num_deleted":"0","num_feature":"6","num_nodes":"17","size_leaf_vector":"1"}},{"base_weights":[4.3565434E-1,-3.0414072E-1,7.8556806E-1,-6.562214E-2,4.355351E-1,1.1931214E0,9.982933E-2,3.946483E-2,-2.2221671E-4,1.3253257E0,1.9269742E-2,-5.741205E-1,6.0279585E-2,7.676637E-2,1.9798981E-2,4.6661982E-4,-4.4787344E-2],"categories":[],"categories_nodes":[],"categories_segments":[],"categories_sizes":[],"default_left":[0,0,0,0,0,0,0,0,0,0,0,0,0,0,0,0,0],"id":1,"left_children":[1,3,5,-1,7,9,11,-1,-1,13,-1,15,-1,-1,-1,-1,-1],"loss_changes":[4.8962193E0,5.4179506E0,3.3724399E0,0E0,7.037907E-1,3.16247E-1,4.976094E0,0E0,0E0,6.1091995E-1,0E0,8.057071E-1,0E0,0E0,0E0,0E0,0E0],"parents":[2147483647,0,0,1,1,2,2,4,4,5,5,6,6,9,9,11,11],"right_children":[2,4,6,-1,8,10,12,-1,-1,14,-1,16,-1,-1,-1,-1,-1],"split_conditions":[7.17E2,-1.0110713E-2,1.266E3,-6.562214E-2,4.2361226E-2,6.0878523E-2,6.3E3,3.946483E-2,-2.2221671E-4,1.027E3,1.9269742E-2,5.935845E-2,6.0279585E-2,7.676637E-2,1.9798981E-2,4.6661982E-4,-4.4787344E-2],"split_indices":[1,2,1,0,0,0,1,0,0,1,0,0,0,0,0,0,0],"split_type":[0,0,0,0,0,0,0,0,0,0,0,0,0,0,0,0,0],"sum_hessian":[1.6991255E1,5.498025E0,1.1493231E1,1.9988749E0,3.4991503E0,6.744739E0,4.7484913E0,1.499528E0,1.9996221E0,5.245392E0,1.4993472E0,3.2490335E0,1.4994577E0,3.7467082E0,1.4986839E0,1.4996132E0,1.7494203E0],"tree_param":{"num_deleted":"0","num_feature":"6","num_nodes":"17","size_leaf_vector":"1"}},{"base_weights":[2.5012168E-1,9.33279E-1,-3.7168257E-2,-1.4895491E-3,6.774717E-2,-5.325489E-2,2.8456783E-1,5.179047E-1,-2.2409514E-1,-3.074606E-4,4.8871987E-2,-5.770225E-2,3.9747585E-2],"categories":[],"categories_nodes":[],"categories_segments":[],"categories_sizes":[],"default_left":[0,0,0,0,0,0,0,0,0,0,0,0,0],"id":2,"left_children":[1,3,5,-1,-1,-1,7,9,11,-1,-1,-1,-1],"loss_changes":[3.3172357E0,2.0665994E0,4.5150213E0,0E0,0E0,0E0,1.3609719E0,1.8103356E0,4.7046437E0,0E0,0E0,0E0,0E0],"parents":[2147483647,0,0,1,1,2,2,6,6,7,7,8,8],"right_children":[2,4,6,-1,-1,-1,8,10,12,-1,-1,-1,-1],"split_conditions":[4.2361226E-2,3.4892183E-2,4.829894E-2,-1.4895491E-3,6.774717E-2,-5.325489E-2,6.9991454E-2,1.14E3,5.558E3,-3.074606E-4,4.8871987E-2,-5.770225E-2,3.9747585E-2],"split_indices":[0,0,0,0,0,0,0,4,1,0,0,0,0],"split_type":[0,0,0,0,0,0,0,0,0,0,0,0,0],"sum_hessian":[1.5725144E1,3.9895902E0,1.1735555E1,1.4978626E0,2.4917276E0,2.2467709E0,9.488784E0,6.492388E0,2.9963956E0,3.4942088E0,2.9981792E0,1.4974213E0,1.4989742E0],"tree_param":{"num_deleted":"0","num_feature":"6","num_nodes":"13","size_leaf_vector":"1"}},{"base_weights":[2.2731464E-1,9.8556674E-1,-7.5217515E-2,7.1495487E-3,6.7107685E-2,-3.0463254E-1,5.7351645E-2,-6.14554E-1,2.6988545E-1,-6.392761E-2,-1.1408736E-2,3.0841816E-2,-1.7909937E-2],"categories":[],"categories_nodes":[],"categories_segments":[],"categories_sizes":[],"default_left":[0,0,0,0,0,0,0,0,0,0,0,0,0],"id":3,"left_children":[1,3,5,-1,-1,7,-1,9,11,-1,-1,-1,-1],"loss_changes":[4.4191957E0,1.4524307E0,4.40641E0,0E0,0E0,2.4756036E0,0E0,1.9484015E0,1.362922E0,0E0,0E0,0E0,0E0],"parents":[2147483647,0,0,1,1,2,2,5,5,7,7,8,8],"right_children":[2,4,6,-1,-1,8,-1,10,12,-1,-1,-1,-1],"split_conditions":[4.060754E-2,3.4892183E-2,6.3E3,7.1495487E-3,6.7107685E-2,1.1375845E-2,5.7351645E-2,4.829894E-2,1.237E3,-6.392761E-2,-1.1408736E-2,3.0841816E-2,-1.7909937E-2],"split_indices":[0,0,1,0,0,2,0,0,1,0,0,0,0],"split_type":[0,0,0,0,0,0,0,0,0,0,0,0,0],"sum_hessian":[1.7941353E1,4.4729185E0,1.3468434E1,1.7466874E0,2.726231E0,1.1972054E1,1.4963803E0,7.7315917E0,4.2404623E0,1.9946675E0,5.736924E0,2.7430964E0,1.4973658E0],"tree_param":{"num_deleted":"0","num_feature":"6","num_nodes":"13","size_leaf_vector":"1"}},{"base_weights":[2.4281935E-1,9.959529E-1,-7.1181305E-2,1.4363977E-2,6.500207E-2,-2.937083E-1,5.574983E-2,-5.4000396E-2,-4.3478224E-2,-2.5885597E-2,4.436105E-2],"categories":[],"categories_nodes":[],"categories_segments":[],"categories_sizes":[],"default_left":[0,0,0,0,0,0,0,0,0,0,0],"id":4,"left_children":[1,3,5,-1,-1,7,-1,9,-1,-1,-1],"loss_changes":[4.6004214E0,8.554287E-1,4.141924E0,0E0,0E0,1.7419724E0,0E0,4.9185357E0,0E0,0E0,0E0],"parents":[2147483647,0,0,1,1,2,2,5,5,7,7],"right_children":[2,4,6,-1,-1,8,-1,10,-1,-1,-1],"split_conditions":[4.060754E-2,3.4892183E-2,6.3E3,1.4363977E-2,6.500207E-2,1.266E3,5.574983E-2,9.05E2,-4.3478224E-2,-2.5885597E-2,4.436105E-2],"split_indices":[0,0,1,0,0,1,0,1,0,0,0],"split_type":[0,0,0,0,0,0,0,0,0,0,0],"sum_hessian":[1.81536E1,4.702586E0,1.3451015E1,1.995899E0,2.7066872E0,1.1959756E1,1.4912592E0,9.21688E0,2.742876E0,6.4762053E0,2.7406745E0],"tree_param":{"num_deleted":"0","num_feature":"6","num_nodes":"11","size_leaf_vector":"1"}},{"base_weights":[2.3966546E-1,9.6453255E-1,-6.2075876E-2,1.389073E-2,6.3055314E-2,-2.3846272E-1,5.0302584E-2,-5.7691664E-1,3.4343264E-1,-6.137824E-2,-1.0138965E-2,4.456129E-2,-7.5431615E-3],"categories":[],"categories_nodes":[],"categories_segments":[],"categories_sizes":[],"default_left":[0,0,0,0,0,0,0,0,0,0,0,0,0],"id":5,"left_children":[1,3,5,-1,-1,7,-1,9,11,-1,-1,-1,-1],"loss_changes":[4.239459E0,8.058429E-1,2.9589598E0,0E0,0E0,2.7968137E0,0E0,1.8727641E0,1.6180754E0,0E0,0E0,0E0,0E0],"parents":[2147483647,0,0,1,1,2,2,5,5,7,7,8,8],"right_children":[2,4,6,-1,-1,8,-1,10,12,-1,-1,-1,-1],"split_conditions":[4.060754E-2,3.4892183E-2,6.3E3,1.389073E-2,6.3055314E-2,1.1375845E-2,5.0302584E-2,4.829894E-2,2.6427062E-2,-6.137824E-2,-1.0138965E-2,4.456129E-2,-7.5431615E-3],"split_indices":[0,0,1,0,0,2,0,0,2,0,0,0,0],"split_type":[0,0,0,0,0,0,0,0,0,0,0,0,0],"sum_hessian":[1.8109087E1,4.677021E0,1.3432067E1,1.9947996E0,2.6822214E0,1.2194978E1,1.2370889E0,7.715744E0,4.4792337E0,1.9841427E0,5.731601E0,1.7437443E0,2.7354894E0],"tree_param":{"num_deleted":"0","num_feature":"6","num_nodes":"13","size_leaf_vector":"1"}},{"base_weights":[2.1129788E-1,9.34958E-1,-1.0335306E-1,5.6822218E-2,5.8083734E-3,-3.309436E-1,5.292627E-2,-8.8845015E-1,-5.5049207E-2,-9.2484355E-3,-5.7044834E-2,1.5290071E-2,-4.5469448E-2],"categories":[],"categories_nodes":[],"categories_segments":[],"categories_sizes":[],"default_left":[0,0,0,0,0,0,0,0,0,0,0,0,0],"id":6,"left_children":[1,3,5,-1,-1,7,-1,9,11,-1,-1,-1,-1],"loss_changes":[4.2649183E0,7.995992E-1,3.9621973E0,0E0,0E0,1.8250751E0,0E0,4.9352098E-1,3.1193662E0,0E0,0E0,0E0,0E0],"parents":[2147483647,0,0,1,1,2,2,5,5,7,7,8,8],"right_children":[2,4,6,-1,-1,8,-1,10,12,-1,-1,-1,-1],"split_conditions":[4.060754E-2,9.88E2,6.3E3,5.6822218E-2,5.8083734E-3,4.829894E-2,5.292627E-2,4.541181E-2,1.237E3,-9.2484355E-3,-5.7044834E-2,1.5290071E-2,-4.5469448E-2],"split_indices":[0,1,1,0,0,0,0,0,1,0,0,0,0],"split_type":[0,0,0,0,0,0,0,0,0,0,0,0,0],"sum_hessian":[1.7306023E1,4.647017E0,1.2659005E1,3.4179738E0,1.2290432E0,1.1183524E1,1.475481E0,2.967258E0,8.216266E0,1.2411909E0,1.7260672E0,6.227848E0,1.9884179E0],"tree_param":{"num_deleted":"0","num_feature":"6","num_nodes":"13","size_leaf_vector":"1"}},{"base_weights":[2.7596286E-1,5.971375E-2,-8.889965E-2,-7.15155E-1,2.4184899E-1,-6.80157E-2,3.3606347E-2,7.3247045E-1,-1.8803553E-1,-6.191815E-3,6.35195E-2,-3.1986017E-2,3.5276603E-2],"categories":[],"categories_nodes":[],"categories_segments":[],"categories_sizes":[],"default_left":[0,0,0,0,0,0,0,0,0,0,0,0,0],"id":7,"left_children":[1,-1,3,5,7,-1,-1,9,11,-1,-1,-1,-1],"loss_changes":[6.055101E0,0E0,2.9976666E0,5.3588104E0,2.1775155E0,0E0,0E0,2.3318677E0,2.8530123E0,0E0,0E0,0E0,0E0],"parents":[2147483647,0,0,2,2,3,3,4,4,7,7,8,8],"right_children":[2,-1,4,6,8,-1,-1,10,12,-1,-1,-1,-1],"split_conditions":[4.060754E-2,5.971375E-2,6.64E2,6.76707E-2,5.935845E-2,-6.80157E-2,3.3606347E-2,4.829894E-2,5.709E3,-6.191815E-3,6.35195E-2,-3.1986017E-2,3.5276603E-2],"split_indices":[0,0,1,0,0,0,0,0,1,0,0,0,0],"split_type":[0,0,0,0,0,0,0,0,0,0,0,0,0],"sum_hessian":[1.6754944E1,4.1177855E0,1.2637158E1,3.9658315E0,8.671327E0,2.7202237E0,1.2456076E0,3.7208703E0,4.9504566E0,1.7325827E0,1.9882874E0,3.4769793E0,1.4734771E0],"tree_param":{"num_deleted":"0","num_feature":"6","num_nodes":"13","size_leaf_vector":"1"}},{"base_weights":[1.6386536E-1,-1.6414703E-1,6.6838187E-1,-6.3002163E-1,2.0021804E-1,1.0220152E0,-2.538612E-2,3.210603E-2,-5.7929378E-2,6.7632705E-1,-3.214917E-1,8.0633E-3,6.335766E-2,-1.1657906E-2,9.715519E-3,4.5366924E-2,2.99854E-3,3.6300026E-2,-5.779646E-2],"categories":[],"categories_nodes":[],"categories_segments":[],"categories_sizes":[],"default_left":[0,0,0,0,0,0,0,0,0,0,0,0,0,0,0,0,0,0,0],"id":8,"left_children":[1,3,5,7,9,11,13,-1,-1,15,17,-1,-1,-1,-1,-1,-1,-1,-1],"loss_changes":[3.1205857E0,2.1340024E0,1.8329911E0,4.396676E0,2.0545738E0,8.301797E-1,2.0336013E-1,0E0,0E0,5.420793E-1,4.516306E0,0E0,0E0,0E0,0E0,0E0,0E0,0E0,0E0],"parents":[2147483647,0,0,1,1,2,2,3,3,4,4,5,5,6,6,9,9,10,10],"right_children":[2,4,6,8,10,12,14,-1,-1,16,18,-1,-1,-1,-1,-1,-1,-1,-1],"split_conditions":[1.1375845E-2,7.17E2,1.237E3,3.1E2,1.142E3,6.64E2,6.437882E-2,3.210603E-2,-5.7929378E-2,3.0278487E-3,-1.2029025E-1,8.0633E-3,6.335766E-2,-1.1657906E-2,9.715519E-3,4.5366924E-2,2.99854E-3,3.6300026E-2,-5.779646E-2],"split_indices":[2,1,1,1,1,1,2,0,0,2,2,0,0,0,0,0,0,0,0],"split_type":[0,0,0,0,0,0,0,0,0,0,0,0,0,0,0,0,0,0,0],"sum_hessian":[1.7193941E1,1.0828449E1,6.3654923E0,4.4322767E0,6.3961725E0,3.902924E0,2.4625685E0,1.2379551E0,3.1943216E0,3.1892848E0,3.2068877E0,1.2326384E0,2.6702857E0,1.2341402E0,1.2284284E0,1.9764185E0,1.2128663E0,1.4795369E0,1.7273507E0],"tree_param":{"num_deleted":"0","num_feature":"6","num_nodes":"19","size_leaf_vector":"1"}},{"base_weights":[2.0924601E-1,9.173354E-1,-4.4159375E-2,1.3709845E-2,5.6016948E-2,-2.0493782E-1,4.63903E-2,-1.33112045E-2,-4.2695552E-2,-1.5674023E-2,5.747768E-2],"categories":[],"categories_nodes":[],"categories_segments":[],"categories_sizes":[],"default_left":[0,0,0,0,0,0,0,0,0,0,0],"id":9,"left_children":[1,3,5,-1,-1,7,-1,9,-1,-1,-1],"loss_changes":[3.2895598E0,3.218627E-1,2.4231145E0,0E0,0E0,1.6152718E0,0E0,4.239802E0,0E0,0E0,0E0],"parents":[2147483647,0,0,1,1,2,2,5,5,7,7],"right_children":[2,4,6,-1,-1,8,-1,10,-1,-1,-1],"split_conditions":[4.060754E-2,3.4892183E-2,6.3E3,1.3709845E-2,5.6016948E-2,6.9991454E-2,4.63903E-2,6.76707E-2,-4.2695552E-2,-1.5674023E-2,5.747768E-2],"split_indices":[0,0,1,0,0,0,0,0,0,0,0],"split_type":[0,0,0,0,0,0,0,0,0,0,0],"sum_hessian":[1.7107256E1,3.81816E0,1.3289096E1,1.4800119E0,2.338148E0,1.2080021E1,1.2090753E0,1.011408E1,1.9659402E0,8.619548E0,1.4945322E0],"tree_param":{"num_deleted":"0","num_feature":"6","num_nodes":"11","size_leaf_vector":"1"}},{"base_weights":[1.8611795E-1,8.249232E-1,-6.925439E-2,9.682463E-3,5.6131553E-2,-2.2667156E-1,4.5652345E-2,-1.2259429E-2,-4.4975005E-2,-1.5180684E-2,5.587038E-2],"categories":[],"categories_nodes":[],"categories_segments":[],"categories_sizes":[],"default_left":[0,0,0,0,0,0,0,0,0,0,0],"id":10,"left_children":[1,3,5,-1,-1,7,-1,9,-1,-1,-1],"loss_changes":[3.1580918E0,8.1742215E-1,2.4495022E0,0E0,0E0,1.9077454E0,0E0,3.992685E0,0E0,0E0,0E0],"parents":[2147483647,0,0,1,1,2,2,5,5,7,7],"right_children":[2,4,6,-1,-1,8,-1,10,-1,-1,-1],"split_conditions":[4.060754E-2,3.4892183E-2,6.3E3,9.682463E-3,5.6131553E-2,6.9991454E-2,4.5652345E-2,6.76707E-2,-4.4975005E-2,-1.5180684E-2,5.587038E-2],"split_indices":[0,0,1,0,0,0,0,0,0,0,0],"split_type":[0,0,0,0,0,0,0,0,0,0,0],"sum_hessian":[1.8008774E1,4.5062547E0,1.350252E1,1.9730248E0,2.5332296E0,1.2300557E1,1.2019622E0,1.0100139E1,2.2004185E0,8.6106E0,1.4895378E0],"tree_param":{"num_deleted":"0","num_feature":"6","num_nodes":"11","size_leaf_vector":"1"}},{"base_weights":[1.330311E-1,-3.8730073E-1,3.4730816E-1,-9.590064E-1,3.658383E-2,7.341068E-1,-1.1259832E-1,-1.29264435E-2,-5.805819E-2,9.039104E-1,6.323845E-3,-5.7188463E-1,4.804923E-2,1.713516E-2,5.7998378E-2,3.3329935E-3,-4.7976434E-2],"categories":[],"categories_nodes":[],"categories_segments":[],"categories_sizes":[],"default_left":[0,0,0,0,0,0,0,0,0,0,0,0,0,0,0,0,0],"id":11,"left_children":[1,3,5,7,-1,9,11,-1,-1,13,-1,15,-1,-1,-1,-1,-1],"loss_changes":[2.1123843E0,4.3143406E0,2.4116693E0,2.9035664E-1,0E0,6.331341E-1,3.926177E0,0E0,0E0,3.927455E-1,0E0,1.4063203E0,0E0,0E0,0E0,0E0,0E0],"parents":[2147483647,0,0,1,1,2,2,3,3,5,5,6,6,9,9,11,11],"right_children":[2,4,6,8,-1,10,12,-1,-1,14,-1,16,-1,-1,-1,-1,-1],"split_conditions":[6.54E2,6.693138E-2,1.142E3,4.3241236E-2,3.658383E-2,6.0878523E-2,6.3E3,-1.29264435E-2,-5.805819E-2,7.138574E-3,6.323845E-3,5.935845E-2,4.804923E-2,1.713516E-2,5.7998378E-2,3.3329935E-3,-4.7976434E-2],"split_indices":[1,0,1,0,0,0,1,0,0,2,0,0,0,0,0,0,0],"split_type":[0,0,0,0,0,0,0,0,0,0,0,0,0,0,0,0,0],"sum_hessian":[1.6739527E1,4.6471977E0,1.2092329E1,3.1703637E0,1.4768343E0,6.24437E0,5.847959E0,1.2204254E0,1.9499382E0,4.499401E0,1.7449689E0,4.4230566E0,1.4249024E0,2.1423473E0,2.357054E0,1.9836079E0,2.4394486E0],"tree_param":{"num_deleted":"0","num_feature":"6","num_nodes":"17","size_leaf_vector":"1"}},{"base_weights":[2.219179E-1,-1.24793425E-1,6.85663E-1,2.9780349E-2,-3.9530638E-1,8.75375E-1,9.562043E-3,1.9293176E-2,-6.1069703E-1,4.195558E-3,5.4202706E-2,-5.511379E-2,-1.0748609E-2],"categories":[],"categories_nodes":[],"categories_segments":[],"categories_sizes":[],"default_left":[0,0,0,0,0,0,0,0,0,0,0,0,0],"id":12,"left_children":[1,3,5,-1,7,9,-1,-1,11,-1,-1,-1,-1],"loss_changes":[2.9205153E0,2.3664358E0,5.5454016E-1,0E0,1.6743904E0,7.8157854E-1,0E0,0E0,1.1422479E0,0E0,0E0,0E0,0E0],"parents":[2147483647,0,0,1,1,2,2,4,4,5,5,8,8],"right_children":[2,4,6,-1,8,10,-1,-1,12,-1,-1,-1,-1],"split_conditions":[1.1375845E-2,4.0369306E-2,5.935845E-2,2.9780349E-2,-1.2029025E-1,7.24E2,9.562043E-3,1.9293176E-2,5.6806225E-2,4.195558E-3,5.4202706E-2,-5.511379E-2,-1.0748609E-2],"split_indices":[2,0,0,0,2,1,0,0,0,0,0,0,0],"split_type":[0,0,0,0,0,0,0,0,0,0,0,0,0],"sum_hessian":[1.6631853E1,9.935009E0,6.696844E0,2.384118E0,7.550891E0,4.2829537E0,2.4138901E0,1.4609433E0,6.0899477E0,1.1861839E0,3.09677E0,1.9197408E0,4.1702065E0],"tree_param":{"num_deleted":"0","num_feature":"6","num_nodes":"13","size_leaf_vector":"1"}},{"base_weights":[1.4284532E-1,7.6319814E-1,-1.2724578E-1,7.962467E-3,5.308972E-2,-6.332258E-1,9.8982126E-2,-5.3254988E-2,1.0397676E-2,3.1514134E-2,-1.15223765E-1,-2.5718395E-2,1.1116602E-2],"categories":[],"categories_nodes":[],"categories_segments":[],"categories_sizes":[],"default_left":[0,0,0,0,0,0,0,0,0,0,0,0,0],"id":13,"left_children":[1,3,5,-1,-1,7,9,-1,-1,-1,11,-1,-1],"loss_changes":[2.9966748E0,8.032913E-1,1.5408378E0,0E0,0E0,1.7200371E0,1.1866224E0,0E0,0E0,0E0,1.1681602E0,0E0,0E0],"parents":[2147483647,0,0,1,1,2,2,5,5,6,6,10,10],"right_children":[2,4,6,-1,-1,8,10,-1,-1,-1,12,-1,-1],"split_conditions":[4.060754E-2,3.4892183E-2,4.829894E-2,7.962467E-3,5.308972E-2,2.593193E-3,5.935845E-2,-5.3254988E-2,1.0397676E-2,3.1514134E-2,1.14E3,-2.5718395E-2,1.1116602E-2],"split_indices":[0,0,0,0,0,2,0,0,0,0,4,0,0],"split_type":[0,0,0,0,0,0,0,0,0,0,0,0,0],"sum_hessian":[1.6305462E1,4.392027E0,1.1913436E1,1.9603326E0,2.431694E0,3.1250057E0,8.78843E0,1.8889782E0,1.2360275E0,1.9670614E0,6.821369E0,2.8855448E0,3.9358244E0],"tree_param":{"num_deleted":"0","num_feature":"6","num_nodes":"13","size_leaf_vector":"1"}},{"base_weights":[2.5350085E-1,-1.8675917E-1,4.7235367E-1,-6.4039063E-1,4.8862267E-2,8.4297204E-1,8.686479E-3,2.9577166E-2,-6.261719E-2,5.3738058E-2,6.0963193E-3,-3.8554612E-1,4.6541132E-2,7.3573045E-3,-5.1405247E-2],"categories":[],"categories_nodes":[],"categories_segments":[],"categories_sizes":[],"default_left":[0,0,0,0,0,0,0,0,0,0,0,0,0,0,0],"id":14,"left_children":[1,3,5,7,-1,9,11,-1,-1,-1,-1,13,-1,-1,-1],"loss_changes":[1.7744659E0,4.072621E0,2.0501993E0,4.737351E0,0E0,9.793558E-1,2.6598153E0,0E0,0E0,0E0,0E0,1.9109416E0,0E0,0E0,0E0],"parents":[2147483647,0,0,1,1,2,2,3,3,5,5,6,6,11,11],"right_children":[2,4,6,8,-1,10,12,-1,-1,-1,-1,14,-1,-1,-1],"split_conditions":[7.17E2,6.76707E-2,1.142E3,4.2361226E-2,4.8862267E-2,6.0878523E-2,2.679197E-1,2.9577166E-2,-6.261719E-2,5.3738058E-2,6.0963193E-3,1.095E3,4.6541132E-2,7.3573045E-3,-5.1405247E-2],"split_indices":[1,0,1,0,0,0,0,0,0,0,0,4,0,0,0],"split_type":[0,0,0,0,0,0,0,0,0,0,0,0,0,0,0],"sum_hessian":[1.65009E1,5.527676E0,1.0973224E1,4.301248E0,1.2264279E0,5.6438937E0,5.32933E0,1.4385762E0,2.862672E0,3.8997207E0,1.7441733E0,4.140905E0,1.1884252E0,2.6855433E0,1.4553616E0],"tree_param":{"num_deleted":"0","num_feature":"6","num_nodes":"15","size_leaf_vector":"1"}},{"base_weights":[1.5243559E-1,-1.4977393E-1,6.042852E-1,2.6659444E-2,-3.8093162E-1,-2.4626448E-3,7.7669203E-1,-7.937431E-1,6.007924E-2,5.8234967E-2,3.834042E-3,-4.9452945E-3,-4.9854003E-2,-2.4228109E-2,2.1862252E-2],"categories":[],"categories_nodes":[],"categories_segments":[],"categories_sizes":[],"default_left":[0,0,0,0,0,0,0,0,0,0,0,0,0,0,0],"id":15,"left_children":[1,3,5,-1,7,-1,9,11,13,-1,-1,-1,-1,-1,-1],"loss_changes":[2.5281136E0,2.0183358E0,8.667362E-1,0E0,1.7178171E0,0E0,1.507123E0,5.8079314E-1,1.3139595E0,0E0,0E0,0E0,0E0,0E0,0E0],"parents":[2147483647,0,0,1,1,2,2,4,4,6,6,7,7,8,8],"right_children":[2,4,6,-1,8,-1,10,12,14,-1,-1,-1,-1,-1,-1],"split_conditions":[1.1375845E-2,4.0369306E-2,1.035E3,2.6659444E-2,6.519301E-2,-2.4626448E-3,5.935845E-2,-3.648487E-2,1.14E3,5.8234967E-2,3.834042E-3,-4.9452945E-3,-4.9854003E-2,-2.4228109E-2,2.1862252E-2],"split_indices":[2,0,4,0,0,0,0,2,4,0,0,0,0,0,0],"split_type":[0,0,0,0,0,0,0,0,0,0,0,0,0,0,0],"sum_hessian":[1.6850967E1,1.0498088E1,6.3528805E0,2.3242917E0,8.173797E0,1.4752004E0,4.87768E0,3.8087559E0,4.3650403E0,2.7111142E0,2.1665657E0,1.1987695E0,2.6099863E0,1.6694895E0,2.695551E0],"tree_param":{"num_deleted":"0","num_feature":"6","num_nodes":"15","size_leaf_vector":"1"}},{"base_weights":[2.0965113E-1,8.0403256E-1,-2.4116758E-2,1.0775677E-2,4.993171E-2,-3.3097416E-1,5.190871E-1,2.9742781E-2,-5.5502915E-1,4.8059892E-2,1.3284175E-1,-5.021989E-2,-1.2238268E-2,-1.4039139E-2,2.1369992E-2],"categories":[],"categories_nodes":[],"categories_segments":[],"categories_sizes":[],"default_left":[0,0,0,0,0,0,0,0,0,0,0,0,0,0,0],"id":16,"left_children":[1,3,5,-1,-1,7,9,-1,11,-1,13,-1,-1,-1,-1],"loss_changes":[2.3488636E0,3.3010483E-1,2.339325E0,0E0,0E0,2.180535E0,7.4037564E-1,0E0,8.2762957E-1,0E0,5.9194E-1,0E0,0E0,0E0,0E0],"parents":[2147483647,0,0,1,1,2,2,5,5,6,6,8,8,10,10],"right_children":[2,4,6,-1,-1,8,10,-1,12,-1,14,-1,-1,-1,-1],"split_conditions":[4.060754E-2,3.4892183E-2,1.1375845E-2,1.0775677E-2,4.993171E-2,-1.2029025E-1,2.50108E-2,2.9742781E-2,4.829894E-2,4.8059892E-2,5.6264065E-2,-5.021989E-2,-1.2238268E-2,-1.4039139E-2,2.1369992E-2],"split_indices":[0,0,2,0,0,2,2,0,0,0,0,0,0,0,0],"split_type":[0,0,0,0,0,0,0,0,0,0,0,0,0,0,0],"sum_hessian":[1.5765152E1,3.761546E0,1.2003607E1,1.4584188E0,2.303127E0,7.920176E0,4.0834303E0,1.2207783E0,6.6993976E0,1.2099304E0,2.8735E0,1.8225219E0,4.876876E0,1.2146415E0,1.6588585E0],"tree_param":{"num_deleted":"0","num_feature":"6","num_nodes":"15","size_leaf_vector":"1"}},{"base_weights":[2.0382527E-1,-1.131725E-1,6.056476E-1,2.1021698E-2,-2.9956985E-1,-2.700969E-3,7.7451015E-1,-7.518509E-1,2.5824E-1,5.827721E-2,2.3194852E-3,-4.131637E-3,-4.7587685E-2,-1.6886083E-2,3.2889202E-2],"categories":[],"categories_nodes":[],"categories_segments":[],"categories_sizes":[],"default_left":[0,0,0,0,0,0,0,0,0,0,0,0,0,0,0],"id":17,"left_children":[1,3,5,-1,7,-1,9,11,13,-1,-1,-1,-1,-1,-1],"loss_changes":[2.2035017E0,1.1416624E0,8.8274264E-1,0E0,2.2508512E0,0E0,1.6757832E0,5.578201E-1,1.2685571E0,0E0,0E0,0E0,0E0,0E0,0E0],"parents":[2147483647,0,0,1,1,2,2,4,4,6,6,7,7,8,8],"right_children":[2,4,6,-1,8,-1,10,12,14,-1,-1,-1,-1,-1,-1],"split_conditions":[7.138574E-3,4.0369306E-2,1.035E3,2.1021698E-2,6.519301E-2,-2.700969E-3,5.935845E-2,-3.648487E-2,1.14E3,5.827721E-2,2.3194852E-3,-4.131637E-3,-4.7587685E-2,-1.6886083E-2,3.2889202E-2],"split_indices":[2,0,4,0,0,0,0,2,4,0,0,0,0,0,0],"split_type":[0,0,0,0,0,0,0,0,0,0,0,0,0,0,0],"sum_hessian":[1.5760972E1,9.211987E0,6.548986E0,2.0597851E0,7.152201E0,1.4733586E0,5.0756273E0,3.7576094E0,3.3945918E0,2.9113443E0,2.164283E0,1.1893532E0,2.5682561E0,1.4245135E0,1.9700782E0],"tree_param":{"num_deleted":"0","num_feature":"6","num_nodes":"15","size_leaf_vector":"1"}},{"base_weights":[1.291491E-1,5.769097E-1,-4.3146696E-2,-1.9989698E-3,4.6756636E-2,-2.5544956E-1,3.112255E-1,7.083297E-2,-6.6380566E-1,5.1152688E-2,-2.224655E-1,-2.4138968E-2,3.357848E-2,-4.950234E-2,-7.733165E-3,-3.340839E-2,1.5828727E-2],"categories":[],"categories_nodes":[],"categories_segments":[],"categories_sizes":[],"default_left":[0,0,0,0,0,0,0,0,0,0,0,0,0,0,0,0,0],"id":18,"left_children":[1,3,5,-1,-1,7,9,11,13,-1,15,-1,-1,-1,-1,-1,-1],"loss_changes":[1.3126776E0,1.077771E0,1.0563885E0,0E0,0E0,1.2020956E0,2.2469032E0,2.2273579E0,5.0244343E-1,0E0,1.1387055E0,0E0,0E0,0E0,0E0,0E0,0E0],"parents":[2147483647,0,0,1,1,2,2,5,5,6,6,7,7,8,8,10,10],"right_children":[2,4,6,-1,-1,8,10,12,14,-1,16,-1,-1,-1,-1,-1,-1],"split_conditions":[4.060754E-2,3.4892183E-2,6.76707E-2,-1.9989698E-3,4.6756636E-2,5.935845E-2,6.9991454E-2,4.829894E-2,1.14E3,5.1152688E-2,2.6643115E-1,-2.4138968E-2,3.357848E-2,-4.950234E-2,-7.733165E-3,-3.340839E-2,1.5828727E-2],"split_indices":[0,0,0,0,0,0,0,0,4,0,0,0,0,0,0,0,0],"split_type":[0,0,0,0,0,0,0,0,0,0,0,0,0,0,0,0,0],"sum_hessian":[1.5692566E1,3.7079675E0,1.1984598E1,1.6885471E0,2.0194204E0,7.6691766E0,4.3154216E0,4.7224283E0,2.9467483E0,1.456211E0,2.8592105E0,2.5597916E0,2.1626365E0,1.2202898E0,1.7264585E0,1.4339803E0,1.4252303E0],"tree_param":{"num_deleted":"0","num_feature":"6","num_nodes":"17","size_leaf_vector":"1"}},{"base_weights":[1.5853663E-1,-3.3941323E-1,3.9209706E-1,4.5407042E-2,-8.524903E-1,9.127398E-1,-1.3797115E-1,-5.196783E-2,-6.64531E-3,5.2419256E-2,8.833635E-3,-5.853814E-1,4.6033118E-2,1.7630926E-3,-4.1292153E-2],"categories":[],"categories_nodes":[],"categories_segments":[],"categories_sizes":[],"default_left":[0,0,0,0,0,0,0,0,0,0,0,0,0,0,0],"id":19,"left_children":[1,3,5,-1,7,9,11,-1,-1,-1,-1,13,-1,-1,-1],"loss_changes":[2.0804727E0,4.5393467E0,3.3995914E0,0E0,4.916818E-1,4.253826E-1,3.734392E0,0E0,0E0,0E0,0E0,8.2809865E-1,0E0,0E0,0E0],"parents":[2147483647,0,0,1,1,2,2,4,4,5,5,6,6,11,11],"right_children":[2,4,6,-1,8,10,12,-1,-1,-1,-1,14,-1,-1,-1],"split_conditions":[6.64E2,2.96E2,1.142E3,4.5407042E-2,1.185E3,1.17E3,6.3E3,-5.196783E-2,-6.64531E-3,5.2419256E-2,8.833635E-3,1.29E3,4.6033118E-2,1.7630926E-3,-4.1292153E-2],"split_indices":[1,1,1,0,4,4,1,0,0,0,0,1,0,0,0],"split_type":[0,0,0,0,0,0,0,0,0,0,0,0,0,0,0],"sum_hessian":[1.5744341E1,4.882231E0,1.086211E1,1.1983755E0,3.6838558E0,5.115572E0,5.7465377E0,2.5716484E0,1.1122074E0,3.9612675E0,1.1543044E0,4.353612E0,1.3929261E0,1.454035E0,2.8995767E0],"tree_param":{"num_deleted":"0","num_feature":"6","num_nodes":"15","size_leaf_vector":"1"}},{"base_weights":[1.8839753E-1,4.2429604E-2,5.031584E-2,2.3238142E-1,-5.0227027E-2,7.1894966E-2,4.939827E-2,-3.693129E-2,2.1074953E-2],"categories":[],"categories_nodes":[],"categories_segments":[],"categories_sizes":[],"default_left":[0,0,0,0,0,0,0,0,0],"id":20,"left_children":[1,3,-1,5,-1,7,-1,-1,-1],"loss_changes":[2.061781E0,3.4157338E0,0E0,1.669839E0,0E0,3.9722922E0,0E0,0E0,0E0],"parents":[2147483647,0,0,1,1,3,3,5,5],"right_children":[2,4,-1,6,-1,8,-1,-1,-1],"split_conditions":[5.709E3,6.9991454E-2,5.031584E-2,6.76707E-2,-5.0227027E-2,6.12E2,4.939827E-2,-3.693129E-2,2.1074953E-2],"split_indices":[1,0,0,0,0,1,0,0,0],"split_type":[0,0,0,0,0,0,0,0,0],"sum_hessian":[1.6626928E1,1.5001584E1,1.625345E0,1.33563795E1,1.6452043E0,1.1919766E1,1.4366133E0,3.2566986E0,8.663068E0],"tree_param":{"num_deleted":"0","num_feature":"6","num_nodes":"9","size_leaf_vector":"1"}},{"base_weights":[1.5477824E-1,-3.202548E-1,3.757131E-1,2.7971128E-2,-6.602687E-1,6.135769E-1,-3.3597308E-1,-4.935143E-2,9.988914E-3,4.167753E-2,1.7007303E-1,8.364962E-3,-3.2330595E-2,-2.5515446E-2,4.6708167E-2],"categories":[],"categories_nodes":[],"categories_segments":[],"categories_sizes":[],"default_left":[0,0,0,0,0,0,0,0,0,0,0,0,0,0,0],"id":21,"left_children":[1,3,5,-1,7,9,11,-1,-1,-1,13,-1,-1,-1,-1],"loss_changes":[1.8644266E0,2.108736E0,2.204194E0,0E0,1.5047624E0,7.5578904E-1,6.714287E-1,0E0,0E0,0E0,2.7155948E0,0E0,0E0,0E0,0E0],"parents":[2147483647,0,0,1,1,2,2,4,4,5,5,6,6,10,10],"right_children":[2,4,6,-1,8,10,12,-1,-1,-1,14,-1,-1,-1,-1],"split_conditions":[6.64E2,3.1E2,1.17E3,2.7971128E-2,1.185E3,1.266E3,8.73E2,-4.935143E-2,9.988914E-3,4.167753E-2,5.709E3,8.364962E-3,-3.2330595E-2,-2.5515446E-2,4.6708167E-2],"split_indices":[1,1,4,0,4,1,1,0,0,0,1,0,0,0,0],"split_type":[0,0,0,0,0,0,0,0,0,0,0,0,0,0,0],"sum_hessian":[1.5618201E1,4.8152866E0,1.0802915E1,1.1624709E0,3.6528156E0,8.2000885E0,2.6028254E0,2.5401027E0,1.1127129E0,4.893495E0,3.306594E0,1.1695111E0,1.4333143E0,1.9247983E0,1.3817955E0],"tree_param":{"num_deleted":"0","num_feature":"6","num_nodes":"15","size_leaf_vector":"1"}},{"base_weights":[2.7081838E-1,-1.9933721E-1,4.99249E-1,4.350984E-2,-6.3804513E-1,8.1233853E-1,3.127137E-2,-4.5859944E-2,-1.1432727E-2,-3.3834795E-4,9.897912E-1,-3.4194063E-2,3.961456E-1,8.384603E-3,5.8530934E-2,3.678959E-2,-1.5876396E-3],"categories":[],"categories_nodes":[],"categories_segments":[],"categories_sizes":[],"default_left":[0,0,0,0,0,0,0,0,0,0,0,0,0,0,0,0,0],"id":22,"left_children":[1,3,5,-1,7,9,11,-1,-1,-1,13,-1,15,-1,-1,-1,-1],"loss_changes":[1.8423535E0,3.3803525E0,1.61661E0,0E0,3.4416246E-1,9.768605E-1,1.7145132E0,0E0,0E0,0E0,6.2025166E-1,0E0,6.4778686E-1,0E0,0E0,0E0,0E0],"parents":[2147483647,0,0,1,1,2,2,4,4,5,5,6,6,10,10,12,12],"right_children":[2,4,6,-1,8,10,12,-1,-1,-1,14,-1,16,-1,-1,-1,-1],"split_conditions":[7.17E2,2.96E2,5.935845E-2,4.350984E-2,-1.0110713E-2,3.4892183E-2,6.519301E-2,-4.5859944E-2,-1.1432727E-2,-3.3834795E-4,-1.7124753E-2,-3.4194063E-2,2.5843683E-1,8.384603E-3,5.8530934E-2,3.678959E-2,-1.5876396E-3],"split_indices":[1,1,0,0,2,0,0,0,0,0,2,0,0,0,0,0,0],"split_type":[0,0,0,0,0,0,0,0,0,0,0,0,0,0,0,0,0],"sum_hessian":[1.5227822E1,5.0209904E0,1.0206832E1,1.1743867E0,3.8466034E0,5.6745543E0,4.5322776E0,1.5495807E0,2.2970228E0,1.1817176E0,4.492837E0,1.2358067E0,3.2964709E0,1.1575603E0,3.3352766E0,1.4366089E0,1.8598619E0],"tree_param":{"num_deleted":"0","num_feature":"6","num_nodes":"17","size_leaf_vector":"1"}},{"base_weights":[1.9780523E-1,7.862444E-1,-4.495008E-2,1.0514028E-2,4.864787E-2,-3.783939E-2,1.4597662E-1,3.4361206E-2,-8.826811E-2,-4.1731905E-2,1.1610868E-2],"categories":[],"categories_nodes":[],"categories_segments":[],"categories_sizes":[],"default_left":[0,0,0,0,0,0,0,0,0,0,0],"id":23,"left_children":[1,3,5,-1,-1,-1,7,-1,9,-1,-1],"loss_changes":[2.3463614E0,3.0934477E-1,1.7956427E0,0E0,0E0,0E0,1.4065052E0,0E0,2.177982E0,0E0,0E0],"parents":[2147483647,0,0,1,1,2,2,6,6,8,8],"right_children":[2,4,6,-1,-1,-1,8,-1,10,-1,-1],"split_conditions":[4.2361226E-2,3.3200867E-2,4.829894E-2,1.0514028E-2,4.864787E-2,-3.783939E-2,5.935845E-2,3.4361206E-2,6.519301E-2,-4.1731905E-2,1.1610868E-2],"split_indices":[0,0,0,0,0,0,0,0,0,0,0],"split_type":[0,0,0,0,0,0,0,0,0,0,0],"sum_hessian":[1.5178317E1,3.779053E0,1.1399264E1,1.4456867E0,2.3333662E0,1.7840344E0,9.61523E0,2.3202522E0,7.2949777E0,1.7094929E0,5.585485E0],"tree_param":{"num_deleted":"0","num_feature":"6","num_nodes":"11","size_leaf_vector":"1"}},{"base_weights":[1.41569E-1,-2.4043041E-1,3.2964388E-1,4.2360723E-2,-6.7612594E-1,5.452377E-1,-2.551667E-1,-4.9155887E-2,9.053773E-3,-1.0148411E-3,6.3661027E-1,8.033696E-3,-2.500284E-2,8.343207E-3,4.0402364E-2],"categories":[],"categories_nodes":[],"categories_segments":[],"categories_sizes":[],"default_left":[0,0,0,0,0,0,0,0,0,0,0,0,0,0,0],"id":24,"left_children":[1,3,5,-1,7,9,11,-1,-1,-1,13,-1,-1,-1,-1],"loss_changes":[1.2585536E0,3.413097E0,1.5790977E0,0E0,1.450506E0,4.6059895E-1,4.6299255E-1,0E0,0E0,0E0,4.682932E-1,0E0,0E0,0E0,0E0],"parents":[2147483647,0,0,1,1,2,2,4,4,5,5,6,6,10,10],"right_children":[2,4,6,-1,8,10,12,-1,-1,-1,14,-1,-1,-1,-1],"split_conditions":[6.64E2,2.96E2,1.17E3,4.2360723E-2,1.185E3,3.4892183E-2,8.73E2,-4.9155887E-2,9.053773E-3,-1.0148411E-3,1.05E3,8.033696E-3,-2.500284E-2,8.343207E-3,4.0402364E-2],"split_indices":[1,1,4,0,4,0,1,0,0,0,4,0,0,0,0],"split_type":[0,0,0,0,0,0,0,0,0,0,0,0,0,0,0],"sum_hessian":[1.5414579E1,4.993629E0,1.042095E1,1.1581017E0,3.8355274E0,7.6634445E0,2.7575057E0,2.7159607E0,1.1195667E0,1.1741453E0,6.4892993E0,1.149488E0,1.6080177E0,2.262703E0,4.2265964E0],"tree_param":{"num_deleted":"0","num_feature":"6","num_nodes":"15","size_leaf_vector":"1"}},{"base_weights":[1.5972188E-1,4.3741275E-2,-7.272161E-2,-5.2519035E-1,3.1495157E-1,-9.771399E-1,3.2182824E-2,5.0418437E-2,-3.4667104E-2,-5.577531E-2,-1.4881581E-2,-2.2632943E-2,4.2171434E-2],"categories":[],"categories_nodes":[],"categories_segments":[],"categories_sizes":[],"default_left":[0,0,0,0,0,0,0,0,0,0,0,0,0],"id":25,"left_children":[1,-1,3,5,7,9,-1,-1,11,-1,-1,-1,-1],"loss_changes":[2.7622905E0,0E0,2.4766037E0,4.038734E0,1.9068184E0,1.4298582E-1,0E0,0E0,2.6206603E0,0E0,0E0,0E0,0E0],"parents":[2147483647,0,0,2,2,3,3,4,4,5,5,8,8],"right_children":[2,-1,4,6,8,10,-1,-1,12,-1,-1,-1,-1],"split_conditions":[4.060754E-2,4.3741275E-2,9.05E2,6.76707E-2,1.142E3,7.17E2,3.2182824E-2,5.0418437E-2,6.3E3,-5.577531E-2,-1.4881581E-2,-2.2632943E-2,4.2171434E-2],"split_indices":[0,0,1,0,1,1,0,0,1,0,0,0,0],"split_type":[0,0,0,0,0,0,0,0,0,0,0,0,0],"sum_hessian":[1.5235429E1,3.0594723E0,1.2175957E1,5.4547625E0,6.7211943E0,4.0520134E0,1.4027488E0,1.6213295E0,5.0998645E0,2.8334157E0,1.2185975E0,3.7833915E0,1.3164731E0],"tree_param":{"num_deleted":"0","num_feature":"6","num_nodes":"13","size_leaf_vector":"1"}},{"base_weights":[1.9412607E-1,-3.732394E-1,4.479596E-1,2.3284947E-2,-7.0538104E-1,7.902774E-1,5.4578215E-2,-4.6027426E-2,-1.0300859E-2,5.34888E-2,3.8005945E-1,-2.363806E-1,3.8215254E-2,-7.4110874E-3,3.0973509E-2,2.0504823E-2,-4.077057E-2],"categories":[],"categories_nodes":[],"categories_segments":[],"categories_sizes":[],"default_left":[0,0,0,0,0,0,0,0,0,0,0,0,0,0,0,0,0],"id":26,"left_children":[1,3,5,-1,7,9,11,-1,-1,-1,13,15,-1,-1,-1,-1,-1],"loss_changes":[2.4392467E0,1.8393093E0,1.4858625E0,0E0,2.7042365E-1,2.8101373E-1,1.493462E0,0E0,0E0,0E0,5.953531E-1,2.3081095E0,0E0,0E0,0E0,0E0,0E0],"parents":[2147483647,0,0,1,1,2,2,4,4,5,5,6,6,10,10,11,11],"right_children":[2,4,6,-1,8,10,12,-1,-1,-1,14,16,-1,-1,-1,-1,-1],"split_conditions":[7.17E2,3.64E2,1.142E3,2.3284947E-2,-1.0110713E-2,3.0278487E-3,6.3E3,-4.6027426E-2,-1.0300859E-2,5.34888E-2,8.842403E-3,5.935845E-2,3.8215254E-2,-7.4110874E-3,3.0973509E-2,2.0504823E-2,-4.077057E-2],"split_indices":[1,1,1,0,2,2,1,0,0,0,2,0,0,0,0,0,0],"split_type":[0,0,0,0,0,0,0,0,0,0,0,0,0,0,0,0,0],"sum_hessian":[1.4776334E1,4.421977E0,1.0354357E1,1.1401147E0,3.2818623E0,4.9970355E0,5.357321E0,1.7041363E0,1.5777259E0,2.0157788E0,2.981257E0,4.272651E0,1.0846698E0,1.0485115E0,1.9327453E0,2.1566007E0,2.1160505E0],"tree_param":{"num_deleted":"0","num_feature":"6","num_nodes":"17","size_leaf_vector":"1"}},{"base_weights":[1.3157909E-1,-3.5057703E-1,2.935306E-1,8.1918305E-3,-3.5470214E-2,6.3789326E-1,-9.703255E-2,3.4010329E-3,3.7380062E-2,4.6480775E-2,-2.198658E-2,-9.30569E-3,2.547338E-2],"categories":[],"categories_nodes":[],"categories_segments":[],"categories_sizes":[],"default_left":[0,0,0,0,0,0,0,0,0,0,0,0,0],"id":27,"left_children":[1,3,5,-1,-1,7,9,-1,-1,11,-1,-1,-1],"loss_changes":[1.3318125E0,9.307623E-1,1.7195659E0,0E0,0E0,3.6690283E-1,3.4716016E-1,0E0,0E0,6.964406E-1,0E0,0E0,0E0],"parents":[2147483647,0,0,1,1,2,2,5,5,6,6,9,9],"right_children":[2,4,6,-1,-1,8,10,-1,-1,12,-1,-1,-1],"split_conditions":[-2.5908247E-2,-5.803025E-2,1.125E3,8.1918305E-3,-3.5470214E-2,6.12E2,3.640335E-2,3.4010329E-3,3.7380062E-2,1.1375845E-2,-2.198658E-2,-9.30569E-3,2.547338E-2],"split_indices":[2,2,4,0,0,1,2,0,0,2,0,0,0],"split_type":[0,0,0,0,0,0,0,0,0,0,0,0,0],"sum_hessian":[1.4737887E1,3.4127803E0,1.1325107E1,1.625656E0,1.7871243E0,5.681988E0,5.6431193E0,1.1787972E0,4.5031905E0,4.586699E0,1.0564201E0,3.451004E0,1.1356951E0],"tree_param":{"num_deleted":"0","num_feature":"6","num_nodes":"13","size_leaf_vector":"1"}},{"base_weights":[1.2863912E-1,2.295416E-2,4.008693E-2,1.791625E-1,-3.129887E-2,6.9398275E-3,4.543956E-2,1.1655738E-2,-2.642153E-2],"categories":[],"categories_nodes":[],"categories_segments":[],"categories_sizes":[],"default_left":[0,0,0,0,0,0,0,0,0],"id":28,"left_children":[1,3,-1,5,-1,7,-1,-1,-1],"loss_changes":[1.0906794E0,1.5824636E0,0E0,1.5604045E0,0E0,1.466617E0,0E0,0E0,0E0],"parents":[2147483647,0,0,1,1,3,3,5,5],"right_children":[2,4,-1,6,-1,8,-1,-1,-1],"split_conditions":[2.7124575E-1,6.9991454E-2,4.008693E-2,6.76707E-2,-3.129887E-2,5.935845E-2,4.543956E-2,1.1655738E-2,-2.642153E-2],"split_indices":[0,0,0,0,0,0,0,0,0],"split_type":[0,0,0,0,0,0,0,0,0],"sum_hessian":[1.4590911E1,1.3504621E1,1.0862906E0,1.14679985E1,2.0366218E0,1.0094733E1,1.3732649E0,7.493549E0,2.6011846E0],"tree_param":{"num_deleted":"0","num_feature":"6","num_nodes":"9","size_leaf_vector":"1"}},{"base_weights":[1.2267518E-1,-1.0353182E-1,4.7838515E-1,2.123655E-2,-2.9594067E-1,3.6270157E-2,-1.5765391E-3,-4.3495506E-2,-5.1840745E-2,-1.9953413E-2,9.920857E-3],"categories":[],"categories_nodes":[],"categories_segments":[],"categories_sizes":[],"default_left":[0,0,0,0,0,0,0,0,0,0,0],"id":29,"left_children":[1,3,5,-1,7,-1,-1,-1,9,-1,-1],"loss_changes":[1.3561987E0,1.2182143E0,8.404089E-1,0E0,1.1413579E0,0E0,0E0,0E0,6.8787676E-1,0E0,0E0],"parents":[2147483647,0,0,1,1,2,2,4,4,8,8],"right_children":[2,4,6,-1,8,-1,-1,-1,10,-1,-1],"split_conditions":[1.1375845E-2,4.0369306E-2,1.237E3,2.123655E-2,4.829894E-2,3.6270157E-2,-1.5765391E-3,-4.3495506E-2,7.98E2,-1.9953413E-2,9.920857E-3],"split_indices":[2,0,1,0,0,0,0,0,1,0,0],"split_type":[0,0,0,0,0,0,0,0,0,0,0],"sum_hessian":[1.5239176E1,9.748651E0,5.4905257E0,2.2803788E0,7.4682713E0,3.414062E0,2.0764637E0,1.4634386E0,6.0048327E0,2.2660744E0,3.7387583E0],"tree_param":{"num_deleted":"0","num_feature":"6","num_nodes":"11","size_leaf_vector":"1"}},{"base_weights":[2.3702754E-1,1.04494035E-1,4.516248E-2,3.1033617E-1,-6.6343415E-1,-9.744418E-2,5.901407E-1,-1.0943482E-2,-4.0819816E-2,-2.4435181E-2,4.0280458E-2,4.0157173E-2,3.2853044E-3],"categories":[],"categories_nodes":[],"categories_segments":[],"categories_sizes":[],"default_left":[0,0,0,0,0,0,0,0,0,0,0,0,0],"id":30,"left_children":[1,3,-1,5,7,9,11,-1,-1,-1,-1,-1,-1],"loss_changes":[1.3083004E0,2.4791145E0,0E0,1.4292383E0,4.9708366E-2,2.4255607E0,7.5952077E-1,0E0,0E0,0E0,0E0,0E0,0E0],"parents":[2147483647,0,0,1,1,3,3,4,4,5,5,6,6],"right_children":[2,4,-1,6,8,10,12,-1,-1,-1,-1,-1,-1],"split_conditions":[5.709E3,1.29E3,4.516248E-2,7.17E2,5.935845E-2,6.76707E-2,5.9051644E-2,-1.0943482E-2,-4.0819816E-2,-2.4435181E-2,4.0280458E-2,4.0157173E-2,3.2853044E-3],"split_indices":[1,1,0,1,0,0,0,0,0,0,0,0,0],"split_type":[0,0,0,0,0,0,0,0,0,0,0,0,0],"sum_hessian":[1.488603E1,1.3380961E1,1.5050684E0,1.1022322E1,2.3586402E0,4.7506223E0,6.2716994E0,1.2260783E0,1.1325618E0,3.6346817E0,1.1159406E0,4.082228E0,2.1894712E0],"tree_param":{"num_deleted":"0","num_feature":"6","num_nodes":"13","size_leaf_vector":"1"}},{"base_weights":[2.0283875E-1,6.597403E-1,3.7843846E-2,7.006994E-3,4.31486E-2,-8.902078E-2,3.835406E-2,1.1040814E-1,-6.706818E-1,-5.638638E-3,4.3852486E-2,-9.438196E-3,-4.152298E-2],"categories":[],"categories_nodes":[],"categories_segments":[],"categories_sizes":[],"default_left":[0,0,0,0,0,0,0,0,0,0,0,0,0],"id":31,"left_children":[1,3,5,-1,-1,7,-1,9,11,-1,-1,-1,-1],"loss_changes":[1.2163159E0,3.339448E-1,1.2855889E0,0E0,0E0,1.4781278E0,0E0,1.7880615E0,9.208667E-2,0E0,0E0,0E0,0E0],"parents":[2147483647,0,0,1,1,2,2,5,5,7,7,8,8],"right_children":[2,4,6,-1,-1,8,-1,10,12,-1,-1,-1,-1],"split_conditions":[4.0369306E-2,3.3200867E-2,2.7124575E-1,7.006994E-3,4.31486E-2,6.9991454E-2,3.835406E-2,6.76707E-2,1.11E3,-5.638638E-3,4.3852486E-2,-9.438196E-3,-4.152298E-2],"split_indices":[0,0,0,0,0,0,0,0,4,0,0,0,0],"split_type":[0,0,0,0,0,0,0,0,0,0,0,0,0],"sum_hessian":[1.5465599E1,3.3076236E0,1.2157975E1,1.4050083E0,1.9026153E0,1.1104128E1,1.053847E0,8.8723345E0,2.2317936E0,7.5324306E0,1.3399038E0,1.0988587E0,1.1329349E0],"tree_param":{"num_deleted":"0","num_feature":"6","num_nodes":"13","size_leaf_vector":"1"}},{"base_weights":[1.0605344E-1,8.740628E-3,3.7645172E-2,1.637547E-1,-3.584733E-2,3.642005E-2,3.9897397E-2,1.8319787E-2,-1.20194545E-2],"categories":[],"categories_nodes":[],"categories_segments":[],"categories_sizes":[],"default_left":[0,0,0,0,0,0,0,0,0],"id":32,"left_children":[1,3,-1,5,-1,7,-1,-1,-1],"loss_changes":[9.806701E-1,1.7648095E0,0E0,1.0111496E0,0E0,1.1636176E0,0E0,0E0,0E0],"parents":[2147483647,0,0,1,1,3,3,5,5],"right_children":[2,4,-1,6,-1,8,-1,-1,-1],"split_conditions":[2.7124575E-1,6.9991454E-2,3.7645172E-2,6.76707E-2,-3.584733E-2,4.541181E-2,3.9897397E-2,1.8319787E-2,-1.20194545E-2],"split_indices":[0,0,0,0,0,0,0,0,0],"split_type":[0,0,0,0,0,0,0,0,0],"sum_hessian":[1.4683896E1,1.3644687E1,1.0392089E0,1.1881108E1,1.7635789E0,1.077509E1,1.106018E0,4.7678466E0,6.0072436E0],"tree_param":{"num_deleted":"0","num_feature":"6","num_nodes":"9","size_leaf_vector":"1"}},{"base_weights":[1.6102402E-1,-6.0582444E-2,4.6682972E-1,1.5970661E-1,-4.2754215E-1,7.2144705E-1,2.3303198E-2,3.1236341E-2,-5.59175E-2,-3.2174163E-2,-2.1838923E-3,4.792433E-4,4.7786955E-2,-1.1218325E-2,1.2711937E-2,1.3919502E-2,-2.801924E-2],"categories":[],"categories_nodes":[],"categories_segments":[],"categories_sizes":[],"default_left":[0,0,0,0,0,0,0,0,0,0,0,0,0,0,0,0,0],"id":33,"left_children":[1,3,5,7,9,11,13,-1,15,-1,-1,-1,-1,-1,-1,-1,-1],"loss_changes":[1.1044881E0,8.84178E-1,7.4970174E-1,7.4033E-1,3.0827665E-1,7.044573E-1,2.5773314E-1,0E0,1.1213764E0,0E0,0E0,0E0,0E0,0E0,0E0,0E0,0E0],"parents":[2147483647,0,0,1,1,2,2,3,3,4,4,5,5,6,6,8,8],"right_children":[2,4,6,8,10,12,14,-1,16,-1,-1,-1,-1,-1,-1,-1,-1],"split_conditions":[1.1375845E-2,1.17E3,1.237E3,-1.2029025E-1,-1.5173816E-2,6.64E2,1.529E3,3.1236341E-2,1.027E3,-3.2174163E-2,-2.1838923E-3,4.792433E-4,4.7786955E-2,-1.1218325E-2,1.2711937E-2,1.3919502E-2,-2.801924E-2],"split_indices":[2,4,1,2,2,1,1,0,1,0,0,0,0,0,0,0,0],"split_type":[0,0,0,0,0,0,0,0,0,0,0,0,0,0,0,0,0],"sum_hessian":[1.4880625E1,9.093083E0,5.787541E0,6.0350037E0,3.05808E0,3.2787044E0,2.5088367E0,1.3108014E0,4.7242026E0,1.5242758E0,1.5338042E0,1.0696473E0,2.209057E0,1.2242837E0,1.284553E0,3.1108265E0,1.6133759E0],"tree_param":{"num_deleted":"0","num_feature":"6","num_nodes":"17","size_leaf_vector":"1"}},{"base_weights":[1.1805832E-1,-3.7471005E-1,3.905293E-1,3.791919E-2,-7.871309E-1,7.196426E-1,7.4785966E-3,-4.6186194E-2,-1.0452236E-2,8.4893955E-3,8.318361E-1,-3.6144468E-1,3.797479E-2,9.255921E-3,4.976242E-2,1.509316E-2,-3.8841914E-2],"categories":[],"categories_nodes":[],"categories_segments":[],"categories_sizes":[],"default_left":[0,0,0,0,0,0,0,0,0,0,0,0,0,0,0,0,0],"id":34,"left_children":[1,3,5,-1,7,9,11,-1,-1,-1,13,15,-1,-1,-1,-1,-1],"loss_changes":[2.164314E0,3.336256E0,1.2764633E0,0E0,1.849978E-1,1.9550157E-1,1.858522E0,0E0,0E0,0E0,2.6776576E-1,1.4765784E0,0E0,0E0,0E0,0E0,0E0],"parents":[2147483647,0,0,1,1,2,2,4,4,5,5,6,6,10,10,11,11],"right_children":[2,4,6,-1,8,10,12,-1,-1,-1,14,16,-1,-1,-1,-1,-1],"split_conditions":[7.17E2,2.96E2,5.935845E-2,3.791919E-2,1.185E3,1.035E3,6.3E3,-4.6186194E-2,-1.0452236E-2,8.4893955E-3,3.8753886E-2,1.099E3,3.797479E-2,9.255921E-3,4.976242E-2,1.509316E-2,-3.8841914E-2],"split_indices":[1,1,0,0,4,4,1,0,0,0,0,1,0,0,0,0,0],"split_type":[0,0,0,0,0,0,0,0,0,0,0,0,0,0,0,0,0],"sum_hessian":[1.402981E1,4.8618474E0,9.167962E0,1.0735351E0,3.7883122E0,4.458527E0,4.709435E0,2.5806448E0,1.2076672E0,1.1814839E0,3.2770433E0,3.5079014E0,1.2015337E0,1.0912321E0,2.1858113E0,1.4560935E0,2.0518079E0],"tree_param":{"num_deleted":"0","num_feature":"6","num_nodes":"17","size_leaf_vector":"1"}},{"base_weights":[1.3548653E-1,5.9303904E-1,-3.246485E-2,4.6393298E-2,-1.1460979E-2,-4.3995425E-1,2.8747523E-1,-4.973753E-2,2.0276455E-2,4.687115E-2,-4.184277E-2,-1.8637119E-2,2.8248502E-2],"categories":[],"categories_nodes":[],"categories_segments":[],"categories_sizes":[],"default_left":[0,0,0,0,0,0,0,0,0,0,0,0,0],"id":35,"left_children":[1,3,5,-1,-1,7,9,-1,-1,-1,11,-1,-1],"loss_changes":[1.1964097E0,1.3593543E0,1.7109321E0,0E0,0E0,3.096105E0,1.6258615E0,0E0,0E0,0E0,1.3907017E0,0E0,0E0],"parents":[2147483647,0,0,1,1,2,2,5,5,6,6,10,10],"right_children":[2,4,6,-1,-1,8,10,-1,-1,-1,12,-1,-1],"split_conditions":[4.060754E-2,9.88E2,9.05E2,4.6393298E-2,-1.1460979E-2,6.519301E-2,1.142E3,-4.973753E-2,2.0276455E-2,4.687115E-2,5.709E3,-1.8637119E-2,2.8248502E-2],"split_indices":[0,1,1,0,0,0,1,0,0,0,1,0,0],"split_type":[0,0,0,0,0,0,0,0,0,0,0,0,0],"sum_hessian":[1.4318275E1,3.1649466E0,1.1153329E1,2.157833E0,1.0071136E0,4.7405043E0,6.412824E0,2.7556996E0,1.9848049E0,1.5355928E0,4.8772316E0,3.4057746E0,1.471457E0],"tree_param":{"num_deleted":"0","num_feature":"6","num_nodes":"13","size_leaf_vector":"1"}},{"base_weights":[1.547513E-1,-9.337326E-2,5.436615E-1,1.7466767E-2,-2.6571122E-1,4.3934878E-2,2.376996E-1,-4.1236863E-2,-6.537342E-3,-1.6460946E-2,5.1928216E-1,9.525712E-3,-1.8540988E-2,4.0251166E-2,-2.5642652E-3],"categories":[],"categories_nodes":[],"categories_segments":[],"categories_sizes":[],"default_left":[0,0,0,0,0,0,0,0,0,0,0,0,0,0,0],"id":36,"left_children":[1,3,5,-1,7,-1,9,-1,11,-1,13,-1,-1,-1,-1],"loss_changes":[1.4494233E0,8.330504E-1,3.8486576E-1,0E0,1.0887127E0,0E0,8.730621E-1,0E0,5.133642E-1,0E0,5.836403E-1,0E0,0E0,0E0,0E0],"parents":[2147483647,0,0,1,1,2,2,4,4,6,6,8,8,10,10],"right_children":[2,4,6,-1,8,-1,10,-1,12,-1,14,-1,-1,-1,-1],"split_conditions":[1.1375845E-2,4.0369306E-2,2.50108E-2,1.7466767E-2,4.829894E-2,4.3934878E-2,3.6419727E-2,-4.1236863E-2,6.86928E-2,-1.6460946E-2,5.935845E-2,9.525712E-3,-1.8540988E-2,4.0251166E-2,-2.5642652E-3],"split_indices":[2,0,2,0,0,0,2,0,0,0,0,0,0,0,0],"split_type":[0,0,0,0,0,0,0,0,0,0,0,0,0,0,0],"sum_hessian":[1.3494161E1,8.702121E0,4.79204E0,2.1505823E0,6.5515385E0,1.3938358E0,3.3982043E0,1.3840433E0,5.1674953E0,1.0715822E0,2.326622E0,3.663052E0,1.5044429E0,1.2764546E0,1.0501674E0],"tree_param":{"num_deleted":"0","num_feature":"6","num_nodes":"15","size_leaf_vector":"1"}},{"base_weights":[1.6260606E-1,6.445222E-2,3.697849E-2,2.78783E-1,-2.8515259E-2,-8.732657E-2,5.274944E-1,-2.2282314E-2,3.679811E-2,4.2515352E-2,-2.9779612E-3],"categories":[],"categories_nodes":[],"categories_segments":[],"categories_sizes":[],"default_left":[0,0,0,0,0,0,0,0,0,0,0],"id":37,"left_children":[1,3,-1,5,-1,7,9,-1,-1,-1,-1],"loss_changes":[8.3543897E-1,2.1211135E0,0E0,1.0889612E0,0E0,1.9478773E0,1.3700452E0,0E0,0E0,0E0,0E0],"parents":[2147483647,0,0,1,1,3,3,5,5,6,6],"right_children":[2,4,-1,6,-1,8,10,-1,-1,-1,-1],"split_conditions":[6.3E3,1.29E3,3.697849E-2,7.17E2,-2.8515259E-2,6.76707E-2,5.9051644E-2,-2.2282314E-2,3.679811E-2,4.2515352E-2,-2.9779612E-3],"split_indices":[1,1,0,1,0,0,0,0,0,0,0],"split_type":[0,0,0,0,0,0,0,0,0,0,0],"sum_hessian":[1.4593982E1,1.3422276E1,1.1717061E0,1.0453406E1,2.9688697E0,4.491171E0,5.962235E0,3.4488354E0,1.0423355E0,3.5575535E0,2.4046814E0],"tree_param":{"num_deleted":"0","num_feature":"6","num_nodes":"11","size_leaf_vector":"1"}},{"base_weights":[7.804987E-2,-4.2524204E-1,2.9097712E-1,-7.7129406E-1,2.1632789E-2,4.7578874E-1,-2.6197183E-1,-1.0993249E-2,-4.548474E-2,-7.631243E-3,5.8320177E-1,4.56596E-3,-2.2273986E-2,-1.0635694E-3,3.4116905E-2],"categories":[],"categories_nodes":[],"categories_segments":[],"categories_sizes":[],"default_left":[0,0,0,0,0,0,0,0,0,0,0,0,0,0,0],"id":38,"left_children":[1,3,5,7,-1,9,11,-1,-1,-1,13,-1,-1,-1,-1],"loss_changes":[1.766241E0,1.8070675E0,1.2859539E0,9.730697E-2,0E0,6.8789816E-1,2.6705045E-1,0E0,0E0,0E0,4.8101354E-1,0E0,0E0,0E0,0E0],"parents":[2147483647,0,0,1,1,2,2,3,3,5,5,6,6,10,10],"right_children":[2,4,6,8,-1,10,12,-1,-1,-1,14,-1,-1,-1,-1],"split_conditions":[6.54E2,6.76707E-2,1.17E3,4.3241236E-2,2.1632789E-2,3.4892183E-2,8.73E2,-1.0993249E-2,-4.548474E-2,-7.631243E-3,1.005E3,4.56596E-3,-2.2273986E-2,-1.0635694E-3,3.4116905E-2],"split_indices":[1,0,4,0,0,0,1,0,0,0,4,0,0,0,0],"split_type":[0,0,0,0,0,0,0,0,0,0,0,0,0,0,0],"sum_hessian":[1.4326944E1,3.962868E0,1.0364077E1,2.8957515E0,1.0671166E0,7.872426E0,2.4916506E0,1.1003288E0,1.7954226E0,1.0877415E0,6.784684E0,1.0235232E0,1.4681274E0,1.0666057E0,5.7180786E0],"tree_param":{"num_deleted":"0","num_feature":"6","num_nodes":"15","size_leaf_vector":"1"}},{"base_weights":[1.0445196E-1,-9.133902E-3,3.8763013E-2,1.6139223E-1,-4.283993E-2,1.613337E-2,4.025163E-2,-3.162573E-2,1.7249674E-2],"categories":[],"categories_nodes":[],"categories_segments":[],"categories_sizes":[],"default_left":[0,0,0,0,0,0,0,0,0],"id":39,"left_children":[1,3,-1,5,-1,7,-1,-1,-1],"loss_changes":[1.1491092E0,2.1339662E0,0E0,1.1403143E0,0E0,2.5827277E0,0E0,0E0,0E0],"parents":[2147483647,0,0,1,1,3,3,5,5],"right_children":[2,4,-1,6,-1,8,-1,-1,-1],"split_conditions":[5.709E3,6.9991454E-2,3.8763013E-2,6.76707E-2,-4.283993E-2,6.12E2,4.025163E-2,-3.162573E-2,1.7249674E-2],"split_indices":[1,0,0,0,0,1,0,0,0],"split_type":[0,0,0,0,0,0,0,0,0],"sum_hessian":[1.3988359E1,1.28062935E1,1.1820657E0,1.1335513E1,1.4707806E0,1.0084643E1,1.2508694E0,3.082105E0,7.002538E0],"tree_param":{"num_deleted":"0","num_feature":"6","num_nodes":"9","size_leaf_vector":"1"}},{"base_weights":[-5.0503384E-2,-1.3523918E-1,2.3301084E-2,8.127177E-2,-7.08181E-1,-3.0390567E-1,3.562449E-1,-1.0874703E-2,-4.3124612E-2,-3.506114E-2,2.4202188E-2,3.0631317E-2,-1.1781468E-2],"categories":[],"categories_nodes":[],"categories_segments":[],"categories_sizes":[],"default_left":[0,0,0,0,0,0,0,0,0,0,0,0,0],"id":40,"left_children":[1,3,-1,5,7,9,11,-1,-1,-1,-1,-1,-1],"loss_changes":[6.887843E-1,1.6772923E0,0E0,1.2069418E0,9.135795E-2,1.8610668E0,1.1326544E0,0E0,0E0,0E0,0E0,0E0,0E0],"parents":[2147483647,0,0,1,1,3,3,4,4,5,5,6,6],"right_children":[2,4,-1,6,8,10,12,-1,-1,-1,-1,-1,-1],"split_conditions":[5.709E3,1.266E3,2.3301084E-2,6.54E2,5.935845E-2,6.76707E-2,5.9051644E-2,-1.0874703E-2,-4.3124612E-2,-3.506114E-2,2.4202188E-2,3.0631317E-2,-1.1781468E-2],"split_indices":[1,1,0,1,0,0,0,0,0,0,0,0,0],"split_type":[0,0,0,0,0,0,0,0,0,0,0,0,0],"sum_hessian":[1.329715E1,1.2057323E1,1.2398257E0,9.373347E0,2.6839762E0,3.860462E0,5.5128856E0,1.2185661E0,1.4654101E0,2.6395543E0,1.2209076E0,3.8221765E0,1.6907091E0],"tree_param":{"num_deleted":"0","num_feature":"6","num_nodes":"13","size_leaf_vector":"1"}},{"base_weights":[5.2388236E-2,4.7769976E-1,-1.5816173E-1,1.896418E-3,6.3817364E-1,-3.3389288E-1,2.7384922E-2,7.6794163E-3,3.9594654E-2,-3.9672486E-2,-1.5476017E-1,2.620934E-2,-2.3690052E-2],"categories":[],"categories_nodes":[],"categories_segments":[],"categories_sizes":[],"default_left":[0,0,0,0,0,0,0,0,0,0,0,0,0],"id":41,"left_children":[1,3,5,-1,7,9,-1,-1,-1,-1,11,-1,-1],"loss_changes":[1.2969325E0,3.1207073E-1,1.4076791E0,0E0,1.337204E-1,5.79176E-1,0E0,0E0,0E0,0E0,1.8464932E0,0E0,0E0],"parents":[2147483647,0,0,1,1,2,2,4,4,5,5,10,10],"right_children":[2,4,6,-1,8,10,-1,-1,-1,-1,12,-1,-1],"split_conditions":[4.541181E-2,3.4892183E-2,2.679197E-1,1.896418E-3,3.7914212E-3,4.829894E-2,2.7384922E-2,7.6794163E-3,3.9594654E-2,-3.9672486E-2,5.935845E-2,2.620934E-2,-2.3690052E-2],"split_indices":[0,0,0,0,2,0,0,0,0,0,0,0,0],"split_type":[0,0,0,0,0,0,0,0,0,0,0,0,0],"sum_hessian":[1.2639172E1,3.765014E0,8.874158E0,1.3371011E0,2.427913E0,7.527163E0,1.3469944E0,1.0661447E0,1.3617681E0,1.1492972E0,6.377866E0,1.833343E0,4.544523E0],"tree_param":{"num_deleted":"0","num_feature":"6","num_nodes":"13","size_leaf_vector":"1"}},{"base_weights":[5.317901E-2,-4.7529604E-2,3.4516484E-2,1.1217763E-1,-3.4173172E-2,-8.8363215E-2,3.4734238E-2,7.2912797E-3,-3.8502168E-2],"categories":[],"categories_nodes":[],"categories_segments":[],"categories_sizes":[],"default_left":[0,0,0,0,0,0,0,0,0],"id":42,"left_children":[1,3,-1,5,-1,7,-1,-1,-1],"loss_changes":[9.851851E-1,1.4733694E0,0E0,1.4457322E0,0E0,1.6612645E0,0E0,0E0,0E0],"parents":[2147483647,0,0,1,1,3,3,5,5],"right_children":[2,4,-1,6,-1,8,-1,-1,-1],"split_conditions":[6.3E3,6.9991454E-2,3.4516484E-2,6.519301E-2,-3.4173172E-2,5.935845E-2,3.4734238E-2,7.2912797E-3,-3.8502168E-2],"split_indices":[1,0,0,0,0,0,0,0,0],"split_type":[0,0,0,0,0,0,0,0,0],"sum_hessian":[1.3842217E1,1.2752024E1,1.0901936E0,1.085062E1,1.9014027E0,8.702797E0,2.1478236E0,7.062559E0,1.6402382E0],"tree_param":{"num_deleted":"0","num_feature":"6","num_nodes":"9","size_leaf_vector":"1"}},{"base_weights":[1.1660362E-1,-2.1547021E-1,2.827662E-1,3.5777256E-2,-5.91863E-1,5.769757E-1,-1.695173E-1,-4.189311E-2,3.7028806E-3,7.2109914E-1,5.473283E-3,-6.014109E-1,2.566724E-2,8.8882595E-3,4.161839E-2,-6.70832E-3,-3.9230313E-2],"categories":[],"categories_nodes":[],"categories_segments":[],"categories_sizes":[],"default_left":[0,0,0,0,0,0,0,0,0,0,0,0,0,0,0,0,0],"id":43,"left_children":[1,3,5,-1,7,9,11,-1,-1,13,-1,15,-1,-1,-1,-1,-1],"loss_changes":[8.6471236E-1,2.3248081E0,1.4472823E0,0E0,7.846358E-1,3.5037255E-1,1.7154769E0,0E0,0E0,1.3564467E-1,0E0,1.8425167E-1,0E0,0E0,0E0,0E0,0E0],"parents":[2147483647,0,0,1,1,2,2,4,4,5,5,6,6,9,9,11,11],"right_children":[2,4,6,-1,8,10,12,-1,-1,14,-1,16,-1,-1,-1,-1,-1],"split_conditions":[6.64E2,2.96E2,1.266E3,3.5777256E-2,1.17E3,5.9051644E-2,5.709E3,-4.189311E-2,3.7028806E-3,3.6525164E-2,5.473283E-3,1.035E3,2.566724E-2,8.8882595E-3,4.161839E-2,-6.70832E-3,-3.9230313E-2],"split_indices":[1,1,1,0,4,0,1,0,0,0,0,4,0,0,0,0,0],"split_type":[0,0,0,0,0,0,0,0,0,0,0,0,0,0,0,0,0],"sum_hessian":[1.3567057E1,4.425669E0,9.141388E0,1.0147082E0,3.4109612E0,5.371526E0,3.7698615E0,2.3022723E0,1.1086888E0,3.691187E0,1.6803392E0,2.3823576E0,1.387504E0,1.0689648E0,2.622222E0,1.1589056E0,1.223452E0],"tree_param":{"num_deleted":"0","num_feature":"6","num_nodes":"17","size_leaf_vector":"1"}},{"base_weights":[2.424891E-2,-7.498087E-2,3.3514682E-2,-5.3687745E-1,1.0386719E-1,-3.4490563E-2,-5.5009946E-3,2.5539562E-1,-2.1101186E-2,-3.9421148E-3,2.2268863E-2],"categories":[],"categories_nodes":[],"categories_segments":[],"categories_sizes":[],"default_left":[0,0,0,0,0,0,0,0,0,0,0],"id":44,"left_children":[1,3,-1,5,7,-1,-1,9,-1,-1,-1],"loss_changes":[9.9188983E-1,1.181906E0,0E0,1.8308854E-1,9.576465E-1,0E0,0E0,6.0040617E-1,0E0,0E0,0E0],"parents":[2147483647,0,0,1,1,3,3,4,4,7,7],"right_children":[2,4,-1,6,8,-1,-1,10,-1,-1,-1],"split_conditions":[6.3E3,-2.5908247E-2,3.3514682E-2,1.125E3,1.29E3,-3.4490563E-2,-5.5009946E-3,6.12E2,-2.1101186E-2,-3.9421148E-3,2.2268863E-2],"split_indices":[1,2,0,4,1,0,0,1,0,0,0],"split_type":[0,0,0,0,0,0,0,0,0,0,0],"sum_hessian":[1.3688452E1,1.2632145E1,1.0563064E0,2.967181E0,9.664965E0,1.7309847E0,1.2361962E0,7.9023614E0,1.7626033E0,3.0758924E0,4.826469E0],"tree_param":{"num_deleted":"0","num_feature":"6","num_nodes":"11","size_leaf_vector":"1"}},{"base_weights":[4.965592E-2,-3.0247095E-1,2.2382289E-1,-6.446893E-1,2.3910535E-2,4.7656298E-1,-1.8288392E-1,4.9589137E-3,-4.63719E-2,6.623331E-1,2.8595922E-3,-5.954357E-1,2.4338841E-2,1.1494224E-2,4.200637E-2,-9.966177E-3,-3.6346357E-2],"categories":[],"categories_nodes":[],"categories_segments":[],"categories_sizes":[],"default_left":[0,0,0,0,0,0,0,0,0,0,0,0,0,0,0,0,0],"id":45,"left_children":[1,3,5,7,-1,9,11,-1,-1,13,-1,15,-1,-1,-1,-1,-1],"loss_changes":[9.7028774E-1,1.7231028E0,1.1583956E0,9.5592403E-1,0E0,4.8446E-1,1.592962E0,0E0,0E0,1.5685177E-1,0E0,3.0556798E-2,0E0,0E0,0E0,0E0,0E0],"parents":[2147483647,0,0,1,1,2,2,3,3,5,5,6,6,9,9,11,11],"right_children":[2,4,6,8,-1,10,12,-1,-1,14,-1,16,-1,-1,-1,-1,-1],"split_conditions":[7.17E2,6.76707E-2,1.29E3,4.305503E-2,2.3910535E-2,5.9051644E-2,5.709E3,4.9589137E-3,-4.63719E-2,7.138574E-3,2.8595922E-3,5.935845E-2,2.4338841E-2,1.1494224E-2,4.200637E-2,-9.966177E-3,-3.6346357E-2],"split_indices":[1,0,1,0,0,0,1,0,0,2,0,0,0,0,0,0,0],"split_type":[0,0,0,0,0,0,0,0,0,0,0,0,0,0,0,0,0],"sum_hessian":[1.37171755E1,4.2956514E0,9.421524E0,3.107604E0,1.1880473E0,5.704693E0,3.7168314E0,1.0347013E0,2.0729027E0,3.5519333E0,2.1527593E0,2.3685193E0,1.3483121E0,1.7029159E0,1.8490174E0,1.217306E0,1.1512133E0],"tree_param":{"num_deleted":"0","num_feature":"6","num_nodes":"17","size_leaf_vector":"1"}},{"base_weights":[7.7444375E-2,2.7577668E-1,-1.3761978E-1,-1.1882056E-2,4.471883E-1,-3.7596177E-2,1.7479095E-1,-2.0878252E-3,3.4938224E-2,4.640878E-1,-1.3081445E-1,-5.183443E-3,3.9557774E-2,-2.582464E-2,1.4479383E-2],"categories":[],"categories_nodes":[],"categories_segments":[],"categories_sizes":[],"default_left":[0,0,0,0,0,0,0,0,0,0,0,0,0,0,0],"id":46,"left_children":[1,3,5,-1,7,-1,9,-1,-1,11,13,-1,-1,-1,-1],"loss_changes":[6.216093E-1,7.6204944E-1,1.5193441E0,0E0,7.5903237E-1,0E0,5.5627847E-1,0E0,0E0,6.575565E-1,7.1802133E-1,0E0,0E0,0E0,0E0],"parents":[2147483647,0,0,1,1,2,2,4,4,6,6,9,9,10,10],"right_children":[2,4,6,-1,8,-1,10,-1,-1,12,14,-1,-1,-1,-1],"split_conditions":[5.935845E-2,3.4892183E-2,6.519301E-2,-1.1882056E-2,2.593193E-3,-3.7596177E-2,6.903521E-2,-2.0878252E-3,3.4938224E-2,1.17E3,2.679197E-1,-5.183443E-3,3.9557774E-2,-2.582464E-2,1.4479383E-2],"split_indices":[0,0,0,0,2,0,0,0,0,4,0,0,0,0,0],"split_type":[0,0,0,0,0,0,0,0,0,0,0,0,0,0,0],"sum_hessian":[1.2683468E1,6.4515467E0,6.2319207E0,1.5181013E0,4.9334455E0,1.6266133E0,4.6053076E0,1.9593734E0,2.9740722E0,2.0993774E0,2.50593E0,1.0170009E0,1.0823766E0,1.1877321E0,1.318198E0],"tree_param":{"num_deleted":"0","num_feature":"6","num_nodes":"15","size_leaf_vector":"1"}},{"base_weights":[-4.230563E-3,1.5582484E-1,-4.020455E-1,-2.7776513E-1,5.065039E-1,-3.809429E-2,1.6389703E-2,2.3631508E-2,-5.63092E-1,6.659479E-1,2.6039255E-3,-3.9691504E-2,3.1381291E-3,4.0954594E-2,1.3062917E-2],"categories":[],"categories_nodes":[],"categories_segments":[],"categories_sizes":[],"default_left":[0,0,0,0,0,0,0,0,0,0,0,0,0,0,0],"id":47,"left_children":[1,3,5,7,9,-1,-1,-1,11,13,-1,-1,-1,-1,-1],"loss_changes":[9.282378E-1,1.7242683E0,1.3474162E0,1.4014875E0,4.0817153E-1,0E0,0E0,0E0,6.7052245E-1,6.1160564E-2,0E0,0E0,0E0,0E0,0E0],"parents":[2147483647,0,0,1,1,2,2,3,3,4,4,8,8,9,9],"right_children":[2,4,6,8,10,-1,-1,-1,12,14,-1,-1,-1,-1,-1],"split_conditions":[1.29E3,7.17E2,5.709E3,3.1E2,6.0878523E-2,-3.809429E-2,1.6389703E-2,2.3631508E-2,1.185E3,1.027E3,2.6039255E-3,-3.9691504E-2,3.1381291E-3,4.0954594E-2,1.3062917E-2],"split_indices":[1,1,1,1,0,0,0,0,4,1,0,0,0,0,0],"split_type":[0,0,0,0,0,0,0,0,0,0,0,0,0,0,0],"sum_hessian":[1.2594412E1,9.414795E0,3.1796162E0,4.3027143E0,5.112081E0,2.1002164E0,1.0793998E0,1.004494E0,3.2982202E0,3.4397166E0,1.6723644E0,2.21369E0,1.0845302E0,1.7525214E0,1.6871952E0],"tree_param":{"num_deleted":"0","num_feature":"6","num_nodes":"15","size_leaf_vector":"1"}},{"base_weights":[2.9072208E-2,-6.8792544E-2,3.2217633E-2,1.1496813E-1,-3.1427883E-2,-2.5006625E-1,3.7597066E-1,2.6225034E-2,-3.106666E-2,2.8404152E-2,-3.2212504E-3],"categories":[],"categories_nodes":[],"categories_segments":[],"categories_sizes":[],"default_left":[0,0,0,0,0,0,0,0,0,0,0],"id":48,"left_children":[1,3,-1,5,-1,7,9,-1,-1,-1,-1],"loss_changes":[8.837632E-1,1.4024101E0,0E0,1.1020932E0,0E0,1.7671341E0,5.9236544E-1,0E0,0E0,0E0,0E0],"parents":[2147483647,0,0,1,1,3,3,5,5,6,6],"right_children":[2,4,-1,6,-1,8,10,-1,-1,-1,-1],"split_conditions":[6.3E3,1.29E3,3.2217633E-2,6.64E2,-3.1427883E-2,3.1E2,5.9051644E-2,2.6225034E-2,-3.106666E-2,2.8404152E-2,-3.2212504E-3],"split_indices":[1,1,0,1,0,1,0,0,0,0,0],"split_type":[0,0,0,0,0,0,0,0,0,0,0],"sum_hessian":[1.2940824E1,1.1931264E1,1.0095598E0,9.580707E0,2.3505578E0,4.011784E0,5.568922E0,1.1661456E0,2.8456385E0,3.6755927E0,1.8933295E0],"tree_param":{"num_deleted":"0","num_feature":"6","num_nodes":"11","size_leaf_vector":"1"}},{"base_weights":[1.24932425E-2,2.5627503E-2,-6.770945E-2,-5.6571037E-1,1.19984485E-1,-3.405082E-2,-6.048574E-3,4.0554366E-1,-1.8243077E-1,6.587868E-3,3.0469451E-2,-2.3732655E-2,2.3580013E-2],"categories":[],"categories_nodes":[],"categories_segments":[],"categories_sizes":[],"default_left":[0,0,0,0,0,0,0,0,0,0,0,0,0],"id":49,"left_children":[1,-1,3,5,7,-1,-1,9,11,-1,-1,-1,-1],"loss_changes":[6.267887E-1,0E0,1.3396351E0,1.1757529E-1,9.985724E-1,0E0,0E0,2.4435592E-1,1.3494679E0,0E0,0E0,0E0,0E0],"parents":[2147483647,0,0,2,2,3,3,4,4,7,7,8,8],"right_children":[2,-1,4,6,8,-1,-1,10,12,-1,-1,-1,-1],"split_conditions":[3.1E2,2.5627503E-2,6.54E2,6.651911E-2,1.142E3,-3.405082E-2,-6.048574E-3,9.05E2,5.709E3,6.587868E-3,3.0469451E-2,-2.3732655E-2,2.3580013E-2],"split_indices":[1,0,1,0,1,0,0,1,1,0,0,0,0],"split_type":[0,0,0,0,0,0,0,0,0,0,0,0,0],"sum_hessian":[1.376302E1,1.1572129E0,1.2605806E1,2.8992736E0,9.7065325E0,1.8804604E0,1.0188133E0,4.817004E0,4.8895288E0,2.7584577E0,2.0585463E0,3.569109E0,1.3204197E0],"tree_param":{"num_deleted":"0","num_feature":"6","num_nodes":"13","size_leaf_vector":"1"}},{"base_weights":[3.0457895E-2,-9.7896285E-2,4.0294564E-1,1.6574297E-2,-1.9374543E-1,3.8533818E-2,-6.9458536E-3,-3.130429E-1,1.6936487E-2,3.6267226E-3,-2.5873393E-2],"categories":[],"categories_nodes":[],"categories_segments":[],"categories_sizes":[],"default_left":[0,0,0,0,0,0,0,0,0,0,0],"id":50,"left_children":[1,3,5,-1,7,-1,-1,9,-1,-1,-1],"loss_changes":[6.994966E-1,5.1990485E-1,8.509981E-1,0E0,7.211076E-1,0E0,0E0,7.020079E-1,0E0,0E0,0E0],"parents":[2147483647,0,0,1,1,2,2,4,4,7,7],"right_children":[2,4,6,-1,8,-1,-1,10,-1,-1,-1],"split_conditions":[3.5655476E-2,-1.2029025E-1,6.437882E-2,1.6574297E-2,1.2E3,3.8533818E-2,-6.9458536E-3,4.541181E-2,1.6936487E-2,3.6267226E-3,-2.5873393E-2],"split_indices":[2,2,2,0,4,0,0,0,0,0,0],"split_type":[0,0,0,0,0,0,0,0,0,0,0],"sum_hessian":[1.2805578E1,1.0072065E1,2.733513E0,1.3894107E0,8.682654E0,1.3768519E0,1.3566613E0,7.430091E0,1.2525634E0,2.7979324E0,4.6321588E0],"tree_param":{"num_deleted":"0","num_feature":"6","num_nodes":"11","size_leaf_vector":"1"}},{"base_weights":[1.4603946E-1,5.171491E-1,7.7465614E-3,5.3561884E-3,3.6231555E-2,-3.7632513E-1,1.4340585E-1,-3.760653E-2,1.0883852E-2,2.7793223E-2,-3.853515E-2,-3.1500347E-2,1.0190939E-2],"categories":[],"categories_nodes":[],"categories_segments":[],"categories_sizes":[],"default_left":[0,0,0,0,0,0,0,0,0,0,0,0,0],"id":51,"left_children":[1,3,5,-1,-1,7,9,-1,-1,-1,11,-1,-1],"loss_changes":[7.293829E-1,2.511177E-1,6.492819E-1,0E0,0E0,8.910589E-1,7.093781E-1,0E0,0E0,0E0,1.1743375E0,0E0,0E0],"parents":[2147483647,0,0,1,1,2,2,5,5,6,6,10,10],"right_children":[2,4,6,-1,-1,8,10,-1,-1,-1,12,-1,-1],"split_conditions":[4.060754E-2,3.4892183E-2,4.829894E-2,5.3561884E-3,3.6231555E-2,0E0,5.935845E-2,-3.760653E-2,1.0883852E-2,2.7793223E-2,6.267985E-2,-3.1500347E-2,1.0190939E-2],"split_indices":[0,0,0,0,0,2,0,0,0,0,0,0,0],"split_type":[0,0,0,0,0,0,0,0,0,0,0,0,0],"sum_hessian":[1.3290001E1,2.864251E0,1.0425751E1,1.471863E0,1.3923879E0,2.258253E0,8.167497E0,1.2201172E0,1.038136E0,1.8709285E0,6.2965684E0,1.3652076E0,4.931361E0],"tree_param":{"num_deleted":"0","num_feature":"6","num_nodes":"13","size_leaf_vector":"1"}},{"base_weights":[8.583678E-2,-1.1584151E-1,4.199858E-1,1.5766721E-2,-2.2574612E-1,-3.5723008E-3,2.9802693E-2,1.2193127E-2,-3.9669716E-1,-3.5850722E-2,3.0784477E-3],"categories":[],"categories_nodes":[],"categories_segments":[],"categories_sizes":[],"default_left":[0,0,0,0,0,0,0,0,0,0,0],"id":52,"left_children":[1,3,5,-1,7,-1,-1,-1,9,-1,-1],"loss_changes":[1.0089686E0,5.29444E-1,5.253722E-1,0E0,7.6216936E-1,0E0,0E0,0E0,9.9203753E-1,0E0,0E0],"parents":[2147483647,0,0,1,1,2,2,4,4,8,8],"right_children":[2,4,6,-1,8,-1,-1,-1,10,-1,-1],"split_conditions":[1.1375845E-2,-1.2029025E-1,1.035E3,1.5766721E-2,4.0369306E-2,-3.5723008E-3,2.9802693E-2,1.2193127E-2,6.519301E-2,-3.5850722E-2,3.0784477E-3],"split_indices":[2,2,4,0,0,0,0,0,0,0,0],"split_type":[0,0,0,0,0,0,0,0,0,0,0],"sum_hessian":[1.3250009E1,8.670302E0,4.5797057E0,1.3814512E0,7.2888513E0,1.364737E0,3.214969E0,1.8314067E0,5.457444E0,2.8798633E0,2.5775812E0],"tree_param":{"num_deleted":"0","num_feature":"6","num_nodes":"11","size_leaf_vector":"1"}},{"base_weights":[1.1305108E-3,-9.5433116E-2,2.437937E-2,1.1022103E-1,-3.7102275E-2,4.668184E-1,-7.994863E-2,-2.6901523E-3,3.7496757E-2,-2.097442E-2,2.6281286E-2],"categories":[],"categories_nodes":[],"categories_segments":[],"categories_sizes":[],"default_left":[0,0,0,0,0,0,0,0,0,0,0],"id":53,"left_children":[1,3,-1,5,-1,7,9,-1,-1,-1,-1],"loss_changes":[6.9101435E-1,1.7152827E0,0E0,7.283753E-1,0E0,5.8432037E-1,1.7625979E0,0E0,0E0,0E0,0E0],"parents":[2147483647,0,0,1,1,3,3,5,5,6,6],"right_children":[2,4,-1,6,-1,8,10,-1,-1,-1,-1],"split_conditions":[5.709E3,1.266E3,2.437937E-2,4.2361226E-2,-3.7102275E-2,3.4892183E-2,9.05E2,-2.6901523E-3,3.7496757E-2,-2.097442E-2,2.6281286E-2],"split_indices":[1,1,0,0,0,0,1,0,0,0,0],"split_type":[0,0,0,0,0,0,0,0,0,0,0],"sum_hessian":[1.271997E1,1.1283893E1,1.4360776E0,9.19043E0,2.0934625E0,2.6905284E0,6.499902E0,1.2330475E0,1.4574809E0,4.361653E0,2.138249E0],"tree_param":{"num_deleted":"0","num_feature":"6","num_nodes":"11","size_leaf_vector":"1"}},{"base_weights":[1.1063602E-1,-1.9311595E-1,2.293767E-1,-5.801826E-1,2.4576249E-2,3.7804142E-1,-1.923486E-1,-7.607055E-3,-3.5944622E-2,-9.830709E-3,4.923763E-1,7.721547E-3,-2.0889616E-2,2.9853329E-2,-1.0974581E-3],"categories":[],"categories_nodes":[],"categories_segments":[],"categories_sizes":[],"default_left":[0,0,0,0,0,0,0,0,0,0,0,0,0,0,0],"id":54,"left_children":[1,3,5,7,-1,9,11,-1,-1,-1,13,-1,-1,-1,-1],"loss_changes":[5.3851557E-1,1.4495872E0,7.1901757E-1,8.452034E-2,0E0,6.1973906E-1,3.2638687E-1,0E0,0E0,0E0,3.8590515E-1,0E0,0E0,0E0,0E0],"parents":[2147483647,0,0,1,1,2,2,3,3,5,5,6,6,10,10],"right_children":[2,4,6,8,-1,10,12,-1,-1,-1,14,-1,-1,-1,-1],"split_conditions":[6.12E2,6.693138E-2,1.17E3,4.3241236E-2,2.4576249E-2,3.4892183E-2,8.73E2,-7.607055E-3,-3.5944622E-2,-9.830709E-3,6.437882E-2,7.721547E-3,-2.0889616E-2,2.9853329E-2,-1.0974581E-3],"split_indices":[1,0,4,0,0,0,1,0,0,0,2,0,0,0,0],"split_type":[0,0,0,0,0,0,0,0,0,0,0,0,0,0,0],"sum_hessian":[1.2702539E1,3.3939834E0,9.308557E0,2.2656536E0,1.1283296E0,6.9589887E0,2.349568E0,1.0676985E0,1.1979553E0,1.0353929E0,5.9235954E0,1.0497792E0,1.2997886E0,4.788109E0,1.1354866E0],"tree_param":{"num_deleted":"0","num_feature":"6","num_nodes":"15","size_leaf_vector":"1"}},{"base_weights":[5.203907E-2,-1.3658138E-1,3.466428E-1,1.4607797E-2,-2.4504419E-1,5.153893E-1,-2.7857686E-4,-6.4242147E-3,-4.0749576E-2,2.960366E-3,3.289096E-2,-1.4973684E-2,1.6820323E-2],"categories":[],"categories_nodes":[],"categories_segments":[],"categories_sizes":[],"default_left":[0,0,0,0,0,0,0,0,0,0,0,0,0],"id":55,"left_children":[1,3,5,-1,7,9,-1,11,-1,-1,-1,-1,-1],"loss_changes":[8.368179E-1,5.0773335E-1,3.4927422E-1,0E0,1.0867395E0,2.1777141E-1,0E0,7.706141E-1,0E0,0E0,0E0,0E0,0E0],"parents":[2147483647,0,0,1,1,2,2,4,4,5,5,7,7],"right_children":[2,4,6,-1,8,10,-1,12,-1,-1,-1,-1,-1],"split_conditions":[1.1375845E-2,-1.2029025E-1,5.935845E-2,1.4607797E-2,1.142E3,7.39E2,-2.7857686E-4,7.17E2,-4.0749576E-2,2.960366E-3,3.289096E-2,-1.4973684E-2,1.6820323E-2],"split_indices":[2,2,0,0,1,1,0,1,0,0,0,0,0],"split_type":[0,0,0,0,0,0,0,0,0,0,0,0,0],"sum_hessian":[1.3207256E1,8.378987E0,4.828269E0,1.349805E0,7.029183E0,2.9511056E0,1.8771633E0,5.667599E0,1.3615836E0,1.0390086E0,1.9120971E0,3.1238337E0,2.5437655E0],"tree_param":{"num_deleted":"0","num_feature":"6","num_nodes":"13","size_leaf_vector":"1"}},{"base_weights":[1.5003827E-1,-1.7991532E-1,2.524427E-1,1.4213095E-2,-2.8574616E-2,6.899201E-2,5.458376E-1,4.3969247E-1,-2.9091936E-1,3.7722833E-2,1.4473319E-3,-7.5120665E-3,3.501308E-2,-4.5622952E-2,1.9880954E-2],"categories":[],"categories_nodes":[],"categories_segments":[],"categories_sizes":[],"default_left":[0,0,0,0,0,0,0,0,0,0,0,0,0,0,0],"id":56,"left_children":[1,3,5,-1,-1,7,9,11,13,-1,-1,-1,-1,-1,-1],"loss_changes":[4.8525882E-1,8.2898146E-1,5.194325E-1,0E0,0E0,1.1303029E0,3.9194584E-1,7.353382E-1,2.2517228E0,0E0,0E0,0E0,0E0,0E0,0E0],"parents":[2147483647,0,0,1,1,2,2,5,5,6,6,7,7,8,8],"right_children":[2,4,6,-1,-1,8,10,12,14,-1,-1,-1,-1,-1,-1],"split_conditions":[-4.5414634E-2,-1.2029025E-1,6.267985E-2,1.4213095E-2,-2.8574616E-2,4.541181E-2,6.903521E-2,3.4892183E-2,8.95E2,3.7722833E-2,1.4473319E-3,-7.5120665E-3,3.501308E-2,-4.5622952E-2,1.9880954E-2],"split_indices":[2,2,0,0,0,0,0,0,1,0,0,0,0,0,0],"split_type":[0,0,0,0,0,0,0,0,0,0,0,0,0,0,0],"sum_hessian":[1.2017385E1,2.6670542E0,9.35033E0,1.3457978E0,1.3212565E0,6.513065E0,2.8372655E0,3.0992448E0,3.41382E0,1.6939687E0,1.143297E0,1.0792383E0,2.0200067E0,1.6232816E0,1.7905383E0],"tree_param":{"num_deleted":"0","num_feature":"6","num_nodes":"15","size_leaf_vector":"1"}},{"base_weights":[3.7009973E-2,2.3848101E-2,-4.058035E-2,-4.9221432E-1,1.2164461E-1,-2.9868348E-2,-5.8227205E-3,3.8318172E-1,-1.3303588E-1,2.6315132E-2,2.0201223E-3,1.1479479E-2,-2.8954405E-2],"categories":[],"categories_nodes":[],"categories_segments":[],"categories_sizes":[],"default_left":[0,0,0,0,0,0,0,0,0,0,0,0,0],"id":57,"left_children":[1,-1,3,5,7,-1,-1,9,11,-1,-1,-1,-1],"loss_changes":[4.951683E-1,0E0,9.955313E-1,7.161331E-2,7.302197E-1,0E0,0E0,2.3819703E-1,1.0886985E0,0E0,0E0,0E0,0E0],"parents":[2147483647,0,0,2,2,3,3,4,4,7,7,8,8],"right_children":[2,-1,4,6,8,-1,-1,10,12,-1,-1,-1,-1],"split_conditions":[3.64E2,2.3848101E-2,6.54E2,1.155E3,1.142E3,-2.9868348E-2,-5.8227205E-3,6.0878523E-2,1.095E3,2.6315132E-2,2.0201223E-3,1.1479479E-2,-2.8954405E-2],"split_indices":[1,0,1,4,1,0,0,0,4,0,0,0,0],"split_type":[0,0,0,0,0,0,0,0,0,0,0,0,0],"sum_hessian":[1.2938735E1,1.1681148E0,1.177062E1,2.573065E0,9.197555E0,1.5496535E0,1.0234115E0,4.288766E0,4.908789E0,2.6478212E0,1.6409447E0,2.9752753E0,1.9335136E0],"tree_param":{"num_deleted":"0","num_feature":"6","num_nodes":"13","size_leaf_vector":"1"}},{"base_weights":[4.602943E-2,-4.0665574E-2,2.3225224E-2,1.0070593E-1,-3.5791077E-2,-7.056263E-2,5.2614087E-1,1.174974E-2,-1.8738428E-2,5.256407E-3,3.63662E-2],"categories":[],"categories_nodes":[],"categories_segments":[],"categories_sizes":[],"default_left":[0,0,0,0,0,0,0,0,0,0,0],"id":58,"left_children":[1,3,-1,5,-1,7,9,-1,-1,-1,-1],"loss_changes":[5.0868595E-1,1.227308E0,0E0,8.301969E-1,0E0,8.9136285E-1,1.9816446E-1,0E0,0E0,0E0,0E0],"parents":[2147483647,0,0,1,1,3,3,5,5,6,6],"right_children":[2,4,-1,6,-1,8,10,-1,-1,-1,-1],"split_conditions":[5.709E3,6.903521E-2,2.3225224E-2,6.519301E-2,-3.5791077E-2,4.541181E-2,1.185E3,1.174974E-2,-1.8738428E-2,5.256407E-3,3.63662E-2],"split_indices":[1,0,0,0,0,0,4,0,0,0,0],"split_type":[0,0,0,0,0,0,0,0,0,0,0],"sum_hessian":[1.250057E1,1.1103165E1,1.3974056E0,9.884319E0,1.2188458E0,7.6419983E0,2.2423208E0,3.9260352E0,3.7159631E0,1.2173469E0,1.0249739E0],"tree_param":{"num_deleted":"0","num_feature":"6","num_nodes":"11","size_leaf_vector":"1"}},{"base_weights":[-4.0555343E-2,-4.6564153E-1,1.7209247E-1,9.014095E-3,-4.1147333E-2,6.012419E-1,-1.1604283E-1,3.9829634E-2,3.5692293E-3,-2.8525734E-2,1.499602E-1,3.6168974E-2,-2.0586858E-2],"categories":[],"categories_nodes":[],"categories_segments":[],"categories_sizes":[],"default_left":[0,0,0,0,0,0,0,0,0,0,0,0,0],"id":59,"left_children":[1,3,5,-1,-1,7,9,-1,-1,-1,11,-1,-1],"loss_changes":[1.2722511E0,1.225541E0,1.2470405E0,0E0,0E0,3.55749E-1,8.755111E-1,0E0,0E0,0E0,1.8805063E0,0E0,0E0],"parents":[2147483647,0,0,1,1,2,2,5,5,6,6,10,10],"right_children":[2,4,6,-1,-1,8,10,-1,-1,-1,12,-1,-1],"split_conditions":[7.17E2,3.73E2,1.036E3,9.014095E-3,-4.1147333E-2,6.0878523E-2,4.829894E-2,3.9829634E-2,3.5692293E-3,-2.8525734E-2,1.095E3,3.6168974E-2,-2.0586858E-2],"split_indices":[1,1,1,0,0,0,0,0,0,0,4,0,0],"split_type":[0,0,0,0,0,0,0,0,0,0,0,0,0],"sum_hessian":[1.2188071E1,3.6673174E0,8.520754E0,1.4825879E0,2.1847293E0,2.9862943E0,5.5344596E0,1.8140649E0,1.1722293E0,1.620697E0,3.9137626E0,1.7942369E0,2.1195257E0],"tree_param":{"num_deleted":"0","num_feature":"6","num_nodes":"13","size_leaf_vector":"1"}},{"base_weights":[-3.4585454E-2,1.6144794E-1,-4.9272725E-1,-2.3297315E-2,4.9710503E-1,-3.526804E-2,3.1253737E-3,-3.2525283E-1,2.1438476E-1,3.2784484E-2,7.467717E-3,4.9147205E-3,-3.3605874E-2,-1.1024139E-2,2.6309952E-2],"categories":[],"categories_nodes":[],"categories_segments":[],"categories_sizes":[],"default_left":[0,0,0,0,0,0,0,0,0,0,0,0,0,0,0],"id":60,"left_children":[1,3,5,7,9,-1,-1,11,13,-1,-1,-1,-1,-1,-1],"loss_changes":[1.2145408E0,6.0711753E-1,5.2032965E-1,5.828506E-1,9.2558146E-2,0E0,0E0,5.870637E-1,7.4021447E-1,0E0,0E0,0E0,0E0,0E0,0E0],"parents":[2147483647,0,0,1,1,2,2,3,3,4,4,7,7,8,8],"right_children":[2,4,6,8,10,-1,-1,12,14,-1,-1,-1,-1,-1,-1],"split_conditions":[1.266E3,9.519888E-3,5.558E3,4.829894E-2,2.6427062E-2,-3.526804E-2,3.1253737E-3,4.0369306E-2,6.54E2,3.2784484E-2,7.467717E-3,4.9147205E-3,-3.3605874E-2,-1.1024139E-2,2.6309952E-2],"split_indices":[1,2,1,0,2,0,0,0,1,0,0,0,0,0,0],"split_type":[0,0,0,0,0,0,0,0,0,0,0,0,0,0,0],"sum_hessian":[1.1637537E1,8.603714E0,3.0338235E0,6.149583E0,2.4541311E0,1.998205E0,1.0356187E0,2.546292E0,3.6032908E0,1.0773232E0,1.3768078E0,1.46907E0,1.077222E0,1.6270506E0,1.9762403E0],"tree_param":{"num_deleted":"0","num_feature":"6","num_nodes":"15","size_leaf_vector":"1"}},{"base_weights":[1.9026959E-1,3.3207614E-2,2.3169415E-2,-3.07569E-1,4.2186478E-1,2.0996891E-1,-3.572523E-2,-3.3053798E-3,6.054146E-1,-9.123376E-3,2.8285852E-2,4.024988E-2,2.269105E-3],"categories":[],"categories_nodes":[],"categories_segments":[],"categories_sizes":[],"default_left":[0,0,0,0,0,0,0,0,0,0,0,0,0],"id":61,"left_children":[1,-1,3,5,7,9,-1,-1,11,-1,-1,-1,-1],"loss_changes":[9.899021E-1,0E0,1.5040216E0,1.471516E0,5.01036E-1,5.9672785E-1,0E0,0E0,3.925284E-1,0E0,0E0,0E0,0E0],"parents":[2147483647,0,0,2,2,3,3,4,4,5,5,8,8],"right_children":[2,-1,4,6,8,10,-1,-1,12,-1,-1,-1,-1],"split_conditions":[4.060754E-2,3.3207614E-2,6.519301E-2,1.095E3,1.11E3,5.3893786E-2,-3.572523E-2,-3.3053798E-3,4.9966453E-3,-9.123376E-3,2.8285852E-2,4.024988E-2,2.269105E-3],"split_indices":[0,0,0,4,4,0,0,0,2,0,0,0,0],"split_type":[0,0,0,0,0,0,0,0,0,0,0,0,0],"sum_hessian":[1.1695319E1,2.2734427E0,9.421877E0,5.2747555E0,4.147121E0,2.5349047E0,2.7398508E0,1.3084389E0,2.8386824E0,1.4369025E0,1.0980023E0,1.7703553E0,1.068327E0],"tree_param":{"num_deleted":"0","num_feature":"6","num_nodes":"13","size_leaf_vector":"1"}},{"base_weights":[1.9784587E-2,1.3573614E-1,-1.97266E-2,-3.2124734E-1,3.133282E-1,8.704379E-3,-3.0506967E-2,3.5066035E-2,8.686654E-3,-2.7114678E-2,1.8728264E-2],"categories":[],"categories_nodes":[],"categories_segments":[],"categories_sizes":[],"default_left":[0,0,0,0,0,0,0,0,0,0,0],"id":62,"left_children":[1,3,-1,5,7,-1,-1,-1,9,-1,-1],"loss_changes":[6.504639E-1,9.489218E-1,0E0,5.954579E-1,9.434325E-1,0E0,0E0,0E0,1.3144096E0,0E0,0E0],"parents":[2147483647,0,0,1,1,3,3,4,4,8,8],"right_children":[2,4,-1,6,8,-1,-1,-1,10,-1,-1],"split_conditions":[1.185E3,6.64E2,-1.97266E-2,1.005E3,1.036E3,8.704379E-3,-3.0506967E-2,3.5066035E-2,4.829894E-2,-2.7114678E-2,1.8728264E-2],"split_indices":[4,1,0,4,1,0,0,0,0,0,0],"split_type":[0,0,0,0,0,0,0,0,0,0,0],"sum_hessian":[1.14251375E1,9.452208E0,1.9729302E0,2.418911E0,7.033296E0,1.0374653E0,1.3814455E0,2.5207467E0,4.5125494E0,1.6083506E0,2.904199E0],"tree_param":{"num_deleted":"0","num_feature":"6","num_nodes":"11","size_leaf_vector":"1"}},{"base_weights":[1.0042987E-2,-3.2597235E-1,1.7632402E-1,-3.6890715E-2,2.3294521E-2,6.5368456E-1,-1.3740717E-1,5.9387535E-3,4.09977E-2,-3.7310716E-2,1.5571539E-1,3.538404E-2,-2.014148E-2],"categories":[],"categories_nodes":[],"categories_segments":[],"categories_sizes":[],"default_left":[0,0,0,0,0,0,0,0,0,0,0,0,0],"id":63,"left_children":[1,3,5,-1,-1,7,9,-1,-1,-1,11,-1,-1],"loss_changes":[7.321377E-1,1.7618291E0,1.3967375E0,0E0,0E0,2.258569E-1,1.2033625E0,0E0,0E0,0E0,1.8079253E0,0E0,0E0],"parents":[2147483647,0,0,1,1,2,2,5,5,6,6,10,10],"right_children":[2,4,6,-1,-1,8,10,-1,-1,-1,12,-1,-1],"split_conditions":[6.54E2,6.76707E-2,1.036E3,-3.6890715E-2,2.3294521E-2,7.98E2,4.829894E-2,5.9387535E-3,4.09977E-2,-3.7310716E-2,1.095E3,3.538404E-2,-2.014148E-2],"split_indices":[1,0,1,0,0,1,0,0,0,0,4,0,0],"split_type":[0,0,0,0,0,0,0,0,0,0,0,0,0],"sum_hessian":[1.1074905E1,3.348333E0,7.726572E0,2.2476182E0,1.1007147E0,2.6344776E0,5.0920944E0,1.0312313E0,1.6032463E0,1.1525466E0,3.939548E0,1.8471497E0,2.0923982E0],"tree_param":{"num_deleted":"0","num_feature":"6","num_nodes":"13","size_leaf_vector":"1"}},{"base_weights":[1.3682038E-2,-1.8909778E-1,3.3023083E-1,-4.0393647E-2,4.6732932E-2,5.435616E-1,-1.4255049E-3,3.35753E-1,-3.3450186E-2,6.648422E-3,3.5828747E-2,-2.3260757E-2,2.211317E-2,1.8862778E-3,3.818492E-2],"categories":[],"categories_nodes":[],"categories_segments":[],"categories_sizes":[],"default_left":[0,0,0,0,0,0,0,0,0,0,0,0,0,0,0],"id":64,"left_children":[1,3,5,-1,7,9,11,13,-1,-1,-1,-1,-1,-1,-1],"loss_changes":[9.026841E-1,1.294856E0,3.881644E-1,0E0,1.7104546E0,1.4160466E-1,8.5202277E-1,7.0867795E-1,0E0,0E0,0E0,0E0,0E0,0E0,0E0],"parents":[2147483647,0,0,1,1,2,2,4,4,5,5,6,6,7,7],"right_children":[2,4,6,-1,8,10,12,14,-1,-1,-1,-1,-1,-1,-1],"split_conditions":[6.519301E-2,6.12E2,6.9991454E-2,-4.0393647E-2,5.935845E-2,6.76707E-2,2.679197E-1,4.829894E-2,-3.3450186E-2,6.648422E-3,3.5828747E-2,-2.3260757E-2,2.211317E-2,1.8862778E-3,3.818492E-2],"split_indices":[0,1,0,0,0,0,0,0,0,0,0,0,0,0,0],"split_type":[0,0,0,0,0,0,0,0,0,0,0,0,0,0,0],"sum_hessian":[1.2089919E1,7.6146398E0,4.475279E0,1.4319158E0,6.182724E0,2.3346415E0,2.1406376E0,4.7824373E0,1.4002868E0,1.2164118E0,1.1182295E0,1.0228902E0,1.1177474E0,3.4605877E0,1.3218493E0],"tree_param":{"num_deleted":"0","num_feature":"6","num_nodes":"15","size_leaf_vector":"1"}},{"base_weights":[1.9452326E-2,-1.5885927E-1,2.9451212E-1,7.030371E-2,-4.9726874E-1,4.7795004E-1,-8.4622E-3,-2.5250205E-1,4.5307797E-1,1.9011274E-3,-4.107144E-2,3.2718476E-2,1.6003175E-3,1.3857903E-2,-2.8825669E-2,3.3625346E-2,6.1985146E-4],"categories":[],"categories_nodes":[],"categories_segments":[],"categories_sizes":[],"default_left":[0,0,0,0,0,0,0,0,0,0,0,0,0,0,0,0,0],"id":65,"left_children":[1,3,5,7,9,11,-1,13,15,-1,-1,-1,-1,-1,-1,-1,-1],"loss_changes":[6.795536E-1,6.923496E-1,5.4235834E-1,8.471722E-1,6.4662015E-1,3.0543453E-1,0E0,8.221105E-1,2.8862697E-1,0E0,0E0,0E0,0E0,0E0,0E0,0E0,0E0],"parents":[2147483647,0,0,1,1,2,2,3,3,4,4,5,5,7,7,8,8],"right_children":[2,4,6,8,10,12,-1,14,16,-1,-1,-1,-1,-1,-1,-1,-1],"split_conditions":[1.1375845E-2,1.036E3,6.437882E-2,7.17E2,1.065E3,1.237E3,-8.4622E-3,3.64E2,1.17E3,1.9011274E-3,-4.107144E-2,3.2718476E-2,1.6003175E-3,1.3857903E-2,-2.8825669E-2,3.3625346E-2,6.1985146E-4],"split_indices":[2,1,2,1,4,1,0,1,4,0,0,0,0,0,0,0,0],"split_type":[0,0,0,0,0,0,0,0,0,0,0,0,0,0,0,0,0],"sum_hessian":[1.1901421E1,7.476879E0,4.424542E0,4.9303885E0,2.5464907E0,3.1485372E0,1.2760049E0,2.8593466E0,2.0710416E0,1.2933927E0,1.2530981E0,1.9211364E0,1.2274009E0,1.1401505E0,1.7191962E0,1.0314082E0,1.0396334E0],"tree_param":{"num_deleted":"0","num_feature":"6","num_nodes":"17","size_leaf_vector":"1"}},{"base_weights":[-1.3773716E-2,1.739486E-2,-1.1982286E-1,-3.5966378E-1,1.9104454E-1,5.01465E-3,-5.0240785E-1,5.2987283E-1,-1.3248416E-2,-2.4800473E-3,-3.3134494E-2,6.3248756E-3,3.5109054E-2],"categories":[],"categories_nodes":[],"categories_segments":[],"categories_sizes":[],"default_left":[0,0,0,0,0,0,0,0,0,0,0,0,0],"id":66,"left_children":[1,-1,3,5,7,-1,9,11,-1,-1,-1,-1,-1],"loss_changes":[5.1921326E-1,0E0,8.419698E-1,4.5753914E-1,9.391948E-1,0E0,3.2268095E-1,1.4049959E-1,0E0,0E0,0E0,0E0,0E0],"parents":[2147483647,0,0,2,2,3,3,4,4,6,6,7,7],"right_children":[2,-1,4,6,8,-1,10,12,-1,-1,-1,-1,-1],"split_conditions":[1.005E3,1.739486E-2,6.519301E-2,-1.7124753E-2,6.9991454E-2,5.01465E-3,4.2361226E-2,6.76707E-2,-1.3248416E-2,-2.4800473E-3,-3.3134494E-2,6.3248756E-3,3.5109054E-2],"split_indices":[4,0,0,2,0,0,0,0,0,0,0,0,0],"split_type":[0,0,0,0,0,0,0,0,0,0,0,0,0],"sum_hessian":[1.14502325E1,2.0791054E0,9.371127E0,5.2012677E0,4.169859E0,1.3023064E0,3.8989613E0,2.2993894E0,1.8704696E0,1.3616564E0,2.5373049E0,1.2072768E0,1.0921125E0],"tree_param":{"num_deleted":"0","num_feature":"6","num_nodes":"13","size_leaf_vector":"1"}},{"base_weights":[1.02748066E-1,-4.4532895E-2,3.2702324E-1,6.970518E-2,-2.0634465E-2,5.3722394E-1,3.467553E-2,2.148935E-2,-6.661985E-2,8.280514E-3,3.2599907E-2,1.8237216E-2,-1.3983441E-2,-2.4329644E-2,5.9466464E-3],"categories":[],"categories_nodes":[],"categories_segments":[],"categories_sizes":[],"default_left":[0,0,0,0,0,0,0,0,0,0,0,0,0,0,0],"id":67,"left_children":[1,3,5,7,-1,9,11,-1,13,-1,-1,-1,-1,-1,-1],"loss_changes":[4.6053702E-1,4.0853637E-1,3.176167E-1,4.089133E-1,0E0,2.4842024E-2,4.5038092E-1,0E0,5.632461E-1,0E0,0E0,0E0,0E0,0E0,0E0],"parents":[2147483647,0,0,1,1,2,2,3,3,5,5,6,6,8,8],"right_children":[2,4,6,8,-1,10,12,-1,14,-1,-1,-1,-1,-1,-1],"split_conditions":[1.1375845E-2,3.0278487E-3,1.095E3,4.0369306E-2,-2.0634465E-2,4.1288547E-2,2.50108E-2,2.148935E-2,5.1432196E-2,8.280514E-3,3.2599907E-2,1.8237216E-2,-1.3983441E-2,-2.4329644E-2,5.9466464E-3],"split_indices":[2,2,4,0,0,2,2,0,0,0,0,0,0,0,0],"split_type":[0,0,0,0,0,0,0,0,0,0,0,0,0,0,0],"sum_hessian":[1.2501481E1,8.02978E0,4.4717007E0,6.7468977E0,1.2828825E0,2.1140556E0,2.3576453E0,1.261685E0,5.485213E0,1.0753217E0,1.0387338E0,1.0718473E0,1.285798E0,1.1836926E0,4.3015203E0],"tree_param":{"num_deleted":"0","num_feature":"6","num_nodes":"15","size_leaf_vector":"1"}},{"base_weights":[4.1766502E-2,2.1167709E-2,-4.828484E-2,-2.5929445E-1,2.3514561E-1,-2.3812909E-2,-3.3534132E-2,5.185174E-1,-1.3758732E-1,-1.5678143E-2,2.2900961E-2,6.2137595E-3,3.4419283E-2,8.565047E-3,-1.868239E-2],"categories":[],"categories_nodes":[],"categories_segments":[],"categories_sizes":[],"default_left":[0,0,0,0,0,0,0,0,0,0,0,0,0,0,0],"id":68,"left_children":[1,-1,3,5,7,9,-1,11,13,-1,-1,-1,-1,-1,-1],"loss_changes":[4.6748656E-1,0E0,7.44162E-1,6.644584E-1,6.41647E-1,9.1200024E-1,0E0,1.3391948E-1,2.9167575E-1,0E0,0E0,0E0,0E0,0E0,0E0],"parents":[2147483647,0,0,2,2,3,3,4,4,5,5,7,7,8,8],"right_children":[2,-1,4,6,8,10,-1,12,14,-1,-1,-1,-1,-1,-1],"split_conditions":[1.005E3,2.1167709E-2,6.519301E-2,5.935845E-2,6.9991454E-2,4.829894E-2,-3.3534132E-2,6.76707E-2,1.125E3,-1.5678143E-2,2.2900961E-2,6.2137595E-3,3.4419283E-2,8.565047E-3,-1.868239E-2],"split_indices":[4,0,0,0,0,0,0,0,4,0,0,0,0,0,0],"split_type":[0,0,0,0,0,0,0,0,0,0,0,0,0,0,0],"sum_hessian":[1.2009685E1,1.5863518E0,1.0423332E1,6.023836E0,4.3994966E0,4.5037446E0,1.5200915E0,2.277156E0,2.1223404E0,3.03055E0,1.4731945E0,1.2071396E0,1.0700164E0,1.0381898E0,1.0841506E0],"tree_param":{"num_deleted":"0","num_feature":"6","num_nodes":"15","size_leaf_vector":"1"}},{"base_weights":[1.05553076E-1,-1.8733205E-1,2.5102717E-1,1.7006008E-2,-4.319242E-1,6.534424E-1,-1.1252734E-1,-3.8109146E-2,9.224616E-3,4.084232E-2,8.579832E-3,-3.9581132E-1,2.1953026E-2,2.8243524E-4,-3.6781244E-2],"categories":[],"categories_nodes":[],"categories_segments":[],"categories_sizes":[],"default_left":[0,0,0,0,0,0,0,0,0,0,0,0,0,0,0],"id":69,"left_children":[1,3,5,-1,7,9,11,-1,-1,-1,-1,13,-1,-1,-1],"loss_changes":[5.769142E-1,7.532394E-1,1.3517132E0,0E0,8.8396674E-1,1.9789469E-1,1.0242996E0,0E0,0E0,0E0,0E0,5.6649435E-1,0E0,0E0,0E0],"parents":[2147483647,0,0,1,1,2,2,4,4,5,5,6,6,11,11],"right_children":[2,4,6,-1,8,10,12,-1,-1,-1,-1,14,-1,-1,-1],"split_conditions":[7.17E2,4.0369306E-2,1.142E3,1.7006008E-2,6.651911E-2,6.0878523E-2,5.709E3,-3.8109146E-2,9.224616E-3,4.084232E-2,8.579832E-3,5.935845E-2,2.1953026E-2,2.8243524E-4,-3.6781244E-2],"split_indices":[1,0,1,0,0,0,1,0,0,0,0,0,0,0,0],"split_type":[0,0,0,0,0,0,0,0,0,0,0,0,0,0,0],"sum_hessian":[1.1436604E1,3.699869E0,7.736735E0,1.0484252E0,2.6514435E0,3.293651E0,4.443084E0,1.5724792E0,1.0789642E0,1.9403821E0,1.3532689E0,3.1220691E0,1.3210146E0,1.8820126E0,1.2400565E0],"tree_param":{"num_deleted":"0","num_feature":"6","num_nodes":"15","size_leaf_vector":"1"}},{"base_weights":[1.1803424E-1,-2.0199998E-1,2.5470814E-1,-5.3296775E-1,2.090483E-2,4.5267493E-1,-6.87875E-2,-4.974354E-3,-3.448297E-2,1.0692108E-1,4.051073E-2,-2.1585435E-2,2.1444028E-2,-1.9785976E-2,2.2205066E-2],"categories":[],"categories_nodes":[],"categories_segments":[],"categories_sizes":[],"default_left":[0,0,0,0,0,0,0,0,0,0,0,0,0,0,0],"id":70,"left_children":[1,3,5,7,-1,9,11,-1,-1,13,-1,-1,-1,-1,-1],"loss_changes":[5.8569866E-1,1.0874482E0,6.075879E-1,1.4781797E-1,0E0,6.1997724E-1,9.591348E-1,0E0,0E0,8.6347145E-1,0E0,0E0,0E0,0E0,0E0],"parents":[2147483647,0,0,1,1,2,2,3,3,5,5,6,6,9,9],"right_children":[2,4,6,8,-1,10,12,-1,-1,14,-1,-1,-1,-1,-1],"split_conditions":[6.54E2,6.76707E-2,1.29E3,1.035E3,2.090483E-2,7.138574E-3,5.709E3,-4.974354E-3,-3.448297E-2,4.829894E-2,4.051073E-2,-2.1585435E-2,2.1444028E-2,-1.9785976E-2,2.2205066E-2],"split_indices":[1,0,1,4,0,2,1,0,0,0,0,0,0,0,0],"split_type":[0,0,0,0,0,0,0,0,0,0,0,0,0,0,0],"sum_hessian":[1.1214077E1,3.2128735E0,8.001204E0,2.1864142E0,1.0264592E0,4.71592E0,3.2852833E0,1.014571E0,1.1718432E0,3.0578828E0,1.658037E0,1.9764829E0,1.3088006E0,1.1580069E0,1.8998758E0],"tree_param":{"num_deleted":"0","num_feature":"6","num_nodes":"15","size_leaf_vector":"1"}},{"base_weights":[4.3582696E-2,-1.13303944E-1,2.8572288E-1,1.0865788E-1,-3.3356197E-2,3.148518E-2,-1.3500035E-1,-1.9531684E-1,4.3159157E-1,-2.3901716E-2,1.2821398E-2,2.221138E-4,-1.8308273E-2,-5.612754E-3,3.6867924E-2],"categories":[],"categories_nodes":[],"categories_segments":[],"categories_sizes":[],"default_left":[0,0,0,0,0,0,0,0,0,0,0,0,0,0,0],"id":71,"left_children":[1,3,5,7,-1,-1,9,11,13,-1,-1,-1,-1,-1,-1],"loss_changes":[5.043153E-1,1.0872272E0,8.3299077E-1,7.471903E-1,0E0,0E0,5.453191E-1,1.4384115E-1,6.790749E-1,0E0,0E0,0E0,0E0,0E0,0E0],"parents":[2147483647,0,0,1,1,2,2,3,3,6,6,7,7,8,8],"right_children":[2,4,6,8,-1,-1,10,12,14,-1,-1,-1,-1,-1,-1],"split_conditions":[6.519301E-2,5.935845E-2,6.9991454E-2,7.138574E-3,-3.3356197E-2,3.148518E-2,2.6643115E-1,1.065E3,1.035E3,-2.3901716E-2,1.2821398E-2,2.221138E-4,-1.8308273E-2,-5.612754E-3,3.6867924E-2],"split_indices":[0,0,0,2,0,0,0,4,4,0,0,0,0,0,0],"split_type":[0,0,0,0,0,0,0,0,0,0,0,0,0,0,0],"sum_hessian":[1.142326E1,7.2548165E0,4.1684427E0,5.752938E0,1.5018787E0,2.0201025E0,2.1483405E0,3.1670246E0,2.5859132E0,1.0270305E0,1.1213099E0,1.9089943E0,1.2580302E0,1.1584072E0,1.427506E0],"tree_param":{"num_deleted":"0","num_feature":"6","num_nodes":"15","size_leaf_vector":"1"}},{"base_weights":[-1.4621209E-2,-1.5672074E-1,2.5435734E-1,1.28686E-2,-2.68734E-1,2.8837128E-2,-9.121945E-3,3.6867615E-2,-3.2087717E-2,-2.3191147E-2,1.9490363E-2],"categories":[],"categories_nodes":[],"categories_segments":[],"categories_sizes":[],"default_left":[0,0,0,0,0,0,0,0,0,0,0],"id":72,"left_children":[1,3,5,-1,7,-1,-1,9,-1,-1,-1],"loss_changes":[4.830411E-1,4.4977224E-1,7.233099E-1,0E0,8.1567276E-1,0E0,0E0,1.0227822E0,0E0,0E0,0E0],"parents":[2147483647,0,0,1,1,2,2,4,4,7,7],"right_children":[2,4,6,-1,8,-1,-1,10,-1,-1,-1],"split_conditions":[1.1375845E-2,-1.2029025E-1,4.893544E-2,1.28686E-2,9E2,2.8837128E-2,-9.121945E-3,-1.0110713E-2,-3.2087717E-2,-2.3191147E-2,1.9490363E-2],"split_indices":[2,2,2,0,1,0,0,2,0,0,0],"split_type":[0,0,0,0,0,0,0,0,0,0,0],"sum_hessian":[1.0594924E1,7.2056017E0,3.3893218E0,1.2578533E0,5.947748E0,1.7657132E0,1.6236086E0,3.7646642E0,2.1830842E0,1.4266318E0,2.3380322E0],"tree_param":{"num_deleted":"0","num_feature":"6","num_nodes":"11","size_leaf_vector":"1"}},{"base_weights":[4.440405E-2,-2.976042E-1,2.1447664E-1,8.690721E-3,-4.9607146E-1,2.4554761E-2,1.7378492E-2,-3.476403E-2,-3.292799E-3,-2.8606912E-1,2.9669536E-2,7.761057E-3,-2.4098769E-2],"categories":[],"categories_nodes":[],"categories_segments":[],"categories_sizes":[],"default_left":[0,0,0,0,0,0,0,0,0,0,0,0,0],"id":73,"left_children":[1,3,5,-1,7,-1,9,-1,-1,11,-1,-1,-1],"loss_changes":[7.494542E-1,4.9168584E-1,4.5236897E-1,0E0,2.3781842E-1,0E0,1.2137805E0,0E0,0E0,4.7135288E-1,0E0,0E0,0E0],"parents":[2147483647,0,0,1,1,2,2,4,4,6,6,9,9],"right_children":[2,4,6,-1,8,-1,10,-1,-1,12,-1,-1,-1],"split_conditions":[6.64E2,1.005E3,1.036E3,8.690721E-3,1.155E3,2.4554761E-2,3.5655476E-2,-3.476403E-2,-3.292799E-3,-1.1564181E-1,2.9669536E-2,7.761057E-3,-2.4098769E-2],"split_indices":[1,4,1,0,4,0,2,0,0,2,0,0,0],"split_type":[0,0,0,0,0,0,0,0,0,0,0,0,0],"sum_hessian":[1.0787338E1,3.3336513E0,7.4536867E0,1.0244632E0,2.3091881E0,2.4806194E0,4.9730673E0,1.1572211E0,1.1519672E0,3.5868502E0,1.3862172E0,1.1666284E0,2.420222E0],"tree_param":{"num_deleted":"0","num_feature":"6","num_nodes":"13","size_leaf_vector":"1"}},{"base_weights":[-4.2171996E-2,-1.5229578E-1,2.33912E-2,2.5183827E-1,-3.4584698E-1,-1.5082845E-2,3.8185637E-2,-5.111266E-1,-3.2786448E-2,-4.3670785E-2,-5.726851E-4,-2.1258181E-2,1.6935281E-2],"categories":[],"categories_nodes":[],"categories_segments":[],"categories_sizes":[],"default_left":[0,0,0,0,0,0,0,0,0,0,0,0,0],"id":74,"left_children":[1,3,-1,5,7,-1,-1,9,11,-1,-1,-1,-1],"loss_changes":[6.4979887E-1,8.0879164E-1,0E0,1.2408313E0,3.2784313E-1,0E0,0E0,7.666333E-1,6.351937E-1,0E0,0E0,0E0,0E0],"parents":[2147483647,0,0,1,1,3,3,4,4,7,7,8,8],"right_children":[2,4,-1,6,8,-1,-1,10,12,-1,-1,-1,-1],"split_conditions":[5.558E3,4.541181E-2,2.33912E-2,7.138574E-3,6.519301E-2,-1.5082845E-2,3.8185637E-2,9.05E2,1.155E3,-4.3670785E-2,-5.726851E-4,-2.1258181E-2,1.6935281E-2],"split_indices":[1,0,0,2,0,0,0,1,4,0,0,0,0],"split_type":[0,0,0,0,0,0,0,0,0,0,0,0,0],"sum_hessian":[9.301344E0,8.226392E0,1.074952E0,2.5664692E0,5.659922E0,1.4304215E0,1.1360477E0,3.2901947E0,2.3697276E0,1.4737056E0,1.8164891E0,1.0822055E0,1.287522E0],"tree_param":{"num_deleted":"0","num_feature":"6","num_nodes":"13","size_leaf_vector":"1"}},{"base_weights":[1.007706E-1,4.4987777E-1,-3.1080052E-2,3.645864E-3,3.230365E-2,-3.122845E-1,2.0830591E-1,-3.48975E-2,2.4514573E-2,3.714042E-2,-8.4172145E-2,1.19628E-2,-2.235201E-2],"categories":[],"categories_nodes":[],"categories_segments":[],"categories_sizes":[],"default_left":[0,0,0,0,0,0,0,0,0,0,0,0,0],"id":75,"left_children":[1,3,5,-1,-1,7,9,-1,-1,-1,11,-1,-1],"loss_changes":[5.7603216E-1,2.052368E-1,7.24649E-1,0E0,0E0,1.8606776E0,9.8372436E-1,0E0,0E0,0E0,6.593576E-1,0E0,0E0],"parents":[2147483647,0,0,1,1,2,2,5,5,6,6,10,10],"right_children":[2,4,6,-1,-1,8,10,-1,-1,-1,12,-1,-1],"split_conditions":[4.060754E-2,3.3200867E-2,8.95E2,3.645864E-3,3.230365E-2,6.76707E-2,1.142E3,-3.48975E-2,2.4514573E-2,3.714042E-2,1.095E3,1.19628E-2,-2.235201E-2],"split_indices":[0,0,1,0,0,0,1,0,0,0,4,0,0],"split_type":[0,0,0,0,0,0,0,0,0,0,0,0,0],"sum_hessian":[1.1210512E1,2.412033E0,8.798479E0,1.2951835E0,1.1168495E0,3.9058223E0,4.8926563E0,2.7261674E0,1.1796548E0,1.1858371E0,3.7068193E0,2.1400356E0,1.5667837E0],"tree_param":{"num_deleted":"0","num_feature":"6","num_nodes":"13","size_leaf_vector":"1"}},{"base_weights":[-3.886259E-2,-2.3007186E-2,5.5594254E-2,2.2166643E-2,-8.920267E-2,-3.1594764E-2,8.8076755E-2,2.7207762E-2,-4.1160253E-3],"categories":[],"categories_nodes":[],"categories_segments":[],"categories_sizes":[],"default_left":[0,0,0,0,0,0,0,0,0],"id":76,"left_children":[1,-1,3,-1,5,-1,7,-1,-1],"loss_changes":[4.8107526E-1,0E0,6.145884E-1,0E0,8.532182E-1,0E0,5.9861875E-1,0E0,0E0],"parents":[2147483647,0,0,2,2,4,4,6,6],"right_children":[2,-1,4,-1,6,-1,8,-1,-1],"split_conditions":[3.4892183E-2,-2.3007186E-2,4.541181E-2,2.2166643E-2,5.3893786E-2,-3.1594764E-2,5.935845E-2,2.7207762E-2,-4.1160253E-3],"split_indices":[0,0,0,0,0,0,0,0,0],"split_type":[0,0,0,0,0,0,0,0,0],"sum_hessian":[1.0446615E1,1.2042305E0,9.242385E0,1.95242E0,7.2899647E0,1.1635798E0,6.126385E0,1.0697321E0,5.056653E0],"tree_param":{"num_deleted":"0","num_feature":"6","num_nodes":"9","size_leaf_vector":"1"}},{"base_weights":[9.8885335E-2,-8.79714E-3,3.2406464E-2,1.22856386E-1,-2.1210587E-2,-2.4478452E-2,1.8718816E-2,1.7160267E-2,-8.938357E-3],"categories":[],"categories_nodes":[],"categories_segments":[],"categories_sizes":[],"default_left":[0,0,0,0,0,0,0,0,0],"id":77,"left_children":[1,3,-1,5,-1,7,-1,-1,-1],"loss_changes":[7.320696E-1,6.676523E-1,0E0,3.5460612E-1,0E0,4.4807684E-1,0E0,0E0,0E0],"parents":[2147483647,0,0,1,1,3,3,5,5],"right_children":[2,4,-1,6,-1,8,-1,-1,-1],"split_conditions":[5.709E3,1.29E3,3.2406464E-2,9.519888E-3,-2.1210587E-2,1.035E3,1.8718816E-2,1.7160267E-2,-8.938357E-3],"split_indices":[1,1,0,2,0,4,0,0,0],"split_type":[0,0,0,0,0,0,0,0,0],"sum_hessian":[1.1281357E1,1.0254823E1,1.0265344E0,8.321745E0,1.9330782E0,5.81697E0,2.5047748E0,1.3574969E0,4.4594727E0],"tree_param":{"num_deleted":"0","num_feature":"6","num_nodes":"9","size_leaf_vector":"1"}},{"base_weights":[4.172495E-2,2.162871E-2,-7.335801E-2,-2.1249285E-1,1.24512084E-1,-4.932566E-2,-2.410412E-2,2.0466272E-2,-1.0051268E-2,-1.4756376E-2,1.8460836E-2],"categories":[],"categories_nodes":[],"categories_segments":[],"categories_sizes":[],"default_left":[0,0,0,0,0,0,0,0,0,0,0],"id":78,"left_children":[1,-1,3,5,7,9,-1,-1,-1,-1,-1],"loss_changes":[5.579039E-1,0E0,2.9879066E-1,2.4795705E-1,5.194021E-1,6.194793E-1,0E0,0E0,0E0,0E0,0E0],"parents":[2147483647,0,0,2,2,3,3,4,4,5,5],"right_children":[2,-1,4,6,8,10,-1,-1,-1,-1,-1],"split_conditions":[1.005E3,2.162871E-2,6.519301E-2,5.9051644E-2,6.903521E-2,4.829894E-2,-2.410412E-2,2.0466272E-2,-1.0051268E-2,-1.4756376E-2,1.8460836E-2],"split_indices":[4,0,0,0,0,0,0,0,0,0,0],"split_type":[0,0,0,0,0,0,0,0,0,0,0],"sum_hessian":[1.0697869E1,1.8058767E0,8.891993E0,5.1774807E0,3.7145119E0,3.962295E0,1.2151856E0,1.843898E0,1.8706138E0,2.6820483E0,1.2802467E0],"tree_param":{"num_deleted":"0","num_feature":"6","num_nodes":"11","size_leaf_vector":"1"}},{"base_weights":[6.313545E-2,4.495062E-1,-7.840158E-2,3.624022E-3,3.213727E-2,-2.8142689E-2,9.468149E-2,-2.4756762E-1,3.4877393E-1,-3.533255E-2,2.3914581E-2,3.969604E-2,-4.675854E-3],"categories":[],"categories_nodes":[],"categories_segments":[],"categories_sizes":[],"default_left":[0,0,0,0,0,0,0,0,0,0,0,0,0],"id":79,"left_children":[1,3,5,-1,-1,-1,7,9,11,-1,-1,-1,-1],"loss_changes":[7.060796E-1,2.0385295E-1,8.7751573E-1,0E0,0E0,0E0,7.905901E-1,1.6826979E0,1.0710382E0,0E0,0E0,0E0,0E0],"parents":[2147483647,0,0,1,1,2,2,6,6,7,7,8,8],"right_children":[2,4,6,-1,-1,-1,8,10,12,-1,-1,-1,-1],"split_conditions":[4.060754E-2,3.3200867E-2,4.829894E-2,3.624022E-3,3.213727E-2,-2.8142689E-2,9.05E2,6.76707E-2,1.095E3,-3.533255E-2,2.3914581E-2,3.969604E-2,-4.675854E-3],"split_indices":[0,0,0,0,0,0,1,0,4,0,0,0,0],"split_type":[0,0,0,0,0,0,0,0,0,0,0,0,0],"sum_hessian":[1.1267135E1,2.437448E0,8.829687E0,1.2919087E0,1.1455392E0,1.7314639E0,7.098223E0,3.0353906E0,4.0628324E0,1.875597E0,1.1597936E0,1.6286485E0,2.4341838E0],"tree_param":{"num_deleted":"0","num_feature":"6","num_nodes":"13","size_leaf_vector":"1"}},{"base_weights":[1.2498375E-1,-1.9896817E-1,2.7699703E-1,1.200908E-2,-3.9942935E-1,3.715774E-1,-8.366851E-3,-2.6508993E-2,-2.4331189E-3,5.4353315E-1,-3.6240906E-2,3.3726722E-2,5.221065E-3,-1.7103149E-2,1.4813329E-2],"categories":[],"categories_nodes":[],"categories_segments":[],"categories_sizes":[],"default_left":[0,0,0,0,0,0,0,0,0,0,0,0,0,0,0],"id":80,"left_children":[1,3,5,-1,7,9,-1,-1,-1,11,13,-1,-1,-1,-1],"loss_changes":[6.4771557E-1,4.8550534E-1,4.2395157E-1,0E0,1.3077033E-1,5.3920805E-1,0E0,0E0,0E0,2.3291707E-1,4.201021E-1,0E0,0E0,0E0,0E0],"parents":[2147483647,0,0,1,1,2,2,4,4,5,5,9,9,10,10],"right_children":[2,4,6,-1,8,10,-1,-1,-1,12,14,-1,-1,-1,-1],"split_conditions":[6.64E2,3.64E2,6.437882E-2,1.200908E-2,1.14E3,1.29E3,-8.366851E-3,-2.6508993E-2,-2.4331189E-3,1.17E3,5.447E3,3.3726722E-2,5.221065E-3,-1.7103149E-2,1.4813329E-2],"split_indices":[1,1,2,0,4,1,0,0,0,4,1,0,0,0,0],"split_type":[0,0,0,0,0,0,0,0,0,0,0,0,0,0,0],"sum_hessian":[1.1033751E1,3.4252958E0,7.6084547E0,1.0114249E0,2.4138708E0,6.408164E0,1.200291E0,1.3858131E0,1.0280578E0,4.2734785E0,2.1346853E0,2.8785732E0,1.3949053E0,1.0969937E0,1.0376917E0],"tree_param":{"num_deleted":"0","num_feature":"6","num_nodes":"15","size_leaf_vector":"1"}},{"base_weights":[5.194503E-2,-1.0658857E-1,2.9746553E-1,9.6106656E-2,-3.0672012E-2,2.3963332E-2,1.3812704E-4,-1.833384E-1,3.4502432E-1,6.4367927E-3,-2.4152046E-2,3.5734214E-2,-2.2558325E-3],"categories":[],"categories_nodes":[],"categories_segments":[],"categories_sizes":[],"default_left":[0,0,0,0,0,0,0,0,0,0,0,0,0],"id":81,"left_children":[1,3,5,7,-1,-1,-1,9,11,-1,-1,-1,-1],"loss_changes":[5.0405127E-1,8.921604E-1,2.6791108E-1,5.263695E-1,0E0,0E0,0E0,4.1662422E-1,5.901232E-1,0E0,0E0,0E0,0E0],"parents":[2147483647,0,0,1,1,2,2,3,3,7,7,8,8],"right_children":[2,4,6,8,-1,-1,-1,10,12,-1,-1,-1,-1],"split_conditions":[6.519301E-2,5.935845E-2,6.9991454E-2,7.138574E-3,-3.0672012E-2,2.3963332E-2,1.3812704E-4,1.035E3,2.6427062E-2,6.4367927E-3,-2.4152046E-2,3.5734214E-2,-2.2558325E-3],"split_indices":[0,0,0,2,0,0,0,4,2,0,0,0,0],"split_type":[0,0,0,0,0,0,0,0,0,0,0,0,0],"sum_hessian":[1.1135289E1,7.1101213E0,4.025168E0,5.657867E0,1.4522544E0,2.1021128E0,1.923055E0,2.789603E0,2.868264E0,1.6460541E0,1.1435488E0,1.0456475E0,1.8226165E0],"tree_param":{"num_deleted":"0","num_feature":"6","num_nodes":"13","size_leaf_vector":"1"}},{"base_weights":[-8.6251065E-2,2.231839E-1,-2.4039711E-1,2.5231594E-2,-1.4047295E-2,-2.7475206E-2,-9.237151E-2,1.3958799E-2,-2.6459125E-1,-2.3842588E-2,1.677474E-3],"categories":[],"categories_nodes":[],"categories_segments":[],"categories_sizes":[],"default_left":[0,0,0,0,0,0,0,0,0,0,0],"id":82,"left_children":[1,3,5,-1,-1,-1,7,-1,9,-1,-1],"loss_changes":[5.7523507E-1,7.31255E-1,3.0524218E-1,0E0,0E0,0E0,4.8742783E-1,0E0,3.2795736E-1,0E0,0E0],"parents":[2147483647,0,0,1,1,2,2,6,6,8,8],"right_children":[2,4,6,-1,-1,-1,8,-1,10,-1,-1],"split_conditions":[4.541181E-2,1.027E3,5.3893786E-2,2.5231594E-2,-1.4047295E-2,-2.7475206E-2,6.0878523E-2,1.3958799E-2,1.155E3,-2.3842588E-2,1.677474E-3],"split_indices":[0,1,0,0,0,0,0,0,4,0,0],"split_type":[0,0,0,0,0,0,0,0,0,0,0],"sum_hessian":[9.935058E0,3.1545987E0,6.780459E0,2.0237653E0,1.1308334E0,1.3173488E0,5.4631104E0,1.5335591E0,3.9295511E0,1.9452308E0,1.9843204E0],"tree_param":{"num_deleted":"0","num_feature":"6","num_nodes":"11","size_leaf_vector":"1"}},{"base_weights":[5.347923E-2,2.7312234E-1,-6.0885765E-2,-7.7789775E-3,2.8716505E-2,-3.4298864E-1,1.9220483E-1,-4.1542698E-2,1.5736075E-1,2.3523912E-2,-1.2748194E-1,1.9832125E-2,-7.914304E-3,-3.15577E-2,1.938189E-2],"categories":[],"categories_nodes":[],"categories_segments":[],"categories_sizes":[],"default_left":[0,0,0,0,0,0,0,0,0,0,0,0,0,0,0],"id":83,"left_children":[1,3,5,-1,-1,7,9,-1,11,-1,13,-1,-1,-1,-1],"loss_changes":[3.2809347E-1,6.611129E-1,7.064656E-1,0E0,0E0,1.2540334E0,5.376742E-1,0E0,2.9786906E-1,0E0,1.0971496E0,0E0,0E0,0E0,0E0],"parents":[2147483647,0,0,1,1,2,2,5,5,6,6,8,8,10,10],"right_children":[2,4,6,-1,-1,8,10,-1,12,-1,14,-1,-1,-1,-1],"split_conditions":[4.541181E-2,3.4892183E-2,6.519301E-2,-7.7789775E-3,2.8716505E-2,9.05E2,6.9991454E-2,-4.1542698E-2,1.191E3,2.3523912E-2,5.709E3,1.9832125E-2,-7.914304E-3,-3.15577E-2,1.938189E-2],"split_indices":[0,0,0,0,0,1,0,0,1,0,1,0,0,0,0],"split_type":[0,0,0,0,0,0,0,0,0,0,0,0,0,0,0],"sum_hessian":[1.1399308E1,3.4278343E0,7.971474E0,1.6140606E0,1.8137736E0,3.6017015E0,4.3697724E0,1.4891548E0,2.112547E0,2.0840302E0,2.2857423E0,1.0556728E0,1.056874E0,1.0418191E0,1.2439233E0],"tree_param":{"num_deleted":"0","num_feature":"6","num_nodes":"15","size_leaf_vector":"1"}},{"base_weights":[3.936849E-3,-1.883064E-2,1.13913804E-1,3.398045E-1,-3.581715E-2,-7.527688E-3,3.5728693E-2,-3.1476125E-1,2.972665E-1,-4.089711E-2,1.17730815E-2,-5.0961566E-3,2.7118256E-2],"categories":[],"categories_nodes":[],"categories_segments":[],"categories_sizes":[],"default_left":[0,0,0,0,0,0,0,0,0,0,0,0,0],"id":84,"left_children":[1,-1,3,5,7,-1,-1,9,11,-1,-1,-1,-1],"loss_changes":[5.483638E-1,0E0,3.5504806E-1,8.677262E-1,7.440511E-1,0E0,0E0,1.3819656E0,4.1779745E-1,0E0,0E0,0E0,0E0],"parents":[2147483647,0,0,2,2,3,3,4,4,7,7,8,8],"right_children":[2,-1,4,6,8,-1,-1,10,12,-1,-1,-1,-1],"split_conditions":[-4.5414634E-2,-1.883064E-2,4.541181E-2,3.4892183E-2,6.519301E-2,-7.527688E-3,3.5728693E-2,9.05E2,1.155E3,-4.089711E-2,1.17730815E-2,-5.0961566E-3,2.7118256E-2],"split_indices":[2,0,0,0,0,0,0,1,4,0,0,0,0],"split_type":[0,0,0,0,0,0,0,0,0,0,0,0,0],"sum_hessian":[1.1077467E1,1.9400176E0,9.137449E0,3.1363618E0,6.001087E0,1.6178282E0,1.5185336E0,3.2959068E0,2.7051804E0,1.4673995E0,1.8285073E0,1.2513212E0,1.4538593E0],"tree_param":{"num_deleted":"0","num_feature":"6","num_nodes":"13","size_leaf_vector":"1"}},{"base_weights":[6.734576E-2,1.5211391E-1,-1.1954959E-2,-1.5833583E-1,3.255752E-1,1.2439388E-2,-1.9127479E-2,2.8488804E-2,1.4710598E-1,-7.0515065E-3,1.6996028E-2],"categories":[],"categories_nodes":[],"categories_segments":[],"categories_sizes":[],"default_left":[0,0,0,0,0,0,0,0,0,0,0],"id":85,"left_children":[1,3,-1,5,7,-1,-1,-1,9,-1,-1],"loss_changes":[3.1957516E-1,5.4434675E-1,0E0,4.5602134E-1,1.8630719E-1,0E0,0E0,0E0,3.2177866E-1,0E0,0E0],"parents":[2147483647,0,0,1,1,3,3,4,4,8,8],"right_children":[2,4,-1,6,8,-1,-1,-1,10,-1,-1],"split_conditions":[6.9991454E-2,6.12E2,-1.1954959E-2,3.64E2,8.74E2,1.2439388E-2,-1.9127479E-2,2.8488804E-2,4.829894E-2,-7.0515065E-3,1.6996028E-2],"split_indices":[0,1,0,1,1,0,0,0,0,0,0],"split_type":[0,0,0,0,0,0,0,0,0,0,0],"sum_hessian":[9.902234E0,8.151109E0,1.7511255E0,2.9530785E0,5.1980305E0,1.0098354E0,1.9432431E0,1.2690313E0,3.9289992E0,1.6828185E0,2.2461808E0],"tree_param":{"num_deleted":"0","num_feature":"6","num_nodes":"11","size_leaf_vector":"1"}},{"base_weights":[5.158016E-3,-7.3054455E-2,1.9562803E-2,4.19585E-2,-3.0826274E-2,-9.008119E-2,2.6715739E-2,1.6566165E-2,-1.1662334E-2],"categories":[],"categories_nodes":[],"categories_segments":[],"categories_sizes":[],"default_left":[0,0,0,0,0,0,0,0,0],"id":86,"left_children":[1,3,-1,5,-1,7,-1,-1,-1],"loss_changes":[4.0312758E-1,7.232169E-1,0E0,7.076068E-1,0E0,6.114891E-1,0E0,0E0,0E0],"parents":[2147483647,0,0,1,1,3,3,5,5],"right_children":[2,4,-1,6,-1,8,-1,-1,-1],"split_conditions":[5.709E3,6.9991454E-2,1.9562803E-2,6.693138E-2,-3.0826274E-2,1.005E3,2.6715739E-2,1.6566165E-2,-1.1662334E-2],"split_indices":[1,0,0,0,0,4,0,0,0],"split_type":[0,0,0,0,0,0,0,0,0],"sum_hessian":[1.140309E1,1.01564665E1,1.246623E0,9.144122E0,1.0123445E0,7.8546968E0,1.2894253E0,1.6585433E0,6.196153E0],"tree_param":{"num_deleted":"0",